<?xml version="1.0"?>
<opencv_storage>
<cascade>
  <stageType>BOOST</stageType>
  <featureType>LBP</featureType>
  <height>30</height>
  <width>48</width>
  <stageParams>
    <boostType>GAB</boostType>
    <minHitRate>9.9500000476837158e-01</minHitRate>
    <maxFalseAlarm>5.0000000000000000e-01</maxFalseAlarm>
    <weightTrimRate>9.4999999999999996e-01</weightTrimRate>
    <maxDepth>1</maxDepth>
    <maxWeakCount>100</maxWeakCount></stageParams>
  <featureParams>
    <maxCatCount>256</maxCatCount>
    <featSize>1</featSize></featureParams>
  <stageNum>24</stageNum>
  <stages>
    <!-- stage 0 -->
    <_>
      <maxWeakCount>2</maxWeakCount>
      <stageThreshold>1.4216325245797634e-02</stageThreshold>
      <weakClassifiers>
        <_>
          <internalNodes>
            0 -1 36 -39792488 -126978 -3 -84 962558 33554560 32906
            -603983362</internalNodes>
          <leafValues>
            -8.7848931550979614e-01 9.4349139928817749e-01</leafValues></_>
        <_>
          <internalNodes>
            0 -1 11 -721305470 1392508928 24576 1094909953 2184 8
            134254793 -1014251253</internalNodes>
          <leafValues>
            -8.2368463277816772e-01 8.9270567893981934e-01</leafValues></_></weakClassifiers></_>
    <!-- stage 1 -->
    <_>
      <maxWeakCount>3</maxWeakCount>
      <stageThreshold>-7.5176304578781128e-01</stageThreshold>
      <weakClassifiers>
        <_>
          <internalNodes>
            0 -1 1 -87754534 -45399872 -2130689953 -536870914
            -1995913080 -1182269432 -1073698133 -74450181</internalNodes>
          <leafValues>
            -7.6276773214340210e-01 8.6908358335494995e-01</leafValues></_>
        <_>
          <internalNodes>
            0 -1 87 -779364872 -616464236 32820 -649740159 -1073626408
            -2013265784 1610653768 -78909304</internalNodes>
          <leafValues>
            -6.7740929126739502e-01 7.5907385349273682e-01</leafValues></_>
        <_>
          <internalNodes>
            0 -1 42 -258618742 -712966080 -2130640768 -721321984
            -1932730133 -1966604288 -1610055031 -1709661682</internalNodes>
          <leafValues>
            -6.9969773292541504e-01 6.8841397762298584e-01</leafValues></_></weakClassifiers></_>
    <!-- stage 2 -->
    <_>
      <maxWeakCount>4</maxWeakCount>
      <stageThreshold>-1.1136159896850586e+00</stageThreshold>
      <weakClassifiers>
        <_>
          <internalNodes>
            0 -1 25 -141504296 -32789 281018357 -131169 -1073741826 -2
            -1476333569 -1313</internalNodes>
          <leafValues>
            -6.6953527927398682e-01 7.7428853511810303e-01</leafValues></_>
        <_>
          <internalNodes>
            0 -1 107 1359200767 -146727584 1903419385 1466130076
            1460749818 2001042237 896555001 2069306805</internalNodes>
          <leafValues>
            -5.2321559190750122e-01 6.4354085922241211e-01</leafValues></_>
        <_>
          <internalNodes>
            0 -1 2 -139999858 -587165232 1073824229 -574320349
            -1073053613 -1691844576 -2013216033 -15007261</internalNodes>
          <leafValues>
            -6.5220093727111816e-01 5.5868047475814819e-01</leafValues></_>
        <_>
          <internalNodes>
            0 -1 122 -698552066 -787443632 -788412395 -644546543
            -536297314 -1644134256 -1878357859 -121794532</internalNodes>
          <leafValues>
            -7.1248799562454224e-01 4.9728438258171082e-01</leafValues></_></weakClassifiers></_>
    <!-- stage 3 -->
    <_>
      <maxWeakCount>4</maxWeakCount>
      <stageThreshold>-3.0944299697875977e-01</stageThreshold>
      <weakClassifiers>
        <_>
          <internalNodes>
            0 -1 6 -1031212562 -249921514 287457308 -137981504
            -1732228901 -107081726 -1466284849 -67380741</internalNodes>
          <leafValues>
            -7.7823406457901001e-01 6.9991016387939453e-01</leafValues></_>
        <_>
          <internalNodes>
            0 -1 101 -949527296 2102132979 1099280405 154861952
            -1171542098 -1451196216 -400006129 -623916245</internalNodes>
          <leafValues>
            -6.9412153959274292e-01 5.6204956769943237e-01</leafValues></_>
        <_>
          <internalNodes>
            0 -1 72 -1073938435 2147483644 -65537 -1074024452 -10092554
            -196620 2138372094 -1079052851</internalNodes>
          <leafValues>
            -5.0228863954544067e-01 6.5062737464904785e-01</leafValues></_>
        <_>
          <internalNodes>
            0 -1 23 209977475 -1290567405 1124094035 -2029960955
            -1861976054 -1459617792 -402537877 -1089781367</internalNodes>
          <leafValues>
            -6.7686140537261963e-01 5.1228529214859009e-01</leafValues></_></weakClassifiers></_>
    <!-- stage 4 -->
    <_>
      <maxWeakCount>4</maxWeakCount>
      <stageThreshold>-2.5646036863327026e-01</stageThreshold>
      <weakClassifiers>
        <_>
          <internalNodes>
            0 -1 9 -39857188 -1685912698 1090524216 1025493322
            -2109011793 419529227 -519931252 -74739541</internalNodes>
          <leafValues>
            -6.5652173757553101e-01 6.1578947305679321e-01</leafValues></_>
        <_>
          <internalNodes>
            0 -1 8 774302463 -394211239 -1722740725 -322820095
            -649416208 -50102267 2064306178 -23470070</internalNodes>
          <leafValues>
            -6.7280977964401245e-01 4.6277579665184021e-01</leafValues></_>
        <_>
          <internalNodes>
            0 -1 135 -1563957758 1963704577 588388096 -1585197055
            -401608206 -2011068248 -2097091968 -5384019</internalNodes>
          <leafValues>
            -6.3068586587905884e-01 4.8896172642707825e-01</leafValues></_>
        <_>
          <internalNodes>
            0 -1 114 475626871 321510101 1723471369 1573257172
            -1476944877 -2128186457 336867589 -1252067995</internalNodes>
          <leafValues>
            -5.5167615413665771e-01 5.9303396940231323e-01</leafValues></_></weakClassifiers></_>
    <!-- stage 5 -->
    <_>
      <maxWeakCount>7</maxWeakCount>
      <stageThreshold>-7.7668970823287964e-01</stageThreshold>
      <weakClassifiers>
        <_>
          <internalNodes>
            0 -1 10 -823226642 -421073170 -33701889 -487919892 190840831
            -134217729 -16941057 -2097153</internalNodes>
          <leafValues>
            -4.5974954962730408e-01 6.3112390041351318e-01</leafValues></_>
        <_>
          <internalNodes>
            0 -1 58 -993016182 -1081408992 67227648 -1793916766
            -2147382389 -1476292478 1745064457 -1718881790</internalNodes>
          <leafValues>
            -5.9562903642654419e-01 4.7622552514076233e-01</leafValues></_>
        <_>
          <internalNodes>
            0 -1 133 -573571328 1519782435 276990419 -1683914578
            -2147409903 -2012692469 1099393048 -811417289</internalNodes>
          <leafValues>
            -6.8851995468139648e-01 4.3083134293556213e-01</leafValues></_>
        <_>
          <internalNodes>
            0 -1 117 1367343359 -1860759516 16781533 589906051 17465451
            134234114 554088632 1392713741</internalNodes>
          <leafValues>
            -6.0848408937454224e-01 4.5222714543342590e-01</leafValues></_>
        <_>
          <internalNodes>
            0 -1 52 -806360119 -789631322 1378601993 193912399
            -1393586293 1215797865 2139082632 -610272293</internalNodes>
          <leafValues>
            -4.6007123589515686e-01 5.9166312217712402e-01</leafValues></_>
        <_>
          <internalNodes>
            0 -1 47 -1325051689 -1692789931 -1073622059 1753269397
            -905969152 768002054 17301973 827631561</internalNodes>
          <leafValues>
            -6.4197522401809692e-01 4.1514405608177185e-01</leafValues></_>
        <_>
          <internalNodes>
            0 -1 125 -1593016101 2097152769 18124929 823722702 10649795
            150995205 1119888187 508154729</internalNodes>
          <leafValues>
            -4.8268327116966248e-01 5.4517358541488647e-01</leafValues></_></weakClassifiers></_>
    <!-- stage 6 -->
    <_>
      <maxWeakCount>7</maxWeakCount>
      <stageThreshold>-1.1830576658248901e+00</stageThreshold>
      <weakClassifiers>
        <_>
          <internalNodes>
            0 -1 3 -10 -8209 -1 -268435461 -65564 -131081 -66 -134414850</internalNodes>
          <leafValues>
            -4.8373982310295105e-01 5.7581228017807007e-01</leafValues></_>
        <_>
          <internalNodes>
            0 -1 97 273105919 508625475 272699421 1511587851 134414987
            -1434451966 134908033 1929636513</internalNodes>
          <leafValues>
            -5.3304415941238403e-01 5.1009589433670044e-01</leafValues></_>
        <_>
          <internalNodes>
            0 -1 136 -651603748 -148163348 -387984577 853846501
            -324216168 -1359139329 1278500095 -1997249082</internalNodes>
          <leafValues>
            -4.5145297050476074e-01 5.4985898733139038e-01</leafValues></_>
        <_>
          <internalNodes>
            0 -1 60 -664092605 1363936038 16781329 1376207376 131298
            1225392290 594329 1527497626</internalNodes>
          <leafValues>
            -4.9775657057762146e-01 4.8551374673843384e-01</leafValues></_>
        <_>
          <internalNodes>
            0 -1 65 -593310584 2031194400 67256593 1536951557 17502896
            -1207959424 1629538539 -913591669</internalNodes>
          <leafValues>
            -5.3209912776947021e-01 4.6819514036178589e-01</leafValues></_>
        <_>
          <internalNodes>
            0 -1 108 449170975 -247914639 1870435153 1038036581
            -1087928761 -557081 427196179 -1129626293</internalNodes>
          <leafValues>
            -4.2112305760383606e-01 6.1603671312332153e-01</leafValues></_>
        <_>
          <internalNodes>
            0 -1 61 -8621 -136053842 -471707901 1464532771 -446181939
            -1909004477 -944960376 -1076920329</internalNodes>
          <leafValues>
            -3.4125906229019165e-01 6.9301795959472656e-01</leafValues></_></weakClassifiers></_>
    <!-- stage 7 -->
    <_>
      <maxWeakCount>6</maxWeakCount>
      <stageThreshold>-6.0629254579544067e-01</stageThreshold>
      <weakClassifiers>
        <_>
          <internalNodes>
            0 -1 15 1363529866 -648298430 553683204 -1593373618
            2018019803 -1978040319 -1601664817 -138196853</internalNodes>
          <leafValues>
            -6.1340206861495972e-01 5.2640265226364136e-01</leafValues></_>
        <_>
          <internalNodes>
            0 -1 22 -788491276 -863993808 -1862202916 -1101213348
            -1979707254 -1743716223 -1056862752 -130755724</internalNodes>
          <leafValues>
            -7.9221934080123901e-01 3.1197217106819153e-01</leafValues></_>
        <_>
          <internalNodes>
            0 -1 93 992145627 286589078 270139570 1581551625 -2105106182
            1361190930 1074309283 839385243</internalNodes>
          <leafValues>
            -4.8266670107841492e-01 4.9915453791618347e-01</leafValues></_>
        <_>
          <internalNodes>
            0 -1 56 10503914 152062219 8474839 -704527867 834985128
            -931135488 -1876913458 -276215649</internalNodes>
          <leafValues>
            -6.0959231853485107e-01 3.4816014766693115e-01</leafValues></_>
        <_>
          <internalNodes>
            0 -1 43 -910310776 406896850 -1073577984 -1844356760
            671331982 16777219 1610834057 1196096237</internalNodes>
          <leafValues>
            -6.8287104368209839e-01 3.0898100137710571e-01</leafValues></_>
        <_>
          <internalNodes>
            0 -1 119 -278102096 -134234241 -1086788 1995177599 795758812
            -279117833 -1797915444 -890768148</internalNodes>
          <leafValues>
            -4.6930631995201111e-01 5.1116067171096802e-01</leafValues></_></weakClassifiers></_>
    <!-- stage 8 -->
    <_>
      <maxWeakCount>7</maxWeakCount>
      <stageThreshold>-8.0225491523742676e-01</stageThreshold>
      <weakClassifiers>
        <_>
          <internalNodes>
            0 -1 39 -1817121794 -268361453 35852359 1504509963
            -1610083831 -1425965053 71827466 -880029678</internalNodes>
          <leafValues>
            -6.2133336067199707e-01 5.1673471927642822e-01</leafValues></_>
        <_>
          <internalNodes>
            0 -1 104 -2095852604 826544457 163856 -1853677433 33659316
            -886374379 -1022819107 -344200319</internalNodes>
          <leafValues>
            -6.8305879831314087e-01 3.4128484129905701e-01</leafValues></_>
        <_>
          <internalNodes>
            0 -1 147 1602179541 -1324219054 -1988091369 -37552032
            832605342 -722911155 536969436 406857961</internalNodes>
          <leafValues>
            -5.1451820135116577e-01 4.5447257161140442e-01</leafValues></_>
        <_>
          <internalNodes>
            0 -1 30 -1711144309 1896349706 -2009030011 -1960762805
            -2124567573 142639104 -930766776 1497877135</internalNodes>
          <leafValues>
            -4.9570858478546143e-01 4.9664425849914551e-01</leafValues></_>
        <_>
          <internalNodes>
            0 -1 106 -334765901 -607993310 1745453143 1062324256
            1124156546 -1744746324 1444989588 1980056084</internalNodes>
          <leafValues>
            -5.6840771436691284e-01 4.0435630083084106e-01</leafValues></_>
        <_>
          <internalNodes>
            0 -1 83 -1810672917 1611239443 335970707 73750596 813764758
            438403086 1754304183 -1902203973</internalNodes>
          <leafValues>
            -4.8377057909965515e-01 5.0162476301193237e-01</leafValues></_>
        <_>
          <internalNodes>
            0 -1 150 -1727818832 1375961611 589969 1560346945 865108000
            -402440059 1375822984 -576590697</internalNodes>
          <leafValues>
            -5.2791184186935425e-01 4.6743014454841614e-01</leafValues></_></weakClassifiers></_>
    <!-- stage 9 -->
    <_>
      <maxWeakCount>7</maxWeakCount>
      <stageThreshold>-4.6478956937789917e-01</stageThreshold>
      <weakClassifiers>
        <_>
          <internalNodes>
            0 -1 7 -968095670 -532283072 100794385 -2059272189
            -658178038 -1086193656 -1392443392 -268498917</internalNodes>
          <leafValues>
            -5.9654176235198975e-01 4.8443734645843506e-01</leafValues></_>
        <_>
          <internalNodes>
            0 -1 89 1161975347 -1691041832 1219484161 965710971
            1778304188 1465687678 1413504529 -834675625</internalNodes>
          <leafValues>
            -3.5079407691955566e-01 5.7961815595626831e-01</leafValues></_>
        <_>
          <internalNodes>
            0 -1 66 -546449675 -742150677 -1370513903 2067986196
            -881375601 -7897561 1853312712 -1711036587</internalNodes>
          <leafValues>
            -2.7271491289138794e-01 7.0240056514739990e-01</leafValues></_>
        <_>
          <internalNodes>
            0 -1 76 1546045155 -545858318 1331036011 2135514608
            1412979935 491028215 -681716521 -108642375</internalNodes>
          <leafValues>
            -4.3760383129119873e-01 4.8208028078079224e-01</leafValues></_>
        <_>
          <internalNodes>
            0 -1 49 1619256450 1535640322 -2147254264 -847050746 229722
            822247426 159401993 -754220278</internalNodes>
          <leafValues>
            -6.4832276105880737e-01 3.6968001723289490e-01</leafValues></_>
        <_>
          <internalNodes>
            0 -1 110 1886489787 1343029553 -2122045543 723379
            -1562124245 -125533662 16825701 164108625</internalNodes>
          <leafValues>
            -6.3273078203201294e-01 3.2777255773544312e-01</leafValues></_>
        <_>
          <internalNodes>
            0 -1 54 -1917923653 968356730 515222545 1374761174
            2130697818 792330101 -23339351 -417610497</internalNodes>
          <leafValues>
            -3.8138434290885925e-01 6.1644625663757324e-01</leafValues></_></weakClassifiers></_>
    <!-- stage 10 -->
    <_>
      <maxWeakCount>7</maxWeakCount>
      <stageThreshold>-6.7528361082077026e-01</stageThreshold>
      <weakClassifiers>
        <_>
          <internalNodes>
            0 -1 137 1435064064 352944147 -1010827000 -1391116274
            144689952 -1333753782 -1061844960 -66352431</internalNodes>
          <leafValues>
            -7.1328669786453247e-01 4.5966514945030212e-01</leafValues></_>
        <_>
          <internalNodes>
            0 -1 128 1550930169 -42438192 419347705 685331965
            -1716199728 -151093251 -839516462 -926116752</internalNodes>
          <leafValues>
            -4.0964323282241821e-01 4.8387187719345093e-01</leafValues></_>
        <_>
          <internalNodes>
            0 -1 94 1896335733 289473537 -2126387935 621093249 137012115
            -1190068192 -2013197801 134531309</internalNodes>
          <leafValues>
            -5.0023919343948364e-01 4.5787033438682556e-01</leafValues></_>
        <_>
          <internalNodes>
            0 -1 40 19385279 1182101178 -234893569 -10747922 888594431
            -69633 884926463 -1518407681</internalNodes>
          <leafValues>
            -4.2936056852340698e-01 5.3584778308868408e-01</leafValues></_>
        <_>
          <internalNodes>
            0 -1 113 -953322241 1562596397 1995430695 -676511963
            -1074025977 -67143811 1005943637 -1436035899</internalNodes>
          <leafValues>
            -4.6505567431449890e-01 5.2392888069152832e-01</leafValues></_>
        <_>
          <internalNodes>
            0 -1 143 -289870473 -1292484673 1207363191 5791668
            -1343455494 -1611661362 1278530973 -2145642908</internalNodes>
          <leafValues>
            -4.4812393188476562e-01 5.2188283205032349e-01</leafValues></_>
        <_>
          <internalNodes>
            0 -1 59 -1064386418 1359151286 -2129872539 958005379
            1057100205 134777011 1888060176 188410603</internalNodes>
          <leafValues>
            -6.2187671661376953e-01 3.8837102055549622e-01</leafValues></_></weakClassifiers></_>
    <!-- stage 11 -->
    <_>
      <maxWeakCount>7</maxWeakCount>
      <stageThreshold>-6.2453639507293701e-01</stageThreshold>
      <weakClassifiers>
        <_>
          <internalNodes>
            0 -1 29 75499722 -774541113 419491907 -712966140 -2013242405
            -796884950 579944641 -931002996</internalNodes>
          <leafValues>
            -6.2352943420410156e-01 4.8571428656578064e-01</leafValues></_>
        <_>
          <internalNodes>
            0 -1 74 -652160045 -788229996 1358958673 -1645584300
            -1054293334 -1575485438 -393030755 -1610286267</internalNodes>
          <leafValues>
            -5.4712510108947754e-01 3.8276422023773193e-01</leafValues></_>
        <_>
          <internalNodes>
            0 -1 53 527332051 1497233760 9327129 -1686719930 258221729
            -53778561 1096615449 -338471933</internalNodes>
          <leafValues>
            -3.1154403090476990e-01 6.5214723348617554e-01</leafValues></_>
        <_>
          <internalNodes>
            0 -1 50 1531298445 273730344 229563725 352841193 -927363330
            -556220417 1320787945 -2140414565</internalNodes>
          <leafValues>
            -4.1287708282470703e-01 5.0548249483108521e-01</leafValues></_>
        <_>
          <internalNodes>
            0 -1 148 -1136475695 -1877768976 201642325 353241476
            -482295302 -1820130744 17864954 169367964</internalNodes>
          <leafValues>
            -4.8781496286392212e-01 4.5677340030670166e-01</leafValues></_>
        <_>
          <internalNodes>
            0 -1 80 -12805773 1501912281 -16901377 505008917 -566417162
            1056800237 182285514 -1671809289</internalNodes>
          <leafValues>
            -4.1876086592674255e-01 5.6316167116165161e-01</leafValues></_>
        <_>
          <internalNodes>
            0 -1 41 -2146311542 21012708 1427264520 1640469384 142966975
            16778385 270622858 -2090403686</internalNodes>
          <leafValues>
            -7.2535777091979980e-01 3.2886618375778198e-01</leafValues></_></weakClassifiers></_>
    <!-- stage 12 -->
    <_>
      <maxWeakCount>7</maxWeakCount>
      <stageThreshold>-4.3993958830833435e-01</stageThreshold>
      <weakClassifiers>
        <_>
          <internalNodes>
            0 -1 5 -286326786 2129575934 2113859558 -838926353
            -455081985 -554237953 -8454153 -646053891</internalNodes>
          <leafValues>
            -4.2692306637763977e-01 5.7592594623565674e-01</leafValues></_>
        <_>
          <internalNodes>
            0 -1 131 481447135 -42715663 -1669431811 421483644
            -1682663206 -50364673 -2005544229 -1945318060</internalNodes>
          <leafValues>
            -3.8970509171485901e-01 5.4708784818649292e-01</leafValues></_>
        <_>
          <internalNodes>
            0 -1 152 -103817472 -1073364988 1207996555 -1664497014
            -1734643645 -939474813 4948099 843451142</internalNodes>
          <leafValues>
            -5.0938826799392700e-01 4.3835145235061646e-01</leafValues></_>
        <_>
          <internalNodes>
            0 -1 91 -2117967164 1175831181 -620477883 -783690493
            -1945613909 -938966848 -1005830065 -893366719</internalNodes>
          <leafValues>
            -5.6329363584518433e-01 3.9833354949951172e-01</leafValues></_>
        <_>
          <internalNodes>
            0 -1 84 -2013261071 1569914880 285823289 1526825044
            725094634 -1725693920 438663320 134799488</internalNodes>
          <leafValues>
            -5.6825381517410278e-01 3.7125241756439209e-01</leafValues></_>
        <_>
          <internalNodes>
            0 -1 115 -787885607 -1849687787 83995536 -1984753367
            2021660714 -528449536 -1423920756 -374488660</internalNodes>
          <leafValues>
            -4.6511369943618774e-01 4.7730836272239685e-01</leafValues></_>
        <_>
          <internalNodes>
            0 -1 45 1991759931 1342782201 -337266091 355460785
            -1317083085 -1757055364 -562733730 -2041966786</internalNodes>
          <leafValues>
            -3.4693005681037903e-01 6.3363867998123169e-01</leafValues></_></weakClassifiers></_>
    <!-- stage 13 -->
    <_>
      <maxWeakCount>7</maxWeakCount>
      <stageThreshold>-6.3542097806930542e-01</stageThreshold>
      <weakClassifiers>
        <_>
          <internalNodes>
            0 -1 149 -2624636 -151257129 -120 -67593 1039490516 2162685
            -1914863324 -172556637</internalNodes>
          <leafValues>
            -4.5806452631950378e-01 5.4008811712265015e-01</leafValues></_>
        <_>
          <internalNodes>
            0 -1 37 -724206334 -720248455 1208139989 -601423800
            -2012214725 -1739554431 1883295951 -1450684414</internalNodes>
          <leafValues>
            -5.2909708023071289e-01 3.8484358787536621e-01</leafValues></_>
        <_>
          <internalNodes>
            0 -1 44 2028398246 1903837743 -2045884024 18596479
            -1291583344 268533768 -2126837757 2117859512</internalNodes>
          <leafValues>
            -5.7779687643051147e-01 3.5519340634346008e-01</leafValues></_>
        <_>
          <internalNodes>
            0 -1 92 1097090718 22350048 50802888 1093075654 2057863690
            1124139008 -1977579424 1644939297</internalNodes>
          <leafValues>
            -6.5481483936309814e-01 3.2169693708419800e-01</leafValues></_>
        <_>
          <internalNodes>
            0 -1 82 1586230323 990543273 977219171 -1643147293
            1316818630 -833982835 -809882152 -884222279</internalNodes>
          <leafValues>
            -4.1889783740043640e-01 5.2882355451583862e-01</leafValues></_>
        <_>
          <internalNodes>
            0 -1 85 -165429209 -270323998 612294488 1603280642
            1999044606 -524314 -1082474666 -73649681</internalNodes>
          <leafValues>
            -4.2003256082534790e-01 5.5764633417129517e-01</leafValues></_>
        <_>
          <internalNodes>
            0 -1 100 -1944429325 -1622438880 -1342767791 -575943143
            1689276152 1329913006 1115586559 -654647387</internalNodes>
          <leafValues>
            -4.1489112377166748e-01 5.4320067167282104e-01</leafValues></_></weakClassifiers></_>
    <!-- stage 14 -->
    <_>
      <maxWeakCount>7</maxWeakCount>
      <stageThreshold>-6.8097543716430664e-01</stageThreshold>
      <weakClassifiers>
        <_>
          <internalNodes>
            0 -1 13 1145500118 -230555446 17170693 -394264318 805373976
            -1258090359 -1031649277 -83963373</internalNodes>
          <leafValues>
            -5.9708738327026367e-01 5.4377102851867676e-01</leafValues></_>
        <_>
          <internalNodes>
            0 -1 153 -33559801 40239101 -1073760607 -1090715778
            2138537780 -8552449 -168049664 -723003533</internalNodes>
          <leafValues>
            -4.0768888592720032e-01 5.5227410793304443e-01</leafValues></_>
        <_>
          <internalNodes>
            0 -1 98 1903746495 1134878346 460984192 1772287235
            1733794619 1056864255 217560323 -759235896</internalNodes>
          <leafValues>
            -3.8398149609565735e-01 5.1715826988220215e-01</leafValues></_>
        <_>
          <internalNodes>
            0 -1 20 -948516566 -917416907 -1048256124 -1517498159
            -1329049299 1351680513 1088512223 713072968</internalNodes>
          <leafValues>
            -6.7224586009979248e-01 3.2064673304557800e-01</leafValues></_>
        <_>
          <internalNodes>
            0 -1 64 1237894191 -1039063610 -1996290009 239419439
            411230634 805568736 1255088824 550445707</internalNodes>
          <leafValues>
            -4.8936551809310913e-01 4.6191817522048950e-01</leafValues></_>
        <_>
          <internalNodes>
            0 -1 73 -1878634125 285221073 -1601978323 1955659781
            -536345827 1091666057 -1068342227 -1492499679</internalNodes>
          <leafValues>
            -5.1767408847808838e-01 4.5379361510276794e-01</leafValues></_>
        <_>
          <internalNodes>
            0 -1 126 753572571 1365344044 -942821462 -73290386
            -2030668046 -1963753530 452303795 1026229485</internalNodes>
          <leafValues>
            -4.5447236299514771e-01 4.9303540587425232e-01</leafValues></_></weakClassifiers></_>
    <!-- stage 15 -->
    <_>
      <maxWeakCount>7</maxWeakCount>
      <stageThreshold>-1.1439996957778931e+00</stageThreshold>
      <weakClassifiers>
        <_>
          <internalNodes>
            0 -1 14 1078375746 1609998738 1895825665 -2012347996 589965
            -2129854304 -1534984038 -72833021</internalNodes>
          <leafValues>
            -6.2337660789489746e-01 4.5820432901382446e-01</leafValues></_>
        <_>
          <internalNodes>
            0 -1 102 -1870628110 1036864641 -1050296185 -1069498235
            -1068646007 -671055871 -1988050549 -1534394365</internalNodes>
          <leafValues>
            -5.1034581661224365e-01 3.8696217536926270e-01</leafValues></_>
        <_>
          <internalNodes>
            0 -1 12 -326711061 -823722356 -1342280000 213389037
            1274428270 -1744896003 1144972405 -740179556</internalNodes>
          <leafValues>
            -3.5601347684860229e-01 5.7842099666595459e-01</leafValues></_>
        <_>
          <internalNodes>
            0 -1 26 -800480045 -50190640 1453717759 292489650
            -1372977957 -605599068 280675583 -1441425300</internalNodes>
          <leafValues>
            -3.2225465774536133e-01 6.3918477296829224e-01</leafValues></_>
        <_>
          <internalNodes>
            0 -1 99 -778620757 1568931841 307253267 -979697648 318771623
            725623338 864178425 1352630859</internalNodes>
          <leafValues>
            -4.1559302806854248e-01 5.2360856533050537e-01</leafValues></_>
        <_>
          <internalNodes>
            0 -1 16 -393843986 1166157859 -2147278832 -2046590528
            469830178 -553615359 2080997386 -8027709</internalNodes>
          <leafValues>
            -4.9952316284179688e-01 4.3951049447059631e-01</leafValues></_>
        <_>
          <internalNodes>
            0 -1 134 -865051493 647298808 -83904269 -258130219 251416370
            -268539009 -1944219954 -892580027</internalNodes>
          <leafValues>
            -4.5991337299346924e-01 4.9778941273689270e-01</leafValues></_></weakClassifiers></_>
    <!-- stage 16 -->
    <_>
      <maxWeakCount>7</maxWeakCount>
      <stageThreshold>-4.2332801222801208e-01</stageThreshold>
      <weakClassifiers>
        <_>
          <internalNodes>
            0 -1 0 782959359 -4353 -32769 -1069057 -1342243338
            -1124081665 1308622333 -202508809</internalNodes>
          <leafValues>
            -3.2258063554763794e-01 5.5662190914154053e-01</leafValues></_>
        <_>
          <internalNodes>
            0 -1 55 -1094746125 522977003 -25315917 -1870790987
            -169902442 276815860 -1258391883 -27535769</internalNodes>
          <leafValues>
            -3.7214952707290649e-01 5.5433064699172974e-01</leafValues></_>
        <_>
          <internalNodes>
            0 -1 145 -722713347 -573947516 -1876646635 813813784
            -2137998168 -712767488 -1575802744 -1442272544</internalNodes>
          <leafValues>
            -4.7709444165229797e-01 4.4991588592529297e-01</leafValues></_>
        <_>
          <internalNodes>
            0 -1 121 -785035023 -955203584 -2147199663 534891544
            -106790847 -1886902087 268468618 1145651410</internalNodes>
          <leafValues>
            -4.6704474091529846e-01 4.7201547026634216e-01</leafValues></_>
        <_>
          <internalNodes>
            0 -1 154 -1143742446 1217122709 -1275030655 -457013021
            411156485 788643842 -528426940 -283393575</internalNodes>
          <leafValues>
            -5.0830554962158203e-01 4.1872125864028931e-01</leafValues></_>
        <_>
          <internalNodes>
            0 -1 112 193319543 352624657 -1065319677 -603873063 42078423
            -2130210807 136577587 -1937624567</internalNodes>
          <leafValues>
            -4.8921367526054382e-01 4.4947078824043274e-01</leafValues></_>
        <_>
          <internalNodes>
            0 -1 144 137570649 -1642036144 -1870053351 408096841
            717359264 -660563840 457456363 -2147352431</internalNodes>
          <leafValues>
            -5.1963245868682861e-01 4.2713966965675354e-01</leafValues></_></weakClassifiers></_>
    <!-- stage 17 -->
    <_>
      <maxWeakCount>7</maxWeakCount>
      <stageThreshold>-5.7011616230010986e-01</stageThreshold>
      <weakClassifiers>
        <_>
          <internalNodes>
            0 -1 21 1469193684 459027 2825000 -1320234263 287637766
            1118337 42508520 -1154809671</internalNodes>
          <leafValues>
            -6.9565218687057495e-01 4.4712990522384644e-01</leafValues></_>
        <_>
          <internalNodes>
            0 -1 77 -1235815201 -1716251581 -1870618979 814813388
            -528223834 335675410 1621817013 2016021178</internalNodes>
          <leafValues>
            -4.5352596044540405e-01 4.3815684318542480e-01</leafValues></_>
        <_>
          <internalNodes>
            0 -1 79 -574406177 319095066 -2130607785 152240281 411056296
            301993984 -1744638056 136763448</internalNodes>
          <leafValues>
            -4.4361162185668945e-01 4.3048694729804993e-01</leafValues></_>
        <_>
          <internalNodes>
            0 -1 71 -1025786153 1399844650 -1066649059 -1693991739
            -2103087735 -2011889796 -268511589 -1613986533</internalNodes>
          <leafValues>
            -2.7968117594718933e-01 7.3455399274826050e-01</leafValues></_>
        <_>
          <internalNodes>
            0 -1 63 4952283 1410437379 1148059 895209553 671094931
            947945513 167772890 204083349</internalNodes>
          <leafValues>
            -4.9535056948661804e-01 4.1358891129493713e-01</leafValues></_>
        <_>
          <internalNodes>
            0 -1 70 1576431613 -741872022 1285803147 -846872344
            -16790081 2141421550 1314737793 -888164133</internalNodes>
          <leafValues>
            -3.6078670620918274e-01 5.9345352649688721e-01</leafValues></_>
        <_>
          <internalNodes>
            0 -1 140 372983287 1028718838 255301 1009846297 1879714016
            558432512 274746040 1209696617</internalNodes>
          <leafValues>
            -5.6152957677841187e-01 4.0064141154289246e-01</leafValues></_></weakClassifiers></_>
    <!-- stage 18 -->
    <_>
      <maxWeakCount>7</maxWeakCount>
      <stageThreshold>-4.2635428905487061e-01</stageThreshold>
      <weakClassifiers>
        <_>
          <internalNodes>
            0 -1 18 -202387602 -17 -33689620 -4718641 -100796483 -1
            -1107316804 -153094145</internalNodes>
          <leafValues>
            -4.3707093596458435e-01 5.0816851854324341e-01</leafValues></_>
        <_>
          <internalNodes>
            0 -1 139 1008468526 -2121236476 4600066 1023672392
            -2112935733 -1609563959 -1956535590 -1682078584</internalNodes>
          <leafValues>
            -5.6729638576507568e-01 3.2356169819831848e-01</leafValues></_>
        <_>
          <internalNodes>
            0 -1 33 -584856103 -720253663 402517063 -1189653336
            -1598272810 -1483358378 936405210 -1737882587</internalNodes>
          <leafValues>
            -2.8166538476943970e-01 6.5062606334686279e-01</leafValues></_>
        <_>
          <internalNodes>
            0 -1 75 -979443198 1074774448 -2143156089 575347211
            -671009718 268443808 -390043219 1892361083</internalNodes>
          <leafValues>
            -5.0258582830429077e-01 3.7209984660148621e-01</leafValues></_>
        <_>
          <internalNodes>
            0 -1 38 -544831081 -2965784 1716504341 426908394 -414241107
            -1619104177 -12661006 -1957457270</internalNodes>
          <leafValues>
            -4.2858555912971497e-01 4.9372050166130066e-01</leafValues></_>
        <_>
          <internalNodes>
            0 -1 109 -939356857 1095057408 1627488257 1518567428
            -805295857 1208820234 -352155646 -487851903</internalNodes>
          <leafValues>
            -4.0032160282135010e-01 4.9861297011375427e-01</leafValues></_>
        <_>
          <internalNodes>
            0 -1 146 67703007 275874500 1090867459 486782989 -2004217681
            1208385611 716155617 -2136319271</internalNodes>
          <leafValues>
            -4.7330689430236816e-01 4.5787546038627625e-01</leafValues></_></weakClassifiers></_>
    <!-- stage 19 -->
    <_>
      <maxWeakCount>7</maxWeakCount>
      <stageThreshold>-1.1166450977325439e+00</stageThreshold>
      <weakClassifiers>
        <_>
          <internalNodes>
            0 -1 124 1780169992 1355890897 29299456 -1656127223
            -2012679390 -391643005 -1962835936 -656039551</internalNodes>
          <leafValues>
            -5.8552628755569458e-01 4.4598764181137085e-01</leafValues></_>
        <_>
          <internalNodes>
            0 -1 116 995251699 2063716928 -1054600989 1360085201
            -1608384007 -661454592 155818398 403723296</internalNodes>
          <leafValues>
            -4.9356585741043091e-01 3.7499803304672241e-01</leafValues></_>
        <_>
          <internalNodes>
            0 -1 4 -285217042 721416191 1878947071 1627379431
            -1401471646 -1430290433 1568662639 -318771599</internalNodes>
          <leafValues>
            -3.4050187468528748e-01 5.7888513803482056e-01</leafValues></_>
        <_>
          <internalNodes>
            0 -1 86 -984451869 336666880 -985982715 286426195
            -2080209005 -2000674680 8393193 135237775</internalNodes>
          <leafValues>
            -4.6063244342803955e-01 4.2530408501625061e-01</leafValues></_>
        <_>
          <internalNodes>
            0 -1 138 -1850012941 -610664167 -1868537705 424149009
            -401469000 -1283309565 50374873 -2013255438</internalNodes>
          <leafValues>
            -4.1911733150482178e-01 4.6569505333900452e-01</leafValues></_>
        <_>
          <internalNodes>
            0 -1 141 1855741535 222101273 2143223601 -549847143
            -17236343 1023344637 2135932802 -1281826885</internalNodes>
          <leafValues>
            -4.0764328837394714e-01 5.2594798803329468e-01</leafValues></_>
        <_>
          <internalNodes>
            0 -1 111 -4206113 1302011089 536739631 1599072204
            -1238238905 -1275109562 -1654801401 -1084025658</internalNodes>
          <leafValues>
            -3.7476325035095215e-01 5.6478124856948853e-01</leafValues></_></weakClassifiers></_>
    <!-- stage 20 -->
    <_>
      <maxWeakCount>10</maxWeakCount>
      <stageThreshold>-5.3726416826248169e-01</stageThreshold>
      <weakClassifiers>
        <_>
          <internalNodes>
            0 -1 17 -353440018 -1460998300 -2098294802 -1964282197
            -573569 -1224769929 -1082658945 -344566049</internalNodes>
          <leafValues>
            -3.8530066609382629e-01 4.9782797694206238e-01</leafValues></_>
        <_>
          <internalNodes>
            0 -1 96 1822621339 -1777258847 997276985 495058683 901537020
            -1074864900 -562554885 -1365596423</internalNodes>
          <leafValues>
            -3.5840237140655518e-01 4.7664409875869751e-01</leafValues></_>
        <_>
          <internalNodes>
            0 -1 151 -611874270 -1476157173 -2146852670 -998146045
            -2134892288 -1937211350 -628569440 -897465625</internalNodes>
          <leafValues>
            -4.5255240797996521e-01 3.9569169282913208e-01</leafValues></_>
        <_>
          <internalNodes>
            0 -1 46 -277953831 -360731088 -320206843 1363377384
            -805351523 850231119 1810820777 -882186242</internalNodes>
          <leafValues>
            -3.6257612705230713e-01 4.9476554989814758e-01</leafValues></_>
        <_>
          <internalNodes>
            0 -1 90 2078964311 976743099 -1364752635 -1312820307
            -554230582 -320800849 -1671821430 -940587287</internalNodes>
          <leafValues>
            -3.0991110205650330e-01 6.5472263097763062e-01</leafValues></_>
        <_>
          <internalNodes>
            0 -1 57 1123220682 705937824 1351813760 101696010 52789742
            -1819639807 -1861152608 811265417</internalNodes>
          <leafValues>
            -6.5709441900253296e-01 3.1386324763298035e-01</leafValues></_>
        <_>
          <internalNodes>
            0 -1 32 -41301295 -182444887 195290233 1533663743 -161767731
            -352485506 -1932069346 -556159332</internalNodes>
          <leafValues>
            -2.9040443897247314e-01 7.5208884477615356e-01</leafValues></_>
        <_>
          <internalNodes>
            0 -1 88 -613281157 1488714986 385570816 -446529556
            -269148645 1608515455 -431769854 2056191103</internalNodes>
          <leafValues>
            -3.6571919918060303e-01 5.3339815139770508e-01</leafValues></_>
        <_>
          <internalNodes>
            0 -1 105 -1270505525 -1581941295 1551799327 -839028111
            -624874 -1080035330 1315618200 -1996228851</internalNodes>
          <leafValues>
            -3.6907505989074707e-01 5.8075243234634399e-01</leafValues></_>
        <_>
          <internalNodes>
            0 -1 24 -1341094694 -1013964254 1073877009 -184399808
            -1333754752 -112156528 1041012990 726663553</internalNodes>
          <leafValues>
            -5.1501441001892090e-01 4.2505717277526855e-01</leafValues></_></weakClassifiers></_>
    <!-- stage 21 -->
    <_>
      <maxWeakCount>8</maxWeakCount>
      <stageThreshold>-7.4182188510894775e-01</stageThreshold>
      <weakClassifiers>
        <_>
          <internalNodes>
            0 -1 19 2622658 -301965118 1077956697 -1054780911 20038036
            -1707048832 164107 -219942685</internalNodes>
          <leafValues>
            -7.7777779102325439e-01 4.0272793173789978e-01</leafValues></_>
        <_>
          <internalNodes>
            0 -1 34 1922031855 92415050 361101 -540868349 -905933425
            -1606320103 1354860975 -1638956258</internalNodes>
          <leafValues>
            -3.2119295001029968e-01 5.4087752103805542e-01</leafValues></_>
        <_>
          <internalNodes>
            0 -1 31 -2013114179 -219051102 1324500788 1594178896
            -1695274869 -67187716 1418966526 -1644018568</internalNodes>
          <leafValues>
            -3.2678103446960449e-01 5.4025322198867798e-01</leafValues></_>
        <_>
          <internalNodes>
            0 -1 129 -1762855433 -1066702893 -663325717 -1114245824
            -1184105920 -884059325 -1269760033 -2011592456</internalNodes>
          <leafValues>
            -3.2073327898979187e-01 5.6917989253997803e-01</leafValues></_>
        <_>
          <internalNodes>
            0 -1 118 2040050483 318832788 1310864 -1857994744 50331668
            23996032 1434997296 1334784681</internalNodes>
          <leafValues>
            -5.2445948123931885e-01 3.7277862429618835e-01</leafValues></_>
        <_>
          <internalNodes>
            0 -1 51 -667338955 485498298 1877999413 -773388940
            -1128605306 -1206387202 2002699889 -1907227565</internalNodes>
          <leafValues>
            -4.1193425655364990e-01 5.0077575445175171e-01</leafValues></_>
        <_>
          <internalNodes>
            0 -1 142 -8937993 1060027504 -19089833 -1161822796
            -1078986216 -1997840520 91283151 140594717</internalNodes>
          <leafValues>
            -4.2975676059722900e-01 4.8837599158287048e-01</leafValues></_>
        <_>
          <internalNodes>
            0 -1 28 17724418 -1738469357 566824962 85020742 289968328
            -1062207344 -1971159024 -1733391858</internalNodes>
          <leafValues>
            -7.8817349672317505e-01 3.0039483308792114e-01</leafValues></_></weakClassifiers></_>
    <!-- stage 22 -->
    <_>
      <maxWeakCount>8</maxWeakCount>
      <stageThreshold>-4.5854967832565308e-01</stageThreshold>
      <weakClassifiers>
        <_>
          <internalNodes>
            0 -1 123 -121580552 1573040 16963852 -2147278592 -2146729857
            -2147483320 321610748 -1165468976</internalNodes>
          <leafValues>
            -5.5483871698379517e-01 4.4341084361076355e-01</leafValues></_>
        <_>
          <internalNodes>
            0 -1 103 -147696941 -1355505118 1886607359 1429567453
            -1166573997 -235438081 -1099500681 -1865092742</internalNodes>
          <leafValues>
            -3.9396509528160095e-01 4.1366565227508545e-01</leafValues></_>
        <_>
          <internalNodes>
            0 -1 67 -209731017 -626357583 -1191285701 1359445411
            -1489503546 -402755587 1373598729 1214635500</internalNodes>
          <leafValues>
            -3.2842501997947693e-01 5.7955914735794067e-01</leafValues></_>
        <_>
          <internalNodes>
            0 -1 95 2047851771 524400689 1461381969 957971953 1169129368
            855360503 441213991 -1651565126</internalNodes>
          <leafValues>
            -3.5396581888198853e-01 5.1962637901306152e-01</leafValues></_>
        <_>
          <internalNodes>
            0 -1 62 1742410259 -978986709 -1336532395 1466833603
            1254553250 -279521444 695665321 -103153769</internalNodes>
          <leafValues>
            -3.0540347099304199e-01 6.3097333908081055e-01</leafValues></_>
        <_>
          <internalNodes>
            0 -1 81 -806486921 -577033639 705895993 -1674576799
            534765059 731862981 207394415 -1879063205</internalNodes>
          <leafValues>
            -2.9130169749259949e-01 6.3671904802322388e-01</leafValues></_>
        <_>
          <internalNodes>
            0 -1 78 -412000363 -3276843 1357774691 959179935 -23039742
            2136242102 -562602768 -562274340</internalNodes>
          <leafValues>
            -4.0562486648559570e-01 5.0661277770996094e-01</leafValues></_>
        <_>
          <internalNodes>
            0 -1 69 493461335 525520575 1610399571 256343780 104209653
            1467447098 770997581 -2106591778</internalNodes>
          <leafValues>
            -4.1848561167716980e-01 5.1324069499969482e-01</leafValues></_></weakClassifiers></_>
    <!-- stage 23 -->
    <_>
      <maxWeakCount>8</maxWeakCount>
      <stageThreshold>-6.5565407276153564e-01</stageThreshold>
      <weakClassifiers>
        <_>
          <internalNodes>
            0 -1 35 37913742 -1865891828 100812928 287457990 4760510
            3276992 269535659 1264251358</internalNodes>
          <leafValues>
            -6.2162160873413086e-01 4.1834452748298645e-01</leafValues></_>
        <_>
          <internalNodes>
            0 -1 48 423491635 -543593158 1001095085 497641324
            -2113999366 -1157701641 736229133 -1581256929</internalNodes>
          <leafValues>
            -2.9596471786499023e-01 5.7279860973358154e-01</leafValues></_>
        <_>
          <internalNodes>
            0 -1 27 -369078120 427890947 422580599 1368589347
            -1534846706 -1375620094 847782642 2033041963</internalNodes>
          <leafValues>
            -4.0911534428596497e-01 4.1677343845367432e-01</leafValues></_>
        <_>
          <internalNodes>
            0 -1 130 536875197 33886337 1346568651 722043907 -1861482071
            447119496 134317551 359331537</internalNodes>
          <leafValues>
            -4.3299359083175659e-01 4.0956136584281921e-01</leafValues></_>
        <_>
          <internalNodes>
            0 -1 127 285315251 202375376 272695889 269681045 401482
            -669908350 168954838 168772235</internalNodes>
          <leafValues>
            -4.7561076283454895e-01 4.0118634700775146e-01</leafValues></_>
        <_>
          <internalNodes>
            0 -1 68 -362295561 -2139346381 496897897 -589204297 -90113
            186417116 -1929400513 1908405807</internalNodes>
          <leafValues>
            -3.0768519639968872e-01 6.5047514438629150e-01</leafValues></_>
        <_>
          <internalNodes>
            0 -1 132 -978570789 1386921976 2130639800 137125372
            -732828052 -1073758465 -387094548 -1561038913</internalNodes>
          <leafValues>
            -3.8930937647819519e-01 5.1974827051162720e-01</leafValues></_>
        <_>
          <internalNodes>
            0 -1 120 -1285470089 546013379 352354846 1527590921 92373576
            -82802671 -1799173721 1090981915</internalNodes>
          <leafValues>
            -4.6600544452667236e-01 4.4858294725418091e-01</leafValues></_></weakClassifiers></_></stages>
  <features>
    <_>
      <rect>
        0 0 9 7</rect></_>
    <_>
      <rect>
        0 0 13 10</rect></_>
    <_>
      <rect>
        0 0 16 8</rect></_>
    <_>
      <rect>
        0 0 16 10</rect></_>
    <_>
      <rect>
        0 2 3 7</rect></_>
    <_>
      <rect>
        0 3 6 9</rect></_>
    <_>
      <rect>
        0 3 11 9</rect></_>
    <_>
      <rect>
        0 4 8 8</rect></_>
    <_>
      <rect>
        0 5 9 5</rect></_>
    <_>
      <rect>
        0 6 16 8</rect></_>
    <_>
      <rect>
        0 8 6 5</rect></_>
    <_>
      <rect>
        0 8 16 5</rect></_>
    <_>
      <rect>
        0 9 1 2</rect></_>
    <_>
      <rect>
        0 9 7 7</rect></_>
    <_>
      <rect>
        0 9 9 7</rect></_>
    <_>
      <rect>
        0 10 16 3</rect></_>
    <_>
      <rect>
        0 11 3 3</rect></_>
    <_>
      <rect>
        0 14 5 2</rect></_>
    <_>
      <rect>
        0 14 16 3</rect></_>
    <_>
      <rect>
        1 4 10 6</rect></_>
    <_>
      <rect>
        3 4 15 4</rect></_>
    <_>
      <rect>
        3 6 15 8</rect></_>
    <_>
      <rect>
        4 18 14 4</rect></_>
    <_>
      <rect>
        7 0 6 6</rect></_>
    <_>
      <rect>
        7 8 3 1</rect></_>
    <_>
      <rect>
        8 0 13 10</rect></_>
    <_>
      <rect>
        8 9 3 1</rect></_>
    <_>
      <rect>
        9 11 3 2</rect></_>
    <_>
      <rect>
        9 11 13 4</rect></_>
    <_>
      <rect>
        10 0 10 7</rect></_>
    <_>
      <rect>
        10 8 10 5</rect></_>
    <_>
      <rect>
        10 11 2 1</rect></_>
    <_>
      <rect>
        10 11 3 1</rect></_>
    <_>
      <rect>
        10 13 2 1</rect></_>
    <_>
      <rect>
        11 9 9 5</rect></_>
    <_>
      <rect>
        11 11 6 3</rect></_>
    <_>
      <rect>
        12 0 7 10</rect></_>
    <_>
      <rect>
        12 1 12 5</rect></_>
    <_>
      <rect>
        12 13 8 2</rect></_>
    <_>
      <rect>
        13 0 4 10</rect></_>
    <_>
      <rect>
        13 6 4 5</rect></_>
    <_>
      <rect>
        13 8 5 4</rect></_>
    <_>
      <rect>
        13 9 6 4</rect></_>
    <_>
      <rect>
        13 11 5 3</rect></_>
    <_>
      <rect>
        13 12 5 4</rect></_>
    <_>
      <rect>
        13 14 3 1</rect></_>
    <_>
      <rect>
        13 15 5 2</rect></_>
    <_>
      <rect>
        13 23 7 2</rect></_>
    <_>
      <rect>
        14 8 4 2</rect></_>
    <_>
      <rect>
        14 8 6 5</rect></_>
    <_>
      <rect>
        14 10 4 2</rect></_>
    <_>
      <rect>
        14 13 2 1</rect></_>
    <_>
      <rect>
        14 13 5 2</rect></_>
    <_>
      <rect>
        14 15 7 1</rect></_>
    <_>
      <rect>
        14 17 5 2</rect></_>
    <_>
      <rect>
        14 24 6 1</rect></_>
    <_>
      <rect>
        15 2 7 5</rect></_>
    <_>
      <rect>
        15 9 4 4</rect></_>
    <_>
      <rect>
        15 9 5 4</rect></_>
    <_>
      <rect>
        15 10 8 4</rect></_>
    <_>
      <rect>
        15 11 7 4</rect></_>
    <_>
      <rect>
        15 14 5 1</rect></_>
    <_>
      <rect>
        15 15 7 1</rect></_>
    <_>
      <rect>
        15 19 2 1</rect></_>
    <_>
      <rect>
        16 8 7 5</rect></_>
    <_>
      <rect>
        16 9 5 2</rect></_>
    <_>
      <rect>
        16 11 5 1</rect></_>
    <_>
      <rect>
        16 12 3 1</rect></_>
    <_>
      <rect>
        16 13 3 3</rect></_>
    <_>
      <rect>
        16 16 2 1</rect></_>
    <_>
      <rect>
        16 17 4 2</rect></_>
    <_>
      <rect>
        16 18 6 1</rect></_>
    <_>
      <rect>
        16 18 6 4</rect></_>
    <_>
      <rect>
        16 21 3 2</rect></_>
    <_>
      <rect>
        16 21 4 3</rect></_>
    <_>
      <rect>
        17 7 5 5</rect></_>
    <_>
      <rect>
        17 10 7 5</rect></_>
    <_>
      <rect>
        17 11 7 3</rect></_>
    <_>
      <rect>
        17 15 6 2</rect></_>
    <_>
      <rect>
        17 16 2 1</rect></_>
    <_>
      <rect>
        17 20 2 1</rect></_>
    <_>
      <rect>
        17 20 4 1</rect></_>
    <_>
      <rect>
        17 21 4 1</rect></_>
    <_>
      <rect>
        17 23 5 1</rect></_>
    <_>
      <rect>
        18 9 2 1</rect></_>
    <_>
      <rect>
        18 9 5 3</rect></_>
    <_>
      <rect>
        18 11 2 1</rect></_>
    <_>
      <rect>
        18 12 10 6</rect></_>
    <_>
      <rect>
        18 14 3 2</rect></_>
    <_>
      <rect>
        18 16 3 2</rect></_>
    <_>
      <rect>
        18 18 4 1</rect></_>
    <_>
      <rect>
        19 1 6 5</rect></_>
    <_>
      <rect>
        19 8 7 5</rect></_>
    <_>
      <rect>
        19 11 7 3</rect></_>
    <_>
      <rect>
        19 17 2 1</rect></_>
    <_>
      <rect>
        19 18 2 1</rect></_>
    <_>
      <rect>
        19 20 3 2</rect></_>
    <_>
      <rect>
        20 7 6 5</rect></_>
    <_>
      <rect>
        20 12 2 3</rect></_>
    <_>
      <rect>
        20 17 4 2</rect></_>
    <_>
      <rect>
        20 19 4 2</rect></_>
    <_>
      <rect>
        21 0 9 8</rect></_>
    <_>
      <rect>
        21 2 4 4</rect></_>
    <_>
      <rect>
        21 8 5 2</rect></_>
    <_>
      <rect>
        21 9 9 7</rect></_>
    <_>
      <rect>
        21 10 2 2</rect></_>
    <_>
      <rect>
        21 10 4 2</rect></_>
    <_>
      <rect>
        21 10 5 4</rect></_>
    <_>
      <rect>
        21 11 2 1</rect></_>
    <_>
      <rect>
        21 12 2 2</rect></_>
    <_>
      <rect>
        21 13 1 1</rect></_>
    <_>
      <rect>
        21 14 2 1</rect></_>
    <_>
      <rect>
        21 15 2 1</rect></_>
    <_>
      <rect>
        22 12 2 1</rect></_>
    <_>
      <rect>
        22 14 2 1</rect></_>
    <_>
      <rect>
        22 24 8 2</rect></_>
    <_>
      <rect>
        23 8 2 1</rect></_>
    <_>
      <rect>
        23 9 4 4</rect></_>
    <_>
      <rect>
        23 15 2 3</rect></_>
    <_>
      <rect>
        23 24 8 2</rect></_>
    <_>
      <rect>
        24 5 3 1</rect></_>
    <_>
      <rect>
        24 8 3 1</rect></_>
    <_>
      <rect>
        24 12 5 6</rect></_>
    <_>
      <rect>
        24 12 7 6</rect></_>
    <_>
      <rect>
        24 13 8 3</rect></_>
    <_>
      <rect>
        24 15 4 2</rect></_>
    <_>
      <rect>
        24 17 5 2</rect></_>
    <_>
      <rect>
        24 21 3 1</rect></_>
    <_>
      <rect>
        25 7 4 2</rect></_>
    <_>
      <rect>
        25 11 4 1</rect></_>
    <_>
      <rect>
        25 20 4 2</rect></_>
    <_>
      <rect>
        26 7 3 2</rect></_>
    <_>
      <rect>
        26 11 5 2</rect></_>
    <_>
      <rect>
        27 0 7 9</rect></_>
    <_>
      <rect>
        27 8 4 2</rect></_>
    <_>
      <rect>
        27 8 7 6</rect></_>
    <_>
      <rect>
        27 9 3 2</rect></_>
    <_>
      <rect>
        27 9 7 4</rect></_>
    <_>
      <rect>
        27 10 2 1</rect></_>
    <_>
      <rect>
        27 12 4 5</rect></_>
    <_>
      <rect>
        27 17 2 1</rect></_>
    <_>
      <rect>
        27 17 6 2</rect></_>
    <_>
      <rect>
        28 9 3 1</rect></_>
    <_>
      <rect>
        28 11 3 1</rect></_>
    <_>
      <rect>
        28 15 2 1</rect></_>
    <_>
      <rect>
        29 7 3 3</rect></_>
    <_>
      <rect>
        29 18 3 2</rect></_>
    <_>
      <rect>
        30 9 1 1</rect></_>
    <_>
      <rect>
        31 11 2 1</rect></_>
    <_>
      <rect>
        33 3 5 9</rect></_>
    <_>
      <rect>
        36 4 4 8</rect></_>
    <_>
      <rect>
        36 6 4 6</rect></_>
    <_>
      <rect>
        39 1 3 8</rect></_>
    <_>
      <rect>
        39 8 3 4</rect></_>
    <_>
      <rect>
        42 10 2 1</rect></_></features></cascade>
</opencv_storage>
