<?xml version="1.0"?>
<opencv_storage>
<cascade>
  <stageType>BOOST</stageType>
  <featureType>HAAR</featureType>
  <height>30</height>
  <width>48</width>
  <stageParams>
    <boostType>GAB</boostType>
    <minHitRate>9.9500000476837158e-01</minHitRate>
    <maxFalseAlarm>5.0000000000000000e-01</maxFalseAlarm>
    <weightTrimRate>9.4999999999999996e-01</weightTrimRate>
    <maxDepth>1</maxDepth>
    <maxWeakCount>100</maxWeakCount></stageParams>
  <featureParams>
    <maxCatCount>0</maxCatCount>
    <featSize>1</featSize>
    <mode>ALL</mode></featureParams>
  <stageNum>24</stageNum>
  <stages>
    <!-- stage 0 -->
    <_>
      <maxWeakCount>4</maxWeakCount>
      <stageThreshold>-1.1714797019958496e+00</stageThreshold>
      <weakClassifiers>
        <_>
          <internalNodes>
            0 -1 61 3.8109076023101807e-01</internalNodes>
          <leafValues>
            -6.6869300603866577e-01 8.9171975851058960e-01</leafValues></_>
        <_>
          <internalNodes>
            0 -1 10 2.7946597337722778e-01</internalNodes>
          <leafValues>
            4.9260240793228149e-01 -8.1596541404724121e-01</leafValues></_>
        <_>
          <internalNodes>
            0 -1 333 7.1168867871165276e-03</internalNodes>
          <leafValues>
            -4.0940359234809875e-01 7.1922564506530762e-01</leafValues></_>
        <_>
          <internalNodes>
            0 -1 3 1.2201513163745403e-02</internalNodes>
          <leafValues>
            -3.5587272047996521e-01 7.2258234024047852e-01</leafValues></_></weakClassifiers></_>
    <!-- stage 1 -->
    <_>
      <maxWeakCount>8</maxWeakCount>
      <stageThreshold>-1.3795465230941772e+00</stageThreshold>
      <weakClassifiers>
        <_>
          <internalNodes>
            0 -1 6 6.3605839014053345e-01</internalNodes>
          <leafValues>
            -4.9591282010078430e-01 8.8221710920333862e-01</leafValues></_>
        <_>
          <internalNodes>
            0 -1 191 3.1504228711128235e-02</internalNodes>
          <leafValues>
            -2.9251801967620850e-01 7.5133514404296875e-01</leafValues></_>
        <_>
          <internalNodes>
            0 -1 54 1.0610528290271759e-02</internalNodes>
          <leafValues>
            -2.4109080433845520e-01 6.9353979825973511e-01</leafValues></_>
        <_>
          <internalNodes>
            0 -1 125 2.7237553149461746e-03</internalNodes>
          <leafValues>
            -2.4925535917282104e-01 6.8199604749679565e-01</leafValues></_>
        <_>
          <internalNodes>
            0 -1 174 -6.4704073593020439e-03</internalNodes>
          <leafValues>
            6.5729516744613647e-01 -2.3534454405307770e-01</leafValues></_>
        <_>
          <internalNodes>
            0 -1 252 -4.4949743896722794e-03</internalNodes>
          <leafValues>
            6.0142928361892700e-01 -2.5504297018051147e-01</leafValues></_>
        <_>
          <internalNodes>
            0 -1 445 9.2069208621978760e-03</internalNodes>
          <leafValues>
            -2.5852295756340027e-01 7.3367863893508911e-01</leafValues></_>
        <_>
          <internalNodes>
            0 -1 55 -4.0866890922188759e-03</internalNodes>
          <leafValues>
            6.0613423585891724e-01 -2.8311043977737427e-01</leafValues></_></weakClassifiers></_>
    <!-- stage 2 -->
    <_>
      <maxWeakCount>8</maxWeakCount>
      <stageThreshold>-1.1522489786148071e+00</stageThreshold>
      <weakClassifiers>
        <_>
          <internalNodes>
            0 -1 5 5.2109432220458984e-01</internalNodes>
          <leafValues>
            -5.1775145530700684e-01 8.1168830394744873e-01</leafValues></_>
        <_>
          <internalNodes>
            0 -1 6 8.4647548198699951e-01</internalNodes>
          <leafValues>
            -1.5688304603099823e-01 7.8932476043701172e-01</leafValues></_>
        <_>
          <internalNodes>
            0 -1 31 6.7148432135581970e-03</internalNodes>
          <leafValues>
            -1.5975444018840790e-01 7.8192877769470215e-01</leafValues></_>
        <_>
          <internalNodes>
            0 -1 128 2.2039343602955341e-03</internalNodes>
          <leafValues>
            -5.4356437921524048e-01 2.6838919520378113e-01</leafValues></_>
        <_>
          <internalNodes>
            0 -1 102 -4.4890129938721657e-03</internalNodes>
          <leafValues>
            5.9712904691696167e-01 -2.8596931695938110e-01</leafValues></_>
        <_>
          <internalNodes>
            0 -1 24 2.6057848334312439e-01</internalNodes>
          <leafValues>
            2.2076593339443207e-01 -7.6576489210128784e-01</leafValues></_>
        <_>
          <internalNodes>
            0 -1 83 1.2232251465320587e-02</internalNodes>
          <leafValues>
            -2.9437446594238281e-01 4.6635577082633972e-01</leafValues></_>
        <_>
          <internalNodes>
            0 -1 91 -9.8983630537986755e-02</internalNodes>
          <leafValues>
            -7.4415761232376099e-01 1.9762019813060760e-01</leafValues></_></weakClassifiers></_>
    <!-- stage 3 -->
    <_>
      <maxWeakCount>11</maxWeakCount>
      <stageThreshold>-1.2694238424301147e+00</stageThreshold>
      <weakClassifiers>
        <_>
          <internalNodes>
            0 -1 171 7.9447746276855469e-02</internalNodes>
          <leafValues>
            -5.9369528293609619e-01 7.1817296743392944e-01</leafValues></_>
        <_>
          <internalNodes>
            0 -1 444 -2.1660020574927330e-02</internalNodes>
          <leafValues>
            5.6121212244033813e-01 -3.2612568140029907e-01</leafValues></_>
        <_>
          <internalNodes>
            0 -1 111 -5.1135388202965260e-03</internalNodes>
          <leafValues>
            4.8611137270927429e-01 -2.9236352443695068e-01</leafValues></_>
        <_>
          <internalNodes>
            0 -1 28 -7.7934027649462223e-03</internalNodes>
          <leafValues>
            -1.8377226591110229e-01 6.9436246156692505e-01</leafValues></_>
        <_>
          <internalNodes>
            0 -1 395 5.3672222420573235e-03</internalNodes>
          <leafValues>
            -2.1724003553390503e-01 6.9328153133392334e-01</leafValues></_>
        <_>
          <internalNodes>
            0 -1 172 -2.3869210854172707e-03</internalNodes>
          <leafValues>
            5.5394262075424194e-01 -2.6499235630035400e-01</leafValues></_>
        <_>
          <internalNodes>
            0 -1 249 -3.1448253430426121e-03</internalNodes>
          <leafValues>
            5.2767926454544067e-01 -2.3524300754070282e-01</leafValues></_>
        <_>
          <internalNodes>
            0 -1 485 2.7547776699066162e-03</internalNodes>
          <leafValues>
            -1.7616549134254456e-01 5.5848771333694458e-01</leafValues></_>
        <_>
          <internalNodes>
            0 -1 409 -5.0535075366497040e-02</internalNodes>
          <leafValues>
            -8.5872012376785278e-01 1.2021490931510925e-01</leafValues></_>
        <_>
          <internalNodes>
            0 -1 87 -1.0014963336288929e-03</internalNodes>
          <leafValues>
            7.4107933044433594e-01 -1.9832746684551239e-01</leafValues></_>
        <_>
          <internalNodes>
            0 -1 94 -7.8368946909904480e-02</internalNodes>
          <leafValues>
            -7.7730667591094971e-01 1.8776476383209229e-01</leafValues></_></weakClassifiers></_>
    <!-- stage 4 -->
    <_>
      <maxWeakCount>13</maxWeakCount>
      <stageThreshold>-1.1114658117294312e+00</stageThreshold>
      <weakClassifiers>
        <_>
          <internalNodes>
            0 -1 6 7.1530741453170776e-01</internalNodes>
          <leafValues>
            -4.0437158942222595e-01 8.0184334516525269e-01</leafValues></_>
        <_>
          <internalNodes>
            0 -1 151 -3.5682201385498047e-02</internalNodes>
          <leafValues>
            6.4142167568206787e-01 -2.8112950921058655e-01</leafValues></_>
        <_>
          <internalNodes>
            0 -1 272 2.7301743626594543e-02</internalNodes>
          <leafValues>
            -4.4277504086494446e-01 3.8768610358238220e-01</leafValues></_>
        <_>
          <internalNodes>
            0 -1 416 6.5545020624995232e-03</internalNodes>
          <leafValues>
            1.2803058326244354e-01 -8.9486157894134521e-01</leafValues></_>
        <_>
          <internalNodes>
            0 -1 188 -3.7372350692749023e-02</internalNodes>
          <leafValues>
            -8.1294208765029907e-01 1.0986168682575226e-01</leafValues></_>
        <_>
          <internalNodes>
            0 -1 427 8.5678026080131531e-03</internalNodes>
          <leafValues>
            -2.9592186212539673e-01 3.4234040975570679e-01</leafValues></_>
        <_>
          <internalNodes>
            0 -1 491 -1.5265808906406164e-04</internalNodes>
          <leafValues>
            -4.9605867266654968e-01 1.6394519805908203e-01</leafValues></_>
        <_>
          <internalNodes>
            0 -1 302 2.1893590688705444e-02</internalNodes>
          <leafValues>
            1.1684203892946243e-01 -9.1287392377853394e-01</leafValues></_>
        <_>
          <internalNodes>
            0 -1 250 1.4223038218915462e-02</internalNodes>
          <leafValues>
            -1.6138516366481781e-01 6.2613767385482788e-01</leafValues></_>
        <_>
          <internalNodes>
            0 -1 354 4.2711180867627263e-06</internalNodes>
          <leafValues>
            -3.3278477191925049e-01 2.8404453396797180e-01</leafValues></_>
        <_>
          <internalNodes>
            0 -1 4 2.7263961732387543e-02</internalNodes>
          <leafValues>
            -2.6547566056251526e-01 3.3784505724906921e-01</leafValues></_>
        <_>
          <internalNodes>
            0 -1 238 3.4628943540155888e-03</internalNodes>
          <leafValues>
            -2.7289527654647827e-01 3.4469735622406006e-01</leafValues></_>
        <_>
          <internalNodes>
            0 -1 305 -4.0118888136930764e-05</internalNodes>
          <leafValues>
            -4.0562030673027039e-01 2.3074251413345337e-01</leafValues></_></weakClassifiers></_>
    <!-- stage 5 -->
    <_>
      <maxWeakCount>10</maxWeakCount>
      <stageThreshold>-8.4562337398529053e-01</stageThreshold>
      <weakClassifiers>
        <_>
          <internalNodes>
            0 -1 12 5.8567452430725098e-01</internalNodes>
          <leafValues>
            -3.9507958292961121e-01 7.4037402868270874e-01</leafValues></_>
        <_>
          <internalNodes>
            0 -1 182 -3.8271158933639526e-02</internalNodes>
          <leafValues>
            5.6018221378326416e-01 -2.8388422727584839e-01</leafValues></_>
        <_>
          <internalNodes>
            0 -1 22 4.2798213660717010e-02</internalNodes>
          <leafValues>
            -1.8334753811359406e-01 5.2876156568527222e-01</leafValues></_>
        <_>
          <internalNodes>
            0 -1 440 3.5695873200893402e-02</internalNodes>
          <leafValues>
            1.7914736270904541e-01 -5.7794004678726196e-01</leafValues></_>
        <_>
          <internalNodes>
            0 -1 502 1.1444433766882867e-04</internalNodes>
          <leafValues>
            1.5375588834285736e-01 -5.6438320875167847e-01</leafValues></_>
        <_>
          <internalNodes>
            0 -1 158 -3.2837986946105957e-02</internalNodes>
          <leafValues>
            2.0178252458572388e-01 -4.5236742496490479e-01</leafValues></_>
        <_>
          <internalNodes>
            0 -1 168 -4.5384433120489120e-02</internalNodes>
          <leafValues>
            -1.0015420615673065e-01 8.4580612182617188e-01</leafValues></_>
        <_>
          <internalNodes>
            0 -1 308 5.4544076323509216e-02</internalNodes>
          <leafValues>
            1.0719305276870728e-01 -8.2064151763916016e-01</leafValues></_>
        <_>
          <internalNodes>
            0 -1 51 1.6716559184715152e-04</internalNodes>
          <leafValues>
            1.3491386175155640e-01 -6.0089063644409180e-01</leafValues></_>
        <_>
          <internalNodes>
            0 -1 192 -8.4489226341247559e-02</internalNodes>
          <leafValues>
            9.7136892378330231e-02 -8.0017793178558350e-01</leafValues></_></weakClassifiers></_>
    <!-- stage 6 -->
    <_>
      <maxWeakCount>18</maxWeakCount>
      <stageThreshold>-9.3511980772018433e-01</stageThreshold>
      <weakClassifiers>
        <_>
          <internalNodes>
            0 -1 6 8.3229708671569824e-01</internalNodes>
          <leafValues>
            -2.3583662509918213e-01 6.8846613168716431e-01</leafValues></_>
        <_>
          <internalNodes>
            0 -1 483 -1.2693695724010468e-02</internalNodes>
          <leafValues>
            5.7318127155303955e-01 -2.6616689562797546e-01</leafValues></_>
        <_>
          <internalNodes>
            0 -1 186 -2.7651306241750717e-02</internalNodes>
          <leafValues>
            -1.6432438790798187e-01 7.1550363302230835e-01</leafValues></_>
        <_>
          <internalNodes>
            0 -1 275 5.4494692012667656e-03</internalNodes>
          <leafValues>
            1.8097296357154846e-01 -5.3990006446838379e-01</leafValues></_>
        <_>
          <internalNodes>
            0 -1 124 -5.8713043108582497e-03</internalNodes>
          <leafValues>
            5.4466599225997925e-01 -1.7357312142848969e-01</leafValues></_>
        <_>
          <internalNodes>
            0 -1 146 2.1024271845817566e-02</internalNodes>
          <leafValues>
            1.4141325652599335e-01 -6.2285780906677246e-01</leafValues></_>
        <_>
          <internalNodes>
            0 -1 104 2.9067748691886663e-03</internalNodes>
          <leafValues>
            -4.7312873601913452e-01 2.1649681031703949e-01</leafValues></_>
        <_>
          <internalNodes>
            0 -1 187 8.3724595606327057e-02</internalNodes>
          <leafValues>
            1.0605663061141968e-01 -8.0327039957046509e-01</leafValues></_>
        <_>
          <internalNodes>
            0 -1 200 -9.1155171394348145e-03</internalNodes>
          <leafValues>
            6.4021688699722290e-01 -1.6276736557483673e-01</leafValues></_>
        <_>
          <internalNodes>
            0 -1 350 -7.2990022599697113e-03</internalNodes>
          <leafValues>
            -6.7365658283233643e-01 1.4330953359603882e-01</leafValues></_>
        <_>
          <internalNodes>
            0 -1 26 9.5800440758466721e-03</internalNodes>
          <leafValues>
            -1.7376591265201569e-01 5.1553118228912354e-01</leafValues></_>
        <_>
          <internalNodes>
            0 -1 362 -6.8250368349254131e-04</internalNodes>
          <leafValues>
            4.1907709836959839e-01 -2.3943993449211121e-01</leafValues></_>
        <_>
          <internalNodes>
            0 -1 126 1.3183047063648701e-02</internalNodes>
          <leafValues>
            -1.0794113576412201e-01 6.1765927076339722e-01</leafValues></_>
        <_>
          <internalNodes>
            0 -1 116 1.3155860870028846e-05</internalNodes>
          <leafValues>
            2.6634180545806885e-01 -3.0925452709197998e-01</leafValues></_>
        <_>
          <internalNodes>
            0 -1 68 -1.3419920287560672e-04</internalNodes>
          <leafValues>
            -3.9705184102058411e-01 2.2338840365409851e-01</leafValues></_>
        <_>
          <internalNodes>
            0 -1 430 -5.2840980060864240e-05</internalNodes>
          <leafValues>
            -3.9493146538734436e-01 2.1116276085376740e-01</leafValues></_>
        <_>
          <internalNodes>
            0 -1 373 -1.2813042849302292e-04</internalNodes>
          <leafValues>
            -4.5706844329833984e-01 1.7554581165313721e-01</leafValues></_>
        <_>
          <internalNodes>
            0 -1 42 -7.4690266046673059e-05</internalNodes>
          <leafValues>
            -3.9880087971687317e-01 2.2507211565971375e-01</leafValues></_></weakClassifiers></_>
    <!-- stage 7 -->
    <_>
      <maxWeakCount>18</maxWeakCount>
      <stageThreshold>-1.0222982168197632e+00</stageThreshold>
      <weakClassifiers>
        <_>
          <internalNodes>
            0 -1 166 -4.4110663235187531e-02</internalNodes>
          <leafValues>
            5.9771430492401123e-01 -1.6965517401695251e-01</leafValues></_>
        <_>
          <internalNodes>
            0 -1 101 1.0121264308691025e-01</internalNodes>
          <leafValues>
            -3.7523004412651062e-01 3.7944841384887695e-01</leafValues></_>
        <_>
          <internalNodes>
            0 -1 478 -1.0912208817899227e-02</internalNodes>
          <leafValues>
            4.2016121745109558e-01 -2.4187350273132324e-01</leafValues></_>
        <_>
          <internalNodes>
            0 -1 162 3.6568249925039709e-04</internalNodes>
          <leafValues>
            -2.3469927906990051e-01 3.4533101320266724e-01</leafValues></_>
        <_>
          <internalNodes>
            0 -1 417 -5.1239541789982468e-05</internalNodes>
          <leafValues>
            -4.4369152188301086e-01 1.8074299395084381e-01</leafValues></_>
        <_>
          <internalNodes>
            0 -1 44 -1.2957328557968140e-01</internalNodes>
          <leafValues>
            -6.0142320394515991e-01 1.4887195825576782e-01</leafValues></_>
        <_>
          <internalNodes>
            0 -1 154 4.1232333751395345e-04</internalNodes>
          <leafValues>
            -1.9920207560062408e-01 4.7448882460594177e-01</leafValues></_>
        <_>
          <internalNodes>
            0 -1 271 -1.1176403611898422e-01</internalNodes>
          <leafValues>
            -6.8018078804016113e-01 1.5334433317184448e-01</leafValues></_>
        <_>
          <internalNodes>
            0 -1 495 -7.3435390368103981e-03</internalNodes>
          <leafValues>
            6.7304968833923340e-01 -1.5252339839935303e-01</leafValues></_>
        <_>
          <internalNodes>
            0 -1 326 -1.1982637224718928e-03</internalNodes>
          <leafValues>
            6.5699928998947144e-01 -1.2930774688720703e-01</leafValues></_>
        <_>
          <internalNodes>
            0 -1 98 7.1778206620365381e-04</internalNodes>
          <leafValues>
            -1.3511714339256287e-01 5.4653167724609375e-01</leafValues></_>
        <_>
          <internalNodes>
            0 -1 319 9.6485987305641174e-03</internalNodes>
          <leafValues>
            1.1618054658174515e-01 -8.6482840776443481e-01</leafValues></_>
        <_>
          <internalNodes>
            0 -1 109 3.8133602356538177e-04</internalNodes>
          <leafValues>
            -2.1611361205577850e-01 3.9211475849151611e-01</leafValues></_>
        <_>
          <internalNodes>
            0 -1 7 3.2065585255622864e-03</internalNodes>
          <leafValues>
            1.4740204811096191e-01 -5.9146922826766968e-01</leafValues></_>
        <_>
          <internalNodes>
            0 -1 347 1.5499495901167393e-02</internalNodes>
          <leafValues>
            1.3809716701507568e-01 -5.6483078002929688e-01</leafValues></_>
        <_>
          <internalNodes>
            0 -1 436 -3.6349920264910907e-05</internalNodes>
          <leafValues>
            -3.5856097936630249e-01 2.0409575104713440e-01</leafValues></_>
        <_>
          <internalNodes>
            0 -1 421 2.1149683743715286e-04</internalNodes>
          <leafValues>
            -2.0896875858306885e-01 3.5253465175628662e-01</leafValues></_>
        <_>
          <internalNodes>
            0 -1 179 4.7997105866670609e-04</internalNodes>
          <leafValues>
            -1.0555656254291534e-01 6.4714229106903076e-01</leafValues></_></weakClassifiers></_>
    <!-- stage 8 -->
    <_>
      <maxWeakCount>17</maxWeakCount>
      <stageThreshold>-9.3661367893218994e-01</stageThreshold>
      <weakClassifiers>
        <_>
          <internalNodes>
            0 -1 6 8.5758590698242188e-01</internalNodes>
          <leafValues>
            -1.7774762213230133e-01 6.1529546976089478e-01</leafValues></_>
        <_>
          <internalNodes>
            0 -1 18 2.7008436620235443e-02</internalNodes>
          <leafValues>
            -1.7108626663684845e-01 6.5830594301223755e-01</leafValues></_>
        <_>
          <internalNodes>
            0 -1 455 -1.1606763582676649e-03</internalNodes>
          <leafValues>
            3.0220824480056763e-01 -3.1595358252525330e-01</leafValues></_>
        <_>
          <internalNodes>
            0 -1 121 3.0827906448394060e-04</internalNodes>
          <leafValues>
            -2.0902183651924133e-01 5.8707910776138306e-01</leafValues></_>
        <_>
          <internalNodes>
            0 -1 107 -4.0535692824050784e-04</internalNodes>
          <leafValues>
            5.4233098030090332e-01 -1.3616271317005157e-01</leafValues></_>
        <_>
          <internalNodes>
            0 -1 315 6.6719204187393188e-03</internalNodes>
          <leafValues>
            1.3343839347362518e-01 -7.1010440587997437e-01</leafValues></_>
        <_>
          <internalNodes>
            0 -1 284 4.4151151087135077e-04</internalNodes>
          <leafValues>
            -3.1758040189743042e-01 2.6066875457763672e-01</leafValues></_>
        <_>
          <internalNodes>
            0 -1 253 1.5546465292572975e-03</internalNodes>
          <leafValues>
            -1.8759088218212128e-01 4.8216900229454041e-01</leafValues></_>
        <_>
          <internalNodes>
            0 -1 288 4.4484290992841125e-04</internalNodes>
          <leafValues>
            -2.6808202266693115e-01 2.9811567068099976e-01</leafValues></_>
        <_>
          <internalNodes>
            0 -1 165 7.1549275889992714e-04</internalNodes>
          <leafValues>
            -1.7210018634796143e-01 4.5581117272377014e-01</leafValues></_>
        <_>
          <internalNodes>
            0 -1 451 -4.2408676818013191e-03</internalNodes>
          <leafValues>
            5.0034725666046143e-01 -1.4612081646919250e-01</leafValues></_>
        <_>
          <internalNodes>
            0 -1 233 1.1324766092002392e-02</internalNodes>
          <leafValues>
            -1.2968076765537262e-01 5.8363866806030273e-01</leafValues></_>
        <_>
          <internalNodes>
            0 -1 501 3.4773398510878906e-05</internalNodes>
          <leafValues>
            2.2314849495887756e-01 -3.3184736967086792e-01</leafValues></_>
        <_>
          <internalNodes>
            0 -1 169 -4.6462714672088623e-03</internalNodes>
          <leafValues>
            5.4468840360641479e-01 -1.2357577681541443e-01</leafValues></_>
        <_>
          <internalNodes>
            0 -1 398 7.8654050594195724e-04</internalNodes>
          <leafValues>
            -3.2661768794059753e-01 2.3181954026222229e-01</leafValues></_>
        <_>
          <internalNodes>
            0 -1 247 -2.3517792578786612e-03</internalNodes>
          <leafValues>
            3.6663362383842468e-01 -1.9540134072303772e-01</leafValues></_>
        <_>
          <internalNodes>
            0 -1 139 1.7182067967951298e-03</internalNodes>
          <leafValues>
            -1.2296044081449509e-01 5.4464924335479736e-01</leafValues></_></weakClassifiers></_>
    <!-- stage 9 -->
    <_>
      <maxWeakCount>20</maxWeakCount>
      <stageThreshold>-9.5247179269790649e-01</stageThreshold>
      <weakClassifiers>
        <_>
          <internalNodes>
            0 -1 508 -4.1378010064363480e-03</internalNodes>
          <leafValues>
            -9.2491835355758667e-02 7.1218794584274292e-01</leafValues></_>
        <_>
          <internalNodes>
            0 -1 19 4.4399078935384750e-02</internalNodes>
          <leafValues>
            -2.4881277978420258e-01 3.8222238421440125e-01</leafValues></_>
        <_>
          <internalNodes>
            0 -1 212 -3.4730653278529644e-03</internalNodes>
          <leafValues>
            1.7160940170288086e-01 -4.8051378130912781e-01</leafValues></_>
        <_>
          <internalNodes>
            0 -1 82 2.1205760538578033e-01</internalNodes>
          <leafValues>
            1.0413537174463272e-01 -7.1484547853469849e-01</leafValues></_>
        <_>
          <internalNodes>
            0 -1 343 4.6227467246353626e-03</internalNodes>
          <leafValues>
            -2.2922368347644806e-01 2.9194036126136780e-01</leafValues></_>
        <_>
          <internalNodes>
            0 -1 57 -1.2714698677882552e-03</internalNodes>
          <leafValues>
            3.3306449651718140e-01 -2.1843987703323364e-01</leafValues></_>
        <_>
          <internalNodes>
            0 -1 375 2.5086108507821336e-05</internalNodes>
          <leafValues>
            2.3718032240867615e-01 -3.1325694918632507e-01</leafValues></_>
        <_>
          <internalNodes>
            0 -1 321 -5.8265231928089634e-05</internalNodes>
          <leafValues>
            -4.1571083664894104e-01 1.4132696390151978e-01</leafValues></_>
        <_>
          <internalNodes>
            0 -1 47 1.7407766426913440e-04</internalNodes>
          <leafValues>
            2.1273855865001678e-01 -3.4332057833671570e-01</leafValues></_>
        <_>
          <internalNodes>
            0 -1 477 -4.5444764196872711e-02</internalNodes>
          <leafValues>
            3.8586783409118652e-01 -1.8616190552711487e-01</leafValues></_>
        <_>
          <internalNodes>
            0 -1 492 -2.0924861019011587e-05</internalNodes>
          <leafValues>
            -3.1313467025756836e-01 2.4066025018692017e-01</leafValues></_>
        <_>
          <internalNodes>
            0 -1 269 -6.3375337049365044e-05</internalNodes>
          <leafValues>
            -4.2811429500579834e-01 1.6552790999412537e-01</leafValues></_>
        <_>
          <internalNodes>
            0 -1 144 4.3593658483587205e-04</internalNodes>
          <leafValues>
            -2.0021651685237885e-01 3.9410427212715149e-01</leafValues></_>
        <_>
          <internalNodes>
            0 -1 156 5.2322435658425093e-04</internalNodes>
          <leafValues>
            -1.8005621433258057e-01 3.5518842935562134e-01</leafValues></_>
        <_>
          <internalNodes>
            0 -1 307 -5.1616967539303005e-05</internalNodes>
          <leafValues>
            -3.5934716463088989e-01 1.8313741683959961e-01</leafValues></_>
        <_>
          <internalNodes>
            0 -1 119 -5.1509216427803040e-04</internalNodes>
          <leafValues>
            3.3156836032867432e-01 -2.1572186052799225e-01</leafValues></_>
        <_>
          <internalNodes>
            0 -1 446 -4.1946444980567321e-05</internalNodes>
          <leafValues>
            -3.2582482695579529e-01 2.1778181195259094e-01</leafValues></_>
        <_>
          <internalNodes>
            0 -1 428 -6.6914617491420358e-05</internalNodes>
          <leafValues>
            -3.4447735548019409e-01 1.9031506776809692e-01</leafValues></_>
        <_>
          <internalNodes>
            0 -1 453 -1.0871841368498281e-05</internalNodes>
          <leafValues>
            -3.2344171404838562e-01 2.1151117980480194e-01</leafValues></_>
        <_>
          <internalNodes>
            0 -1 447 -3.8472349842777476e-05</internalNodes>
          <leafValues>
            -3.6945384740829468e-01 2.0501330494880676e-01</leafValues></_></weakClassifiers></_>
    <!-- stage 10 -->
    <_>
      <maxWeakCount>21</maxWeakCount>
      <stageThreshold>-7.5620931386947632e-01</stageThreshold>
      <weakClassifiers>
        <_>
          <internalNodes>
            0 -1 134 -9.1176986694335938e-02</internalNodes>
          <leafValues>
            5.8129650354385376e-01 -2.2306525707244873e-01</leafValues></_>
        <_>
          <internalNodes>
            0 -1 62 7.4291825294494629e-02</internalNodes>
          <leafValues>
            -3.1626576185226440e-01 3.9726328849792480e-01</leafValues></_>
        <_>
          <internalNodes>
            0 -1 487 1.2256646528840065e-02</internalNodes>
          <leafValues>
            -1.4673522114753723e-01 5.2164965867996216e-01</leafValues></_>
        <_>
          <internalNodes>
            0 -1 342 -4.0124978113453835e-05</internalNodes>
          <leafValues>
            -2.5631904602050781e-01 3.1581407785415649e-01</leafValues></_>
        <_>
          <internalNodes>
            0 -1 340 -4.0509999962523580e-05</internalNodes>
          <leafValues>
            -3.4643763303756714e-01 2.2236233949661255e-01</leafValues></_>
        <_>
          <internalNodes>
            0 -1 381 -7.1240065153688192e-05</internalNodes>
          <leafValues>
            -4.0316566824913025e-01 1.7215164005756378e-01</leafValues></_>
        <_>
          <internalNodes>
            0 -1 463 4.7339838929474354e-03</internalNodes>
          <leafValues>
            -2.5085932016372681e-01 2.9106423258781433e-01</leafValues></_>
        <_>
          <internalNodes>
            0 -1 311 1.2855348177254200e-03</internalNodes>
          <leafValues>
            -2.0668819546699524e-01 3.3861303329467773e-01</leafValues></_>
        <_>
          <internalNodes>
            0 -1 378 1.0291505604982376e-02</internalNodes>
          <leafValues>
            1.0111043602228165e-01 -6.6317778825759888e-01</leafValues></_>
        <_>
          <internalNodes>
            0 -1 314 1.7047653091140091e-04</internalNodes>
          <leafValues>
            -2.9037284851074219e-01 2.3345477879047394e-01</leafValues></_>
        <_>
          <internalNodes>
            0 -1 289 5.0579793751239777e-03</internalNodes>
          <leafValues>
            -1.6498403251171112e-01 4.0017396211624146e-01</leafValues></_>
        <_>
          <internalNodes>
            0 -1 456 3.8863552617840469e-05</internalNodes>
          <leafValues>
            2.4461159110069275e-01 -2.9499796032905579e-01</leafValues></_>
        <_>
          <internalNodes>
            0 -1 337 -4.2167408537352458e-05</internalNodes>
          <leafValues>
            -3.6127457022666931e-01 2.2514177858829498e-01</leafValues></_>
        <_>
          <internalNodes>
            0 -1 273 2.8181215748190880e-03</internalNodes>
          <leafValues>
            -1.6212300956249237e-01 5.1260232925415039e-01</leafValues></_>
        <_>
          <internalNodes>
            0 -1 263 6.6874027252197266e-03</internalNodes>
          <leafValues>
            1.0205364972352982e-01 -8.4949547052383423e-01</leafValues></_>
        <_>
          <internalNodes>
            0 -1 414 -8.0647058784961700e-03</internalNodes>
          <leafValues>
            -8.6227339506149292e-01 7.1182422339916229e-02</leafValues></_>
        <_>
          <internalNodes>
            0 -1 490 -2.0049363229190931e-05</internalNodes>
          <leafValues>
            -3.7394526600837708e-01 1.8301574885845184e-01</leafValues></_>
        <_>
          <internalNodes>
            0 -1 36 4.7627799212932587e-03</internalNodes>
          <leafValues>
            -2.0784887671470642e-01 3.8274800777435303e-01</leafValues></_>
        <_>
          <internalNodes>
            0 -1 58 5.2171279094181955e-05</internalNodes>
          <leafValues>
            2.8210633993148804e-01 -3.0848801136016846e-01</leafValues></_>
        <_>
          <internalNodes>
            0 -1 443 -1.3510514050722122e-02</internalNodes>
          <leafValues>
            -9.2068284749984741e-01 7.5920894742012024e-02</leafValues></_>
        <_>
          <internalNodes>
            0 -1 132 -6.9871498271822929e-04</internalNodes>
          <leafValues>
            4.8952022194862366e-01 -1.6470165550708771e-01</leafValues></_></weakClassifiers></_>
    <!-- stage 11 -->
    <_>
      <maxWeakCount>21</maxWeakCount>
      <stageThreshold>-9.2099261283874512e-01</stageThreshold>
      <weakClassifiers>
        <_>
          <internalNodes>
            0 -1 6 9.1857492923736572e-01</internalNodes>
          <leafValues>
            -1.1843711882829666e-01 6.3636362552642822e-01</leafValues></_>
        <_>
          <internalNodes>
            0 -1 14 4.7694481909275055e-02</internalNodes>
          <leafValues>
            -2.2019283473491669e-01 4.3823453783988953e-01</leafValues></_>
        <_>
          <internalNodes>
            0 -1 488 -5.3270190954208374e-02</internalNodes>
          <leafValues>
            -1.2429402768611908e-01 5.5646365880966187e-01</leafValues></_>
        <_>
          <internalNodes>
            0 -1 415 -1.5912021626718342e-04</internalNodes>
          <leafValues>
            2.2874827682971954e-01 -3.4059640765190125e-01</leafValues></_>
        <_>
          <internalNodes>
            0 -1 474 -6.3737403252162039e-05</internalNodes>
          <leafValues>
            -3.8141950964927673e-01 1.9355973601341248e-01</leafValues></_>
        <_>
          <internalNodes>
            0 -1 341 4.2300023778807372e-05</internalNodes>
          <leafValues>
            1.7331475019454956e-01 -3.5999336838722229e-01</leafValues></_>
        <_>
          <internalNodes>
            0 -1 35 6.8024811334908009e-03</internalNodes>
          <leafValues>
            -1.2345734983682632e-01 5.1471734046936035e-01</leafValues></_>
        <_>
          <internalNodes>
            0 -1 70 1.6814508126117289e-04</internalNodes>
          <leafValues>
            1.6563878953456879e-01 -3.9297616481781006e-01</leafValues></_>
        <_>
          <internalNodes>
            0 -1 338 -2.5723107683006674e-05</internalNodes>
          <leafValues>
            -3.5243636369705200e-01 1.8229267001152039e-01</leafValues></_>
        <_>
          <internalNodes>
            0 -1 369 4.8431673349114135e-05</internalNodes>
          <leafValues>
            -2.7364641427993774e-01 2.3746563494205475e-01</leafValues></_>
        <_>
          <internalNodes>
            0 -1 282 2.1924495697021484e-02</internalNodes>
          <leafValues>
            8.8991217315196991e-02 -8.9092105627059937e-01</leafValues></_>
        <_>
          <internalNodes>
            0 -1 459 -2.2239784811972640e-05</internalNodes>
          <leafValues>
            -3.2684734463691711e-01 2.0380187034606934e-01</leafValues></_>
        <_>
          <internalNodes>
            0 -1 147 4.0234799962490797e-04</internalNodes>
          <leafValues>
            -1.3235576450824738e-01 4.8512047529220581e-01</leafValues></_>
        <_>
          <internalNodes>
            0 -1 504 1.5832821372896433e-03</internalNodes>
          <leafValues>
            1.3629530370235443e-01 -5.1289415359497070e-01</leafValues></_>
        <_>
          <internalNodes>
            0 -1 469 2.5258329696953297e-03</internalNodes>
          <leafValues>
            -2.5224301218986511e-01 2.4244588613510132e-01</leafValues></_>
        <_>
          <internalNodes>
            0 -1 89 -7.4263407441321760e-05</internalNodes>
          <leafValues>
            -4.0750142931938171e-01 1.4215822517871857e-01</leafValues></_>
        <_>
          <internalNodes>
            0 -1 500 -3.1465664505958557e-04</internalNodes>
          <leafValues>
            -4.2189902067184448e-01 1.4483898878097534e-01</leafValues></_>
        <_>
          <internalNodes>
            0 -1 110 1.2566296383738518e-02</internalNodes>
          <leafValues>
            -2.1790857613086700e-01 2.9742133617401123e-01</leafValues></_>
        <_>
          <internalNodes>
            0 -1 245 2.2419453598558903e-03</internalNodes>
          <leafValues>
            -2.5117594003677368e-01 2.6101133227348328e-01</leafValues></_>
        <_>
          <internalNodes>
            0 -1 173 -1.7562818247824907e-03</internalNodes>
          <leafValues>
            4.9229985475540161e-01 -1.3806268572807312e-01</leafValues></_>
        <_>
          <internalNodes>
            0 -1 419 -4.3972002458758652e-05</internalNodes>
          <leafValues>
            -3.2450544834136963e-01 1.9417037069797516e-01</leafValues></_></weakClassifiers></_>
    <!-- stage 12 -->
    <_>
      <maxWeakCount>22</maxWeakCount>
      <stageThreshold>-7.9226726293563843e-01</stageThreshold>
      <weakClassifiers>
        <_>
          <internalNodes>
            0 -1 185 5.2633941173553467e-01</internalNodes>
          <leafValues>
            -6.3414633274078369e-02 5.7948720455169678e-01</leafValues></_>
        <_>
          <internalNodes>
            0 -1 60 -9.8564894869923592e-03</internalNodes>
          <leafValues>
            3.1718114018440247e-01 -2.3846071958541870e-01</leafValues></_>
        <_>
          <internalNodes>
            0 -1 363 6.4770560711622238e-03</internalNodes>
          <leafValues>
            -1.5815663337707520e-01 4.3510892987251282e-01</leafValues></_>
        <_>
          <internalNodes>
            0 -1 506 5.5341301485896111e-03</internalNodes>
          <leafValues>
            1.2137582898139954e-01 -5.0004905462265015e-01</leafValues></_>
        <_>
          <internalNodes>
            0 -1 217 -2.5070674717426300e-02</internalNodes>
          <leafValues>
            -8.4747612476348877e-01 8.3243981003761292e-02</leafValues></_>
        <_>
          <internalNodes>
            0 -1 434 2.1485659090103582e-05</internalNodes>
          <leafValues>
            2.0836921036243439e-01 -3.0058407783508301e-01</leafValues></_>
        <_>
          <internalNodes>
            0 -1 254 -2.9204809106886387e-03</internalNodes>
          <leafValues>
            4.4825062155723572e-01 -1.4492666721343994e-01</leafValues></_>
        <_>
          <internalNodes>
            0 -1 143 1.1836609337478876e-03</internalNodes>
          <leafValues>
            -1.4662320911884308e-01 3.9464664459228516e-01</leafValues></_>
        <_>
          <internalNodes>
            0 -1 150 4.7021284699440002e-03</internalNodes>
          <leafValues>
            -2.2355809807777405e-01 2.8898048400878906e-01</leafValues></_>
        <_>
          <internalNodes>
            0 -1 100 9.6066819969564676e-04</internalNodes>
          <leafValues>
            -1.7186421155929565e-01 3.7613326311111450e-01</leafValues></_>
        <_>
          <internalNodes>
            0 -1 120 -5.6129340082406998e-03</internalNodes>
          <leafValues>
            -7.7014720439910889e-01 7.3874168097972870e-02</leafValues></_>
        <_>
          <internalNodes>
            0 -1 356 2.3591602221131325e-03</internalNodes>
          <leafValues>
            -2.1126522123813629e-01 2.7061867713928223e-01</leafValues></_>
        <_>
          <internalNodes>
            0 -1 189 -2.3495269124396145e-04</internalNodes>
          <leafValues>
            5.8031791448593140e-01 -8.7422892451286316e-02</leafValues></_>
        <_>
          <internalNodes>
            0 -1 339 -1.4987812392064370e-05</internalNodes>
          <leafValues>
            -3.3418709039688110e-01 1.9282767176628113e-01</leafValues></_>
        <_>
          <internalNodes>
            0 -1 298 -1.9124479149468243e-04</internalNodes>
          <leafValues>
            3.1478512287139893e-01 -1.9539535045623779e-01</leafValues></_>
        <_>
          <internalNodes>
            0 -1 69 -4.3692104518413544e-02</internalNodes>
          <leafValues>
            -9.5122061669826508e-02 6.0791528224945068e-01</leafValues></_>
        <_>
          <internalNodes>
            0 -1 103 1.5948581695556641e-01</internalNodes>
          <leafValues>
            8.8597096502780914e-02 -7.1031564474105835e-01</leafValues></_>
        <_>
          <internalNodes>
            0 -1 13 1.7400280339643359e-03</internalNodes>
          <leafValues>
            1.2049885839223862e-01 -4.8428118228912354e-01</leafValues></_>
        <_>
          <internalNodes>
            0 -1 66 -7.2574475780129433e-04</internalNodes>
          <leafValues>
            4.3712320923805237e-01 -1.5434376895427704e-01</leafValues></_>
        <_>
          <internalNodes>
            0 -1 246 3.3798994263634086e-04</internalNodes>
          <leafValues>
            -2.6900002360343933e-01 2.0197607576847076e-01</leafValues></_>
        <_>
          <internalNodes>
            0 -1 498 5.1049599424004555e-03</internalNodes>
          <leafValues>
            -9.0567767620086670e-02 6.8408381938934326e-01</leafValues></_>
        <_>
          <internalNodes>
            0 -1 391 2.6534355129115283e-04</internalNodes>
          <leafValues>
            -2.3446348309516907e-01 2.4869884550571442e-01</leafValues></_></weakClassifiers></_>
    <!-- stage 13 -->
    <_>
      <maxWeakCount>22</maxWeakCount>
      <stageThreshold>-7.5414818525314331e-01</stageThreshold>
      <weakClassifiers>
        <_>
          <internalNodes>
            0 -1 45 9.8904311656951904e-02</internalNodes>
          <leafValues>
            -1.2064342945814133e-01 5.7377046346664429e-01</leafValues></_>
        <_>
          <internalNodes>
            0 -1 255 3.0699902772903442e-01</internalNodes>
          <leafValues>
            -2.2784206271171570e-01 3.7681296467781067e-01</leafValues></_>
        <_>
          <internalNodes>
            0 -1 23 4.9713021144270897e-03</internalNodes>
          <leafValues>
            -4.3989989161491394e-01 1.4967131614685059e-01</leafValues></_>
        <_>
          <internalNodes>
            0 -1 297 5.4161166772246361e-03</internalNodes>
          <leafValues>
            9.2455409467220306e-02 -6.7488640546798706e-01</leafValues></_>
        <_>
          <internalNodes>
            0 -1 382 -4.4210199121152982e-05</internalNodes>
          <leafValues>
            -3.5460591316223145e-01 1.5693299472332001e-01</leafValues></_>
        <_>
          <internalNodes>
            0 -1 466 -1.4247523620724678e-02</internalNodes>
          <leafValues>
            -8.8967233896255493e-01 5.2736889570951462e-02</leafValues></_>
        <_>
          <internalNodes>
            0 -1 503 6.5263899159617722e-05</internalNodes>
          <leafValues>
            1.5367694199085236e-01 -3.7006705999374390e-01</leafValues></_>
        <_>
          <internalNodes>
            0 -1 244 1.2181723286630586e-04</internalNodes>
          <leafValues>
            -3.1765225529670715e-01 1.7174515128135681e-01</leafValues></_>
        <_>
          <internalNodes>
            0 -1 227 4.9387682229280472e-03</internalNodes>
          <leafValues>
            1.2803530693054199e-01 -5.7678216695785522e-01</leafValues></_>
        <_>
          <internalNodes>
            0 -1 64 -5.5216707289218903e-02</internalNodes>
          <leafValues>
            -5.5331718921661377e-01 9.0586483478546143e-02</leafValues></_>
        <_>
          <internalNodes>
            0 -1 85 -9.1372325550764799e-04</internalNodes>
          <leafValues>
            3.3073046803474426e-01 -1.8227480351924896e-01</leafValues></_>
        <_>
          <internalNodes>
            0 -1 367 1.8295884365215898e-03</internalNodes>
          <leafValues>
            1.1915495246648788e-01 -6.1670970916748047e-01</leafValues></_>
        <_>
          <internalNodes>
            0 -1 86 1.9454311113804579e-03</internalNodes>
          <leafValues>
            -1.8845029175281525e-01 3.2172483205795288e-01</leafValues></_>
        <_>
          <internalNodes>
            0 -1 331 4.4796273868996650e-05</internalNodes>
          <leafValues>
            1.5937693417072296e-01 -3.5162195563316345e-01</leafValues></_>
        <_>
          <internalNodes>
            0 -1 458 -1.2631752724701073e-05</internalNodes>
          <leafValues>
            -2.2371990978717804e-01 2.3754630982875824e-01</leafValues></_>
        <_>
          <internalNodes>
            0 -1 380 -1.8248702399432659e-03</internalNodes>
          <leafValues>
            3.0591183900833130e-01 -2.0149397850036621e-01</leafValues></_>
        <_>
          <internalNodes>
            0 -1 114 1.2338599190115929e-02</internalNodes>
          <leafValues>
            1.0534147918224335e-01 -5.1303941011428833e-01</leafValues></_>
        <_>
          <internalNodes>
            0 -1 71 3.4389677643775940e-01</internalNodes>
          <leafValues>
            -8.6784660816192627e-02 7.0488548278808594e-01</leafValues></_>
        <_>
          <internalNodes>
            0 -1 405 4.4923469424247742e-02</internalNodes>
          <leafValues>
            -1.7146985232830048e-01 3.8384801149368286e-01</leafValues></_>
        <_>
          <internalNodes>
            0 -1 148 4.5225553913041949e-04</internalNodes>
          <leafValues>
            -1.6222503781318665e-01 3.4771963953971863e-01</leafValues></_>
        <_>
          <internalNodes>
            0 -1 97 -3.2196659594774246e-03</internalNodes>
          <leafValues>
            4.7668522596359253e-01 -1.0778800398111343e-01</leafValues></_>
        <_>
          <internalNodes>
            0 -1 0 2.2881687618792057e-03</internalNodes>
          <leafValues>
            1.5653234720230103e-01 -3.7669217586517334e-01</leafValues></_></weakClassifiers></_>
    <!-- stage 14 -->
    <_>
      <maxWeakCount>23</maxWeakCount>
      <stageThreshold>-7.7162104845046997e-01</stageThreshold>
      <weakClassifiers>
        <_>
          <internalNodes>
            0 -1 27 -6.9079711101949215e-03</internalNodes>
          <leafValues>
            -1.0869564861059189e-01 5.5555558204650879e-01</leafValues></_>
        <_>
          <internalNodes>
            0 -1 464 1.4272375032305717e-02</internalNodes>
          <leafValues>
            -1.4794901013374329e-01 4.8451989889144897e-01</leafValues></_>
        <_>
          <internalNodes>
            0 -1 231 2.0550420507788658e-02</internalNodes>
          <leafValues>
            -2.2237251698970795e-01 2.7347782254219055e-01</leafValues></_>
        <_>
          <internalNodes>
            0 -1 256 8.8706350652500987e-04</internalNodes>
          <leafValues>
            -1.6048896312713623e-01 4.5069810748100281e-01</leafValues></_>
        <_>
          <internalNodes>
            0 -1 92 3.3046625554561615e-02</internalNodes>
          <leafValues>
            -1.5107317268848419e-01 3.3952254056930542e-01</leafValues></_>
        <_>
          <internalNodes>
            0 -1 239 1.4652503887191415e-03</internalNodes>
          <leafValues>
            -1.2232659757137299e-01 6.3592088222503662e-01</leafValues></_>
        <_>
          <internalNodes>
            0 -1 448 -3.9922604628372937e-05</internalNodes>
          <leafValues>
            -2.6783281564712524e-01 2.0227238535881042e-01</leafValues></_>
        <_>
          <internalNodes>
            0 -1 423 -6.3745841383934021e-02</internalNodes>
          <leafValues>
            -5.7871508598327637e-01 1.1018156260251999e-01</leafValues></_>
        <_>
          <internalNodes>
            0 -1 425 -3.3074622042477131e-03</internalNodes>
          <leafValues>
            1.7197597026824951e-01 -3.7878453731536865e-01</leafValues></_>
        <_>
          <internalNodes>
            0 -1 305 3.6334622564027086e-06</internalNodes>
          <leafValues>
            -2.8868111968040466e-01 1.8502302467823029e-01</leafValues></_>
        <_>
          <internalNodes>
            0 -1 220 7.0719013456255198e-04</internalNodes>
          <leafValues>
            -1.6184805333614349e-01 3.3921578526496887e-01</leafValues></_>
        <_>
          <internalNodes>
            0 -1 176 2.0979662076570094e-04</internalNodes>
          <leafValues>
            -2.1108549833297729e-01 2.6732543110847473e-01</leafValues></_>
        <_>
          <internalNodes>
            0 -1 163 -5.0424027722328901e-04</internalNodes>
          <leafValues>
            3.9544221758842468e-01 -1.6584062576293945e-01</leafValues></_>
        <_>
          <internalNodes>
            0 -1 266 4.2651387047953904e-05</internalNodes>
          <leafValues>
            2.1062393486499786e-01 -2.8244766592979431e-01</leafValues></_>
        <_>
          <internalNodes>
            0 -1 383 7.6553871622309089e-04</internalNodes>
          <leafValues>
            -1.3329166173934937e-01 4.0962746739387512e-01</leafValues></_>
        <_>
          <internalNodes>
            0 -1 11 4.1286882758140564e-01</internalNodes>
          <leafValues>
            -1.2124107778072357e-01 4.4255602359771729e-01</leafValues></_>
        <_>
          <internalNodes>
            0 -1 106 2.0464458502829075e-03</internalNodes>
          <leafValues>
            -1.8621733784675598e-01 3.4752151370048523e-01</leafValues></_>
        <_>
          <internalNodes>
            0 -1 325 8.8004468125291169e-05</internalNodes>
          <leafValues>
            1.7883966863155365e-01 -3.4590920805931091e-01</leafValues></_>
        <_>
          <internalNodes>
            0 -1 283 2.2970203644945286e-05</internalNodes>
          <leafValues>
            -2.3735994100570679e-01 2.4055281281471252e-01</leafValues></_>
        <_>
          <internalNodes>
            0 -1 429 -4.8282352508977056e-05</internalNodes>
          <leafValues>
            -3.2606077194213867e-01 1.6229544579982758e-01</leafValues></_>
        <_>
          <internalNodes>
            0 -1 473 -3.1815514375921339e-05</internalNodes>
          <leafValues>
            -2.5768074393272400e-01 2.1557804942131042e-01</leafValues></_>
        <_>
          <internalNodes>
            0 -1 267 2.4481727741658688e-03</internalNodes>
          <leafValues>
            -1.0867029428482056e-01 4.8653677105903625e-01</leafValues></_>
        <_>
          <internalNodes>
            0 -1 34 -5.1658451557159424e-03</internalNodes>
          <leafValues>
            -4.7479099035263062e-01 1.2952280044555664e-01</leafValues></_></weakClassifiers></_>
    <!-- stage 15 -->
    <_>
      <maxWeakCount>26</maxWeakCount>
      <stageThreshold>-6.7208373546600342e-01</stageThreshold>
      <weakClassifiers>
        <_>
          <internalNodes>
            0 -1 510 -3.8438020274043083e-03</internalNodes>
          <leafValues>
            -2.0270269364118576e-02 5.8707863092422485e-01</leafValues></_>
        <_>
          <internalNodes>
            0 -1 112 -9.1649129986763000e-02</internalNodes>
          <leafValues>
            3.3294624090194702e-01 -2.4558284878730774e-01</leafValues></_>
        <_>
          <internalNodes>
            0 -1 411 -6.6051346948370337e-05</internalNodes>
          <leafValues>
            -3.5312923789024353e-01 1.8619120121002197e-01</leafValues></_>
        <_>
          <internalNodes>
            0 -1 170 -2.1685099229216576e-02</internalNodes>
          <leafValues>
            2.7847239375114441e-01 -2.1926051378250122e-01</leafValues></_>
        <_>
          <internalNodes>
            0 -1 183 -8.4010964201297611e-05</internalNodes>
          <leafValues>
            -2.6713618636131287e-01 2.1884050965309143e-01</leafValues></_>
        <_>
          <internalNodes>
            0 -1 248 -1.9910197806893848e-05</internalNodes>
          <leafValues>
            -2.2790665924549103e-01 2.6864558458328247e-01</leafValues></_>
        <_>
          <internalNodes>
            0 -1 296 1.0809339582920074e-02</internalNodes>
          <leafValues>
            1.2441483139991760e-01 -3.9890274405479431e-01</leafValues></_>
        <_>
          <internalNodes>
            0 -1 348 -8.9950151741504669e-03</internalNodes>
          <leafValues>
            -7.0610266923904419e-01 8.5788667201995850e-02</leafValues></_>
        <_>
          <internalNodes>
            0 -1 232 3.6485143937170506e-04</internalNodes>
          <leafValues>
            -1.8858045339584351e-01 2.8390803933143616e-01</leafValues></_>
        <_>
          <internalNodes>
            0 -1 457 -3.7570356653304771e-05</internalNodes>
          <leafValues>
            -3.4670123457908630e-01 1.5287236869335175e-01</leafValues></_>
        <_>
          <internalNodes>
            0 -1 29 4.3832203373312950e-03</internalNodes>
          <leafValues>
            -7.3737226426601410e-02 7.3082524538040161e-01</leafValues></_>
        <_>
          <internalNodes>
            0 -1 90 -7.2608301707077771e-05</internalNodes>
          <leafValues>
            -3.4696352481842041e-01 1.6810898482799530e-01</leafValues></_>
        <_>
          <internalNodes>
            0 -1 181 -1.1263308115303516e-02</internalNodes>
          <leafValues>
            6.1601072549819946e-01 -8.4652557969093323e-02</leafValues></_>
        <_>
          <internalNodes>
            0 -1 394 6.6397450864315033e-03</internalNodes>
          <leafValues>
            -1.3880144059658051e-01 3.9357352256774902e-01</leafValues></_>
        <_>
          <internalNodes>
            0 -1 390 1.4240104937925935e-03</internalNodes>
          <leafValues>
            -2.7726766467094421e-01 2.1831625699996948e-01</leafValues></_>
        <_>
          <internalNodes>
            0 -1 197 -8.2372257020324469e-04</internalNodes>
          <leafValues>
            3.7641298770904541e-01 -1.4950682222843170e-01</leafValues></_>
        <_>
          <internalNodes>
            0 -1 46 -1.6876321751624346e-04</internalNodes>
          <leafValues>
            -4.2161664366722107e-01 1.3944016396999359e-01</leafValues></_>
        <_>
          <internalNodes>
            0 -1 322 -4.9958685849560425e-05</internalNodes>
          <leafValues>
            -3.4890645742416382e-01 1.5254583954811096e-01</leafValues></_>
        <_>
          <internalNodes>
            0 -1 215 -3.7120999768376350e-03</internalNodes>
          <leafValues>
            5.6193494796752930e-01 -8.9684046804904938e-02</leafValues></_>
        <_>
          <internalNodes>
            0 -1 317 2.4077748821582645e-04</internalNodes>
          <leafValues>
            -2.0965780317783356e-01 2.4353787302970886e-01</leafValues></_>
        <_>
          <internalNodes>
            0 -1 76 1.4859940856695175e-02</internalNodes>
          <leafValues>
            -1.5539760887622833e-01 3.5993963479995728e-01</leafValues></_>
        <_>
          <internalNodes>
            0 -1 237 5.9871627017855644e-03</internalNodes>
          <leafValues>
            -1.6470946371555328e-01 3.6198046803474426e-01</leafValues></_>
        <_>
          <internalNodes>
            0 -1 412 -4.4174666982144117e-05</internalNodes>
          <leafValues>
            -3.2801210880279541e-01 1.6585817933082581e-01</leafValues></_>
        <_>
          <internalNodes>
            0 -1 52 3.9218529127538204e-04</internalNodes>
          <leafValues>
            1.7257113754749298e-01 -3.2263118028640747e-01</leafValues></_>
        <_>
          <internalNodes>
            0 -1 497 2.0961631089448929e-03</internalNodes>
          <leafValues>
            -1.0440088063478470e-01 5.2698969841003418e-01</leafValues></_>
        <_>
          <internalNodes>
            0 -1 345 -1.8082188034895808e-04</internalNodes>
          <leafValues>
            -3.3337843418121338e-01 1.6434660553932190e-01</leafValues></_></weakClassifiers></_>
    <!-- stage 16 -->
    <_>
      <maxWeakCount>26</maxWeakCount>
      <stageThreshold>-7.7020502090454102e-01</stageThreshold>
      <weakClassifiers>
        <_>
          <internalNodes>
            0 -1 270 2.7815419435501099e-01</internalNodes>
          <leafValues>
            -1.9222462177276611e-01 4.3007916212081909e-01</leafValues></_>
        <_>
          <internalNodes>
            0 -1 145 1.1257240548729897e-02</internalNodes>
          <leafValues>
            1.7000707983970642e-01 -4.1580110788345337e-01</leafValues></_>
        <_>
          <internalNodes>
            0 -1 207 2.8135307366028428e-04</internalNodes>
          <leafValues>
            -1.7832063138484955e-01 3.3690863847732544e-01</leafValues></_>
        <_>
          <internalNodes>
            0 -1 372 4.0536515371059068e-06</internalNodes>
          <leafValues>
            -2.7182954549789429e-01 2.2747792303562164e-01</leafValues></_>
        <_>
          <internalNodes>
            0 -1 229 1.5892891213297844e-02</internalNodes>
          <leafValues>
            5.2594296634197235e-02 -6.4217990636825562e-01</leafValues></_>
        <_>
          <internalNodes>
            0 -1 230 -1.4109199400991201e-04</internalNodes>
          <leafValues>
            3.6891758441925049e-01 -1.5744420886039734e-01</leafValues></_>
        <_>
          <internalNodes>
            0 -1 177 4.8335368046537042e-04</internalNodes>
          <leafValues>
            -2.3712815344333649e-01 2.7213642001152039e-01</leafValues></_>
        <_>
          <internalNodes>
            0 -1 21 2.0678080618381500e-02</internalNodes>
          <leafValues>
            -1.6963146626949310e-01 3.8524848222732544e-01</leafValues></_>
        <_>
          <internalNodes>
            0 -1 184 -1.0387262329459190e-02</internalNodes>
          <leafValues>
            5.4929548501968384e-01 -1.1146789789199829e-01</leafValues></_>
        <_>
          <internalNodes>
            0 -1 113 2.2152578458189964e-03</internalNodes>
          <leafValues>
            -1.1696147918701172e-01 4.3187117576599121e-01</leafValues></_>
        <_>
          <internalNodes>
            0 -1 72 1.4644506573677063e-01</internalNodes>
          <leafValues>
            -2.6619589328765869e-01 2.0982864499092102e-01</leafValues></_>
        <_>
          <internalNodes>
            0 -1 251 -5.0022420473396778e-03</internalNodes>
          <leafValues>
            5.6098753213882446e-01 -1.1366725713014603e-01</leafValues></_>
        <_>
          <internalNodes>
            0 -1 387 -1.1097446084022522e-02</internalNodes>
          <leafValues>
            -7.0798587799072266e-01 1.0206294804811478e-01</leafValues></_>
        <_>
          <internalNodes>
            0 -1 203 1.0658998508006334e-03</internalNodes>
          <leafValues>
            -1.4912934601306915e-01 3.6868286132812500e-01</leafValues></_>
        <_>
          <internalNodes>
            0 -1 56 -2.8396047127898782e-05</internalNodes>
          <leafValues>
            2.9257503151893616e-01 -1.8002751469612122e-01</leafValues></_>
        <_>
          <internalNodes>
            0 -1 234 6.4007337205111980e-03</internalNodes>
          <leafValues>
            1.5388357639312744e-01 -3.6801707744598389e-01</leafValues></_>
        <_>
          <internalNodes>
            0 -1 301 1.3257918908493593e-05</internalNodes>
          <leafValues>
            -2.5469768047332764e-01 2.2835606336593628e-01</leafValues></_>
        <_>
          <internalNodes>
            0 -1 152 1.7333477735519409e-01</internalNodes>
          <leafValues>
            1.0001835227012634e-01 -5.0342166423797607e-01</leafValues></_>
        <_>
          <internalNodes>
            0 -1 195 -5.4776957258582115e-03</internalNodes>
          <leafValues>
            -7.1735328435897827e-01 7.2051212191581726e-02</leafValues></_>
        <_>
          <internalNodes>
            0 -1 78 4.1419937042519450e-04</internalNodes>
          <leafValues>
            1.7513749003410339e-01 -3.2203781604766846e-01</leafValues></_>
        <_>
          <internalNodes>
            0 -1 201 -1.1464618146419525e-03</internalNodes>
          <leafValues>
            3.2293209433555603e-01 -2.0468796789646149e-01</leafValues></_>
        <_>
          <internalNodes>
            0 -1 30 8.0549512058496475e-03</internalNodes>
          <leafValues>
            -9.3717016279697418e-02 5.7594376802444458e-01</leafValues></_>
        <_>
          <internalNodes>
            0 -1 344 5.8022188022732735e-04</internalNodes>
          <leafValues>
            -1.6648826003074646e-01 3.1358894705772400e-01</leafValues></_>
        <_>
          <internalNodes>
            0 -1 196 3.5270396620035172e-04</internalNodes>
          <leafValues>
            -1.7370523512363434e-01 3.0703046917915344e-01</leafValues></_>
        <_>
          <internalNodes>
            0 -1 386 -4.0085893124341965e-03</internalNodes>
          <leafValues>
            -6.9020414352416992e-01 8.1406898796558380e-02</leafValues></_>
        <_>
          <internalNodes>
            0 -1 320 2.6561194681562483e-04</internalNodes>
          <leafValues>
            -1.8787771463394165e-01 3.1204289197921753e-01</leafValues></_></weakClassifiers></_>
    <!-- stage 17 -->
    <_>
      <maxWeakCount>30</maxWeakCount>
      <stageThreshold>-7.6781463623046875e-01</stageThreshold>
      <weakClassifiers>
        <_>
          <internalNodes>
            0 -1 80 -3.2206319272518158e-02</internalNodes>
          <leafValues>
            4.7128713130950928e-01 -1.2881356477737427e-01</leafValues></_>
        <_>
          <internalNodes>
            0 -1 359 3.5987228155136108e-01</internalNodes>
          <leafValues>
            -2.1443715691566467e-01 3.1938463449478149e-01</leafValues></_>
        <_>
          <internalNodes>
            0 -1 279 1.2117445468902588e-02</internalNodes>
          <leafValues>
            7.2618857026100159e-02 -7.7757585048675537e-01</leafValues></_>
        <_>
          <internalNodes>
            0 -1 471 -6.4571050461381674e-04</internalNodes>
          <leafValues>
            2.3331943154335022e-01 -2.2128896415233612e-01</leafValues></_>
        <_>
          <internalNodes>
            0 -1 336 6.4179869368672371e-03</internalNodes>
          <leafValues>
            6.2680728733539581e-02 -7.4840825796127319e-01</leafValues></_>
        <_>
          <internalNodes>
            0 -1 202 4.6339861000888050e-04</internalNodes>
          <leafValues>
            -1.2646929919719696e-01 4.2430830001831055e-01</leafValues></_>
        <_>
          <internalNodes>
            0 -1 404 -5.5907854402903467e-05</internalNodes>
          <leafValues>
            -2.9603445529937744e-01 1.5791375935077667e-01</leafValues></_>
        <_>
          <internalNodes>
            0 -1 374 -1.5815870938240550e-05</internalNodes>
          <leafValues>
            -2.3444287478923798e-01 2.2650995850563049e-01</leafValues></_>
        <_>
          <internalNodes>
            0 -1 240 7.1368081262335181e-04</internalNodes>
          <leafValues>
            -1.6428184509277344e-01 3.1903696060180664e-01</leafValues></_>
        <_>
          <internalNodes>
            0 -1 194 7.4279890395700932e-04</internalNodes>
          <leafValues>
            -1.9526550173759460e-01 2.5440669059753418e-01</leafValues></_>
        <_>
          <internalNodes>
            0 -1 180 -7.5765338260680437e-04</internalNodes>
          <leafValues>
            2.8771197795867920e-01 -1.5171614289283752e-01</leafValues></_>
        <_>
          <internalNodes>
            0 -1 211 -3.1928630050970241e-05</internalNodes>
          <leafValues>
            -2.2603143751621246e-01 2.1418499946594238e-01</leafValues></_>
        <_>
          <internalNodes>
            0 -1 295 8.7944511324167252e-03</internalNodes>
          <leafValues>
            8.2482963800430298e-02 -6.8056821823120117e-01</leafValues></_>
        <_>
          <internalNodes>
            0 -1 309 -1.9224181771278381e-02</internalNodes>
          <leafValues>
            -7.5837570428848267e-01 4.7100745141506195e-02</leafValues></_>
        <_>
          <internalNodes>
            0 -1 210 3.3242633799090981e-04</internalNodes>
          <leafValues>
            -2.0785002410411835e-01 2.2808714210987091e-01</leafValues></_>
        <_>
          <internalNodes>
            0 -1 486 5.8138007298111916e-03</internalNodes>
          <leafValues>
            -1.3527232408523560e-01 3.6572483181953430e-01</leafValues></_>
        <_>
          <internalNodes>
            0 -1 214 2.0776707679033279e-03</internalNodes>
          <leafValues>
            -8.2933194935321808e-02 5.5432689189910889e-01</leafValues></_>
        <_>
          <internalNodes>
            0 -1 198 4.2482621967792511e-02</internalNodes>
          <leafValues>
            -8.0333687365055084e-02 5.7011348009109497e-01</leafValues></_>
        <_>
          <internalNodes>
            0 -1 268 -8.7258778512477875e-04</internalNodes>
          <leafValues>
            2.9733058810234070e-01 -1.6086418926715851e-01</leafValues></_>
        <_>
          <internalNodes>
            0 -1 294 5.5904674809426069e-04</internalNodes>
          <leafValues>
            -1.6374202072620392e-01 2.8616487979888916e-01</leafValues></_>
        <_>
          <internalNodes>
            0 -1 276 1.9061740022152662e-03</internalNodes>
          <leafValues>
            -2.5914585590362549e-01 1.7663094401359558e-01</leafValues></_>
        <_>
          <internalNodes>
            0 -1 226 -3.2894378527998924e-03</internalNodes>
          <leafValues>
            -6.0507440567016602e-01 8.2073591649532318e-02</leafValues></_>
        <_>
          <internalNodes>
            0 -1 364 2.6754107238957658e-05</internalNodes>
          <leafValues>
            1.7372076213359833e-01 -2.5922524929046631e-01</leafValues></_>
        <_>
          <internalNodes>
            0 -1 493 7.0463705924339592e-05</internalNodes>
          <leafValues>
            1.2656088173389435e-01 -3.5550257563591003e-01</leafValues></_>
        <_>
          <internalNodes>
            0 -1 328 1.8553033005446196e-03</internalNodes>
          <leafValues>
            -1.0482536256313324e-01 4.5719978213310242e-01</leafValues></_>
        <_>
          <internalNodes>
            0 -1 433 -2.4742839741520584e-05</internalNodes>
          <leafValues>
            -3.2434651255607605e-01 1.6484518349170685e-01</leafValues></_>
        <_>
          <internalNodes>
            0 -1 300 1.1501205153763294e-04</internalNodes>
          <leafValues>
            -2.3172290623188019e-01 2.0531511306762695e-01</leafValues></_>
        <_>
          <internalNodes>
            0 -1 332 -1.5528986114077270e-04</internalNodes>
          <leafValues>
            2.7708625793457031e-01 -1.9266247749328613e-01</leafValues></_>
        <_>
          <internalNodes>
            0 -1 241 -7.1579725481569767e-03</internalNodes>
          <leafValues>
            -6.8877631425857544e-01 7.1806840598583221e-02</leafValues></_>
        <_>
          <internalNodes>
            0 -1 178 7.4318991973996162e-03</internalNodes>
          <leafValues>
            -2.0923680067062378e-01 2.4855408072471619e-01</leafValues></_></weakClassifiers></_>
    <!-- stage 18 -->
    <_>
      <maxWeakCount>28</maxWeakCount>
      <stageThreshold>-7.4748218059539795e-01</stageThreshold>
      <weakClassifiers>
        <_>
          <internalNodes>
            0 -1 50 1.1095043271780014e-02</internalNodes>
          <leafValues>
            1.4492753893136978e-02 5.0259065628051758e-01</leafValues></_>
        <_>
          <internalNodes>
            0 -1 306 4.6490691602230072e-04</internalNodes>
          <leafValues>
            -2.2387029230594635e-01 2.5648882985115051e-01</leafValues></_>
        <_>
          <internalNodes>
            0 -1 407 4.1744131594896317e-02</internalNodes>
          <leafValues>
            -1.7746567726135254e-01 3.1498354673385620e-01</leafValues></_>
        <_>
          <internalNodes>
            0 -1 99 2.5957310572266579e-03</internalNodes>
          <leafValues>
            -5.1278162002563477e-01 8.1361338496208191e-02</leafValues></_>
        <_>
          <internalNodes>
            0 -1 454 -4.8700963816372678e-05</internalNodes>
          <leafValues>
            -3.0413627624511719e-01 1.6252025961875916e-01</leafValues></_>
        <_>
          <internalNodes>
            0 -1 472 5.5411766516044736e-04</internalNodes>
          <leafValues>
            -1.3431024551391602e-01 3.6521482467651367e-01</leafValues></_>
        <_>
          <internalNodes>
            0 -1 318 5.4880306124687195e-03</internalNodes>
          <leafValues>
            6.6241912543773651e-02 -7.0434272289276123e-01</leafValues></_>
        <_>
          <internalNodes>
            0 -1 206 -1.4583126176148653e-03</internalNodes>
          <leafValues>
            3.0882811546325684e-01 -1.5440291166305542e-01</leafValues></_>
        <_>
          <internalNodes>
            0 -1 41 -3.7462762556970119e-03</internalNodes>
          <leafValues>
            2.2616514563560486e-01 -2.1026036143302917e-01</leafValues></_>
        <_>
          <internalNodes>
            0 -1 403 -3.1429313821718097e-05</internalNodes>
          <leafValues>
            -2.5451689958572388e-01 1.9239632785320282e-01</leafValues></_>
        <_>
          <internalNodes>
            0 -1 461 -3.7610341678373516e-05</internalNodes>
          <leafValues>
            -2.8565600514411926e-01 1.9173242151737213e-01</leafValues></_>
        <_>
          <internalNodes>
            0 -1 155 2.6065605925396085e-04</internalNodes>
          <leafValues>
            -1.1816319078207016e-01 5.0363373756408691e-01</leafValues></_>
        <_>
          <internalNodes>
            0 -1 37 1.6959210857748985e-02</internalNodes>
          <leafValues>
            1.6565003991127014e-01 -3.4714716672897339e-01</leafValues></_>
        <_>
          <internalNodes>
            0 -1 39 2.1671241521835327e-01</internalNodes>
          <leafValues>
            -1.5766604244709015e-01 3.8033723831176758e-01</leafValues></_>
        <_>
          <internalNodes>
            0 -1 95 -4.2735532042570412e-04</internalNodes>
          <leafValues>
            5.0210887193679810e-01 -9.4351164996623993e-02</leafValues></_>
        <_>
          <internalNodes>
            0 -1 357 -1.8158372768084519e-05</internalNodes>
          <leafValues>
            -3.4250572323799133e-01 1.6047766804695129e-01</leafValues></_>
        <_>
          <internalNodes>
            0 -1 223 1.4297531452029943e-03</internalNodes>
          <leafValues>
            -1.3691624999046326e-01 3.6520683765411377e-01</leafValues></_>
        <_>
          <internalNodes>
            0 -1 73 8.7202740833163261e-03</internalNodes>
          <leafValues>
            -2.5191783905029297e-01 2.0008155703544617e-01</leafValues></_>
        <_>
          <internalNodes>
            0 -1 402 2.5725790692376904e-05</internalNodes>
          <leafValues>
            2.3628027737140656e-01 -2.1817238628864288e-01</leafValues></_>
        <_>
          <internalNodes>
            0 -1 351 1.7951137851923704e-03</internalNodes>
          <leafValues>
            -3.5820221900939941e-01 1.5315529704093933e-01</leafValues></_>
        <_>
          <internalNodes>
            0 -1 190 2.4697853950783610e-04</internalNodes>
          <leafValues>
            -1.8675905466079712e-01 2.8476306796073914e-01</leafValues></_>
        <_>
          <internalNodes>
            0 -1 258 2.5916109734680504e-05</internalNodes>
          <leafValues>
            2.2872571647167206e-01 -2.1793286502361298e-01</leafValues></_>
        <_>
          <internalNodes>
            0 -1 222 -8.1587792374193668e-04</internalNodes>
          <leafValues>
            5.4746603965759277e-01 -9.1836310923099518e-02</leafValues></_>
        <_>
          <internalNodes>
            0 -1 432 2.8506461530923843e-03</internalNodes>
          <leafValues>
            7.8017547726631165e-02 -8.5331898927688599e-01</leafValues></_>
        <_>
          <internalNodes>
            0 -1 17 6.0966718010604382e-03</internalNodes>
          <leafValues>
            -1.2247978150844574e-01 4.4787403941154480e-01</leafValues></_>
        <_>
          <internalNodes>
            0 -1 63 1.7789330740924925e-04</internalNodes>
          <leafValues>
            1.2492510676383972e-01 -4.1689157485961914e-01</leafValues></_>
        <_>
          <internalNodes>
            0 -1 25 -7.3049655184149742e-03</internalNodes>
          <leafValues>
            -5.3044480085372925e-01 7.9768732190132141e-02</leafValues></_>
        <_>
          <internalNodes>
            0 -1 480 1.5807267045602202e-03</internalNodes>
          <leafValues>
            9.3453191220760345e-02 -5.0260847806930542e-01</leafValues></_></weakClassifiers></_>
    <!-- stage 19 -->
    <_>
      <maxWeakCount>34</maxWeakCount>
      <stageThreshold>-7.9330182075500488e-01</stageThreshold>
      <weakClassifiers>
        <_>
          <internalNodes>
            0 -1 153 7.5958020985126495e-02</internalNodes>
          <leafValues>
            3.4896942973136902e-01 -4.7150260210037231e-01</leafValues></_>
        <_>
          <internalNodes>
            0 -1 74 -2.0999506115913391e-01</internalNodes>
          <leafValues>
            2.8471165895462036e-01 -2.2272115945816040e-01</leafValues></_>
        <_>
          <internalNodes>
            0 -1 213 4.4355839490890503e-02</internalNodes>
          <leafValues>
            -2.9220297932624817e-01 2.4444977939128876e-01</leafValues></_>
        <_>
          <internalNodes>
            0 -1 467 -1.9770472135860473e-05</internalNodes>
          <leafValues>
            -2.7094471454620361e-01 1.7193058133125305e-01</leafValues></_>
        <_>
          <internalNodes>
            0 -1 130 7.0332246832549572e-04</internalNodes>
          <leafValues>
            -5.0810229778289795e-01 9.0784452855587006e-02</leafValues></_>
        <_>
          <internalNodes>
            0 -1 65 6.9415387697517872e-03</internalNodes>
          <leafValues>
            -1.2433307617902756e-01 3.5169443488121033e-01</leafValues></_>
        <_>
          <internalNodes>
            0 -1 67 -1.0348513751523569e-04</internalNodes>
          <leafValues>
            2.5677260756492615e-01 -1.9401502609252930e-01</leafValues></_>
        <_>
          <internalNodes>
            0 -1 505 6.5966518595814705e-03</internalNodes>
          <leafValues>
            1.0090819746255875e-01 -4.9923658370971680e-01</leafValues></_>
        <_>
          <internalNodes>
            0 -1 303 -6.8486975505948067e-03</internalNodes>
          <leafValues>
            2.6347458362579346e-01 -1.6592030227184296e-01</leafValues></_>
        <_>
          <internalNodes>
            0 -1 365 8.7803544010967016e-04</internalNodes>
          <leafValues>
            -1.6310264170169830e-01 2.5420948863029480e-01</leafValues></_>
        <_>
          <internalNodes>
            0 -1 499 -1.2542778858914971e-04</internalNodes>
          <leafValues>
            -2.5725612044334412e-01 1.7142522335052490e-01</leafValues></_>
        <_>
          <internalNodes>
            0 -1 38 1.0212786495685577e-02</internalNodes>
          <leafValues>
            -3.1689184904098511e-01 1.3029263913631439e-01</leafValues></_>
        <_>
          <internalNodes>
            0 -1 43 2.8996174223721027e-03</internalNodes>
          <leafValues>
            1.3734823465347290e-01 -3.7525454163551331e-01</leafValues></_>
        <_>
          <internalNodes>
            0 -1 285 -1.9795916159637272e-04</internalNodes>
          <leafValues>
            3.1070756912231445e-01 -1.4880567789077759e-01</leafValues></_>
        <_>
          <internalNodes>
            0 -1 167 -1.9728373736143112e-02</internalNodes>
          <leafValues>
            4.8090896010398865e-01 -9.4049938023090363e-02</leafValues></_>
        <_>
          <internalNodes>
            0 -1 376 -1.6305850294884294e-05</internalNodes>
          <leafValues>
            -2.1914549171924591e-01 2.3628886044025421e-01</leafValues></_>
        <_>
          <internalNodes>
            0 -1 385 2.3993651848286390e-03</internalNodes>
          <leafValues>
            7.8618690371513367e-02 -5.0183326005935669e-01</leafValues></_>
        <_>
          <internalNodes>
            0 -1 408 -8.6868519429117441e-04</internalNodes>
          <leafValues>
            3.2670518755912781e-01 -1.5876205265522003e-01</leafValues></_>
        <_>
          <internalNodes>
            0 -1 142 1.9747097394429147e-04</internalNodes>
          <leafValues>
            -8.8972769677639008e-02 4.1142708063125610e-01</leafValues></_>
        <_>
          <internalNodes>
            0 -1 262 -9.9130757153034210e-03</internalNodes>
          <leafValues>
            -6.9636642932891846e-01 6.6334642469882965e-02</leafValues></_>
        <_>
          <internalNodes>
            0 -1 465 -4.3474974518176168e-05</internalNodes>
          <leafValues>
            -2.2600235044956207e-01 1.8651455640792847e-01</leafValues></_>
        <_>
          <internalNodes>
            0 -1 286 9.0506382548483089e-06</internalNodes>
          <leafValues>
            -2.3199640214443207e-01 1.6775111854076385e-01</leafValues></_>
        <_>
          <internalNodes>
            0 -1 225 -9.9771335953846574e-05</internalNodes>
          <leafValues>
            -2.6625993847846985e-01 1.6517126560211182e-01</leafValues></_>
        <_>
          <internalNodes>
            0 -1 355 6.6508521558716893e-04</internalNodes>
          <leafValues>
            -2.1225744485855103e-01 1.8901059031486511e-01</leafValues></_>
        <_>
          <internalNodes>
            0 -1 312 6.4223492518067360e-04</internalNodes>
          <leafValues>
            -1.8984769284725189e-01 2.3534207046031952e-01</leafValues></_>
        <_>
          <internalNodes>
            0 -1 219 1.7446909099817276e-02</internalNodes>
          <leafValues>
            9.4707198441028595e-02 -5.5338668823242188e-01</leafValues></_>
        <_>
          <internalNodes>
            0 -1 136 -1.7180922441184521e-03</internalNodes>
          <leafValues>
            3.1264051795005798e-01 -1.4679883420467377e-01</leafValues></_>
        <_>
          <internalNodes>
            0 -1 157 4.3547220411710441e-04</internalNodes>
          <leafValues>
            -1.1753160506486893e-01 3.8663336634635925e-01</leafValues></_>
        <_>
          <internalNodes>
            0 -1 482 2.0267236322979443e-05</internalNodes>
          <leafValues>
            -1.5039269626140594e-01 3.0823335051536560e-01</leafValues></_>
        <_>
          <internalNodes>
            0 -1 149 1.3698680326342583e-02</internalNodes>
          <leafValues>
            -7.0320509374141693e-02 6.1865884065628052e-01</leafValues></_>
        <_>
          <internalNodes>
            0 -1 370 3.3213179558515549e-03</internalNodes>
          <leafValues>
            7.4690088629722595e-02 -6.8085145950317383e-01</leafValues></_>
        <_>
          <internalNodes>
            0 -1 193 2.5081675266847014e-04</internalNodes>
          <leafValues>
            -2.0761552453041077e-01 2.4141676723957062e-01</leafValues></_>
        <_>
          <internalNodes>
            0 -1 160 9.3570612370967865e-03</internalNodes>
          <leafValues>
            9.3405045568943024e-02 -5.0606709718704224e-01</leafValues></_>
        <_>
          <internalNodes>
            0 -1 16 -7.5095368083566427e-04</internalNodes>
          <leafValues>
            -4.1415295004844666e-01 1.1397447437047958e-01</leafValues></_></weakClassifiers></_>
    <!-- stage 20 -->
    <_>
      <maxWeakCount>37</maxWeakCount>
      <stageThreshold>-8.1152641773223877e-01</stageThreshold>
      <weakClassifiers>
        <_>
          <internalNodes>
            0 -1 49 -7.0213936269283295e-03</internalNodes>
          <leafValues>
            4.3263757228851318e-01 -1.0256410390138626e-01</leafValues></_>
        <_>
          <internalNodes>
            0 -1 410 4.0744664147496223e-04</internalNodes>
          <leafValues>
            -1.9935618340969086e-01 2.4449147284030914e-01</leafValues></_>
        <_>
          <internalNodes>
            0 -1 135 -2.4399457033723593e-03</internalNodes>
          <leafValues>
            2.1030341088771820e-01 -2.1308183670043945e-01</leafValues></_>
        <_>
          <internalNodes>
            0 -1 159 6.9388007977977395e-04</internalNodes>
          <leafValues>
            -1.9201944768428802e-01 2.4521063268184662e-01</leafValues></_>
        <_>
          <internalNodes>
            0 -1 138 1.6671249177306890e-03</internalNodes>
          <leafValues>
            -1.8066745996475220e-01 2.9339653253555298e-01</leafValues></_>
        <_>
          <internalNodes>
            0 -1 441 -1.8104035407304764e-03</internalNodes>
          <leafValues>
            1.9700668752193451e-01 -2.7993574738502502e-01</leafValues></_>
        <_>
          <internalNodes>
            0 -1 199 1.7331850528717041e-01</internalNodes>
          <leafValues>
            -1.4311572909355164e-01 3.3287823200225830e-01</leafValues></_>
        <_>
          <internalNodes>
            0 -1 449 -3.7545116356341168e-05</internalNodes>
          <leafValues>
            -2.4011221528053284e-01 1.9922892749309540e-01</leafValues></_>
        <_>
          <internalNodes>
            0 -1 401 2.5797722628340125e-05</internalNodes>
          <leafValues>
            1.5289656817913055e-01 -2.8993123769760132e-01</leafValues></_>
        <_>
          <internalNodes>
            0 -1 507 3.2314010895788670e-03</internalNodes>
          <leafValues>
            1.4052148163318634e-01 -3.7772211432456970e-01</leafValues></_>
        <_>
          <internalNodes>
            0 -1 221 7.2623118758201599e-03</internalNodes>
          <leafValues>
            7.9287685453891754e-02 -5.1487553119659424e-01</leafValues></_>
        <_>
          <internalNodes>
            0 -1 299 -1.4500163961201906e-03</internalNodes>
          <leafValues>
            5.4731851816177368e-01 -8.1740982830524445e-02</leafValues></_>
        <_>
          <internalNodes>
            0 -1 424 2.8669736348092556e-03</internalNodes>
          <leafValues>
            -7.8907601535320282e-02 5.6206494569778442e-01</leafValues></_>
        <_>
          <internalNodes>
            0 -1 141 -8.0592166632413864e-03</internalNodes>
          <leafValues>
            3.5658007860183716e-01 -1.3108718395233154e-01</leafValues></_>
        <_>
          <internalNodes>
            0 -1 384 -8.3556631579995155e-05</internalNodes>
          <leafValues>
            2.7505010366439819e-01 -1.6796255111694336e-01</leafValues></_>
        <_>
          <internalNodes>
            0 -1 418 7.7549257184728049e-06</internalNodes>
          <leafValues>
            -2.3780559003353119e-01 1.8266196548938751e-01</leafValues></_>
        <_>
          <internalNodes>
            0 -1 462 -2.1195406588958576e-05</internalNodes>
          <leafValues>
            -2.9688975214958191e-01 1.6857388615608215e-01</leafValues></_>
        <_>
          <internalNodes>
            0 -1 140 -2.4537625722587109e-04</internalNodes>
          <leafValues>
            2.4572527408599854e-01 -1.8272060155868530e-01</leafValues></_>
        <_>
          <internalNodes>
            0 -1 161 2.3487347061745822e-04</internalNodes>
          <leafValues>
            -8.7503723800182343e-02 4.3756359815597534e-01</leafValues></_>
        <_>
          <internalNodes>
            0 -1 389 3.5013961605727673e-03</internalNodes>
          <leafValues>
            7.2665184736251831e-02 -6.6872763633728027e-01</leafValues></_>
        <_>
          <internalNodes>
            0 -1 496 1.5100672841072083e-02</internalNodes>
          <leafValues>
            -8.8199362158775330e-02 5.7313233613967896e-01</leafValues></_>
        <_>
          <internalNodes>
            0 -1 224 1.0052853031083941e-03</internalNodes>
          <leafValues>
            -2.1779313683509827e-01 2.0738033950328827e-01</leafValues></_>
        <_>
          <internalNodes>
            0 -1 259 5.1256353035569191e-03</internalNodes>
          <leafValues>
            5.7154495269060135e-02 -7.9322332143783569e-01</leafValues></_>
        <_>
          <internalNodes>
            0 -1 133 -4.5307911932468414e-04</internalNodes>
          <leafValues>
            2.9807808995246887e-01 -1.5757784247398376e-01</leafValues></_>
        <_>
          <internalNodes>
            0 -1 164 -9.0356208384037018e-03</internalNodes>
          <leafValues>
            -8.2343178987503052e-01 7.5354442000389099e-02</leafValues></_>
        <_>
          <internalNodes>
            0 -1 330 -7.5628551712725312e-05</internalNodes>
          <leafValues>
            -3.3276566863059998e-01 1.3205246627330780e-01</leafValues></_>
        <_>
          <internalNodes>
            0 -1 468 5.8285740669816732e-04</internalNodes>
          <leafValues>
            -1.8813803791999817e-01 2.2601808607578278e-01</leafValues></_>
        <_>
          <internalNodes>
            0 -1 208 1.7036619829013944e-04</internalNodes>
          <leafValues>
            -2.4540802836418152e-01 1.8136297166347504e-01</leafValues></_>
        <_>
          <internalNodes>
            0 -1 335 -2.8187746647745371e-04</internalNodes>
          <leafValues>
            3.2140299677848816e-01 -1.4359854161739349e-01</leafValues></_>
        <_>
          <internalNodes>
            0 -1 281 1.6000277537386864e-04</internalNodes>
          <leafValues>
            -2.1124078333377838e-01 2.1964292228221893e-01</leafValues></_>
        <_>
          <internalNodes>
            0 -1 426 1.4886625111103058e-02</internalNodes>
          <leafValues>
            1.1343716830015182e-01 -4.0656352043151855e-01</leafValues></_>
        <_>
          <internalNodes>
            0 -1 310 -2.1960716694593430e-03</internalNodes>
          <leafValues>
            4.2050248384475708e-01 -1.1720813065767288e-01</leafValues></_>
        <_>
          <internalNodes>
            0 -1 475 -1.5115150745259598e-05</internalNodes>
          <leafValues>
            -2.5738871097564697e-01 1.8512690067291260e-01</leafValues></_>
        <_>
          <internalNodes>
            0 -1 209 4.2210111860185862e-04</internalNodes>
          <leafValues>
            -1.5876702964305878e-01 2.8517618775367737e-01</leafValues></_>
        <_>
          <internalNodes>
            0 -1 290 -1.0537213645875454e-02</internalNodes>
          <leafValues>
            -2.3014669120311737e-01 1.9571189582347870e-01</leafValues></_>
        <_>
          <internalNodes>
            0 -1 346 6.3003011746332049e-05</internalNodes>
          <leafValues>
            1.9467373192310333e-01 -2.3491992056369781e-01</leafValues></_>
        <_>
          <internalNodes>
            0 -1 108 7.1104371454566717e-04</internalNodes>
          <leafValues>
            -1.4890398085117340e-01 2.9133927822113037e-01</leafValues></_></weakClassifiers></_>
    <!-- stage 21 -->
    <_>
      <maxWeakCount>34</maxWeakCount>
      <stageThreshold>-6.8978250026702881e-01</stageThreshold>
      <weakClassifiers>
        <_>
          <internalNodes>
            0 -1 88 -5.7438677176833153e-03</internalNodes>
          <leafValues>
            3.7592136859893799e-01 -1.5567281842231750e-01</leafValues></_>
        <_>
          <internalNodes>
            0 -1 406 2.7054082602262497e-02</internalNodes>
          <leafValues>
            -1.9489531219005585e-01 2.5983968377113342e-01</leafValues></_>
        <_>
          <internalNodes>
            0 -1 450 -2.7579502784647048e-05</internalNodes>
          <leafValues>
            -2.3935468494892120e-01 1.8736946582794189e-01</leafValues></_>
        <_>
          <internalNodes>
            0 -1 277 -1.3090666383504868e-02</internalNodes>
          <leafValues>
            -7.2838681936264038e-01 5.7441581040620804e-02</leafValues></_>
        <_>
          <internalNodes>
            0 -1 105 2.9591872589662671e-04</internalNodes>
          <leafValues>
            -1.4083237946033478e-01 3.0106380581855774e-01</leafValues></_>
        <_>
          <internalNodes>
            0 -1 40 2.5904065370559692e-01</internalNodes>
          <leafValues>
            -9.7818426787853241e-02 4.9991583824157715e-01</leafValues></_>
        <_>
          <internalNodes>
            0 -1 438 -2.5471992557868361e-05</internalNodes>
          <leafValues>
            -2.6796272397041321e-01 1.5960130095481873e-01</leafValues></_>
        <_>
          <internalNodes>
            0 -1 379 2.6274489937350154e-04</internalNodes>
          <leafValues>
            -2.1331962943077087e-01 2.0624104142189026e-01</leafValues></_>
        <_>
          <internalNodes>
            0 -1 393 1.4367578551173210e-03</internalNodes>
          <leafValues>
            -2.4277637898921967e-01 1.7598688602447510e-01</leafValues></_>
        <_>
          <internalNodes>
            0 -1 437 -1.7158705304609612e-05</internalNodes>
          <leafValues>
            -2.7145811915397644e-01 1.6462574899196625e-01</leafValues></_>
        <_>
          <internalNodes>
            0 -1 396 -1.1086875747423619e-04</internalNodes>
          <leafValues>
            2.4460063874721527e-01 -1.7341341078281403e-01</leafValues></_>
        <_>
          <internalNodes>
            0 -1 358 -6.4189285039901733e-03</internalNodes>
          <leafValues>
            -4.9737483263015747e-01 8.7899893522262573e-02</leafValues></_>
        <_>
          <internalNodes>
            0 -1 131 -4.0696598589420319e-03</internalNodes>
          <leafValues>
            -6.7425769567489624e-01 6.6225036978721619e-02</leafValues></_>
        <_>
          <internalNodes>
            0 -1 48 2.0522740483283997e-01</internalNodes>
          <leafValues>
            8.5273914039134979e-02 -4.4415357708930969e-01</leafValues></_>
        <_>
          <internalNodes>
            0 -1 8 -7.7791005373001099e-02</internalNodes>
          <leafValues>
            -4.0128424763679504e-01 1.0828180611133575e-01</leafValues></_>
        <_>
          <internalNodes>
            0 -1 228 1.2646045535802841e-02</internalNodes>
          <leafValues>
            5.8897480368614197e-02 -7.3700791597366333e-01</leafValues></_>
        <_>
          <internalNodes>
            0 -1 323 -5.3278479754226282e-05</internalNodes>
          <leafValues>
            -2.5088647007942200e-01 1.6381500661373138e-01</leafValues></_>
        <_>
          <internalNodes>
            0 -1 127 -1.1466695286799222e-04</internalNodes>
          <leafValues>
            3.5169667005538940e-01 -1.1709691584110260e-01</leafValues></_>
        <_>
          <internalNodes>
            0 -1 313 1.4996070603956468e-05</internalNodes>
          <leafValues>
            1.4977662265300751e-01 -2.9278400540351868e-01</leafValues></_>
        <_>
          <internalNodes>
            0 -1 329 3.2814726000651717e-04</internalNodes>
          <leafValues>
            -1.6737610101699829e-01 2.7351248264312744e-01</leafValues></_>
        <_>
          <internalNodes>
            0 -1 327 -3.8768127560615540e-03</internalNodes>
          <leafValues>
            -4.7841683030128479e-01 1.0447423905134201e-01</leafValues></_>
        <_>
          <internalNodes>
            0 -1 280 -1.6819703159853816e-04</internalNodes>
          <leafValues>
            3.8792443275451660e-01 -1.2461811304092407e-01</leafValues></_>
        <_>
          <internalNodes>
            0 -1 15 2.3717840667814016e-04</internalNodes>
          <leafValues>
            9.0377077460289001e-02 -5.2518522739410400e-01</leafValues></_>
        <_>
          <internalNodes>
            0 -1 84 4.9872912466526031e-02</internalNodes>
          <leafValues>
            2.3877653479576111e-01 -2.1248131990432739e-01</leafValues></_>
        <_>
          <internalNodes>
            0 -1 1 2.0199667662382126e-02</internalNodes>
          <leafValues>
            6.8134620785713196e-02 -6.4025080204010010e-01</leafValues></_>
        <_>
          <internalNodes>
            0 -1 218 1.2341382680460811e-03</internalNodes>
          <leafValues>
            -1.1709994077682495e-01 3.7571629881858826e-01</leafValues></_>
        <_>
          <internalNodes>
            0 -1 129 2.7006198652088642e-03</internalNodes>
          <leafValues>
            -2.8947055339813232e-01 1.4406871795654297e-01</leafValues></_>
        <_>
          <internalNodes>
            0 -1 304 1.3427577912807465e-02</internalNodes>
          <leafValues>
            8.3995461463928223e-02 -5.0396919250488281e-01</leafValues></_>
        <_>
          <internalNodes>
            0 -1 361 3.2713651657104492e-02</internalNodes>
          <leafValues>
            3.8043372333049774e-02 -9.0286630392074585e-01</leafValues></_>
        <_>
          <internalNodes>
            0 -1 476 7.8532518818974495e-04</internalNodes>
          <leafValues>
            1.0835088044404984e-01 -3.9382877945899963e-01</leafValues></_>
        <_>
          <internalNodes>
            0 -1 479 -1.9994057947769761e-04</internalNodes>
          <leafValues>
            -3.5961094498634338e-01 1.2532775104045868e-01</leafValues></_>
        <_>
          <internalNodes>
            0 -1 316 -6.6636467818170786e-04</internalNodes>
          <leafValues>
            3.3649456501007080e-01 -1.2758201360702515e-01</leafValues></_>
        <_>
          <internalNodes>
            0 -1 460 1.6910100821405649e-03</internalNodes>
          <leafValues>
            -1.1765664070844650e-01 3.4995695948600769e-01</leafValues></_>
        <_>
          <internalNodes>
            0 -1 293 -8.8557470589876175e-03</internalNodes>
          <leafValues>
            -6.7397946119308472e-01 7.6908484101295471e-02</leafValues></_></weakClassifiers></_>
    <!-- stage 22 -->
    <_>
      <maxWeakCount>37</maxWeakCount>
      <stageThreshold>-7.4061745405197144e-01</stageThreshold>
      <weakClassifiers>
        <_>
          <internalNodes>
            0 -1 290 -7.6994001865386963e-03</internalNodes>
          <leafValues>
            1.9607843831181526e-02 4.8979592323303223e-01</leafValues></_>
        <_>
          <internalNodes>
            0 -1 2 2.2236857563257217e-02</internalNodes>
          <leafValues>
            -1.5050165355205536e-01 3.3326172828674316e-01</leafValues></_>
        <_>
          <internalNodes>
            0 -1 77 6.1760224401950836e-02</internalNodes>
          <leafValues>
            -1.2807108461856842e-01 3.2079079747200012e-01</leafValues></_>
        <_>
          <internalNodes>
            0 -1 442 -2.7033089281758294e-05</internalNodes>
          <leafValues>
            -2.5045162439346313e-01 1.6784001886844635e-01</leafValues></_>
        <_>
          <internalNodes>
            0 -1 292 -1.7167038749903440e-03</internalNodes>
          <leafValues>
            4.3641269207000732e-01 -9.7848296165466309e-02</leafValues></_>
        <_>
          <internalNodes>
            0 -1 175 -7.4978463817387819e-04</internalNodes>
          <leafValues>
            3.3300507068634033e-01 -1.5512363612651825e-01</leafValues></_>
        <_>
          <internalNodes>
            0 -1 137 -9.4679566100239754e-03</internalNodes>
          <leafValues>
            4.8240196704864502e-01 -9.1381929814815521e-02</leafValues></_>
        <_>
          <internalNodes>
            0 -1 287 4.8738693294581026e-05</internalNodes>
          <leafValues>
            1.9011725485324860e-01 -2.3746183514595032e-01</leafValues></_>
        <_>
          <internalNodes>
            0 -1 264 -6.5537919290363789e-03</internalNodes>
          <leafValues>
            3.6913859844207764e-01 -1.2007460743188858e-01</leafValues></_>
        <_>
          <internalNodes>
            0 -1 236 5.8272592723369598e-03</internalNodes>
          <leafValues>
            9.8530083894729614e-02 -5.3146952390670776e-01</leafValues></_>
        <_>
          <internalNodes>
            0 -1 349 2.0042585674673319e-05</internalNodes>
          <leafValues>
            1.3232806324958801e-01 -3.2202506065368652e-01</leafValues></_>
        <_>
          <internalNodes>
            0 -1 118 9.9528557620942593e-04</internalNodes>
          <leafValues>
            -1.4028991758823395e-01 3.3963200449943542e-01</leafValues></_>
        <_>
          <internalNodes>
            0 -1 53 -2.0817324519157410e-02</internalNodes>
          <leafValues>
            4.0599989891052246e-01 -1.0150472074747086e-01</leafValues></_>
        <_>
          <internalNodes>
            0 -1 452 -2.4704371753614396e-05</internalNodes>
          <leafValues>
            -2.6410663127899170e-01 1.6792050004005432e-01</leafValues></_>
        <_>
          <internalNodes>
            0 -1 360 3.3588908612728119e-02</internalNodes>
          <leafValues>
            -1.9469806551933289e-01 2.3586615920066833e-01</leafValues></_>
        <_>
          <internalNodes>
            0 -1 75 -6.5570689912419766e-05</internalNodes>
          <leafValues>
            2.9781940579414368e-01 -1.5822289884090424e-01</leafValues></_>
        <_>
          <internalNodes>
            0 -1 265 2.3811336723156273e-04</internalNodes>
          <leafValues>
            -1.6837584972381592e-01 2.6016479730606079e-01</leafValues></_>
        <_>
          <internalNodes>
            0 -1 422 -1.8360962858423591e-03</internalNodes>
          <leafValues>
            4.1765013337135315e-01 -1.1481842398643494e-01</leafValues></_>
        <_>
          <internalNodes>
            0 -1 431 3.3636292209848762e-04</internalNodes>
          <leafValues>
            -1.2820266187191010e-01 3.5826903581619263e-01</leafValues></_>
        <_>
          <internalNodes>
            0 -1 509 -4.0673748590052128e-03</internalNodes>
          <leafValues>
            -3.9022424817085266e-01 1.1750894039869308e-01</leafValues></_>
        <_>
          <internalNodes>
            0 -1 79 -1.4735822333022952e-03</internalNodes>
          <leafValues>
            2.3679834604263306e-01 -1.8224260210990906e-01</leafValues></_>
        <_>
          <internalNodes>
            0 -1 399 -4.3532738345675170e-05</internalNodes>
          <leafValues>
            -2.8031784296035767e-01 1.8042814731597900e-01</leafValues></_>
        <_>
          <internalNodes>
            0 -1 392 4.2501055759203155e-06</internalNodes>
          <leafValues>
            -2.4866761267185211e-01 1.7399987578392029e-01</leafValues></_>
        <_>
          <internalNodes>
            0 -1 494 -9.1043645516037941e-03</internalNodes>
          <leafValues>
            6.3033729791641235e-01 -7.2985120117664337e-02</leafValues></_>
        <_>
          <internalNodes>
            0 -1 260 -5.7457960210740566e-03</internalNodes>
          <leafValues>
            -7.5765037536621094e-01 6.8507321178913116e-02</leafValues></_>
        <_>
          <internalNodes>
            0 -1 81 -9.6941683441400528e-03</internalNodes>
          <leafValues>
            -5.4159200191497803e-01 6.9594517350196838e-02</leafValues></_>
        <_>
          <internalNodes>
            0 -1 261 5.0902820657938719e-04</internalNodes>
          <leafValues>
            -9.9193312227725983e-02 4.8460507392883301e-01</leafValues></_>
        <_>
          <internalNodes>
            0 -1 489 -7.6862017158418894e-04</internalNodes>
          <leafValues>
            -5.0846117734909058e-01 9.4817772507667542e-02</leafValues></_>
        <_>
          <internalNodes>
            0 -1 93 -8.7185129523277283e-02</internalNodes>
          <leafValues>
            5.1058936119079590e-01 -8.8447265326976776e-02</leafValues></_>
        <_>
          <internalNodes>
            0 -1 439 -3.0359993616002612e-05</internalNodes>
          <leafValues>
            -2.2513042390346527e-01 2.0256675779819489e-01</leafValues></_>
        <_>
          <internalNodes>
            0 -1 43 4.7528021968901157e-03</internalNodes>
          <leafValues>
            1.0011827200651169e-01 -4.7305771708488464e-01</leafValues></_>
        <_>
          <internalNodes>
            0 -1 413 3.7883571349084377e-04</internalNodes>
          <leafValues>
            -1.3130739331245422e-01 3.5642811655998230e-01</leafValues></_>
        <_>
          <internalNodes>
            0 -1 235 -6.1465383623726666e-05</internalNodes>
