<?xml version="1.0"?>
<opencv_storage>
<cascade>
  <stageType>BOOST</stageType>
  <featureType>HAAR</featureType>
  <height>30</height>
  <width>48</width>
  <stageParams>
    <boostType>GAB</boostType>
    <minHitRate>9.9500000476837158e-01</minHitRate>
    <maxFalseAlarm>5.0000000000000000e-01</maxFalseAlarm>
    <weightTrimRate>9.4999999999999996e-01</weightTrimRate>
    <maxDepth>1</maxDepth>
    <maxWeakCount>100</maxWeakCount></stageParams>
  <featureParams>
    <maxCatCount>0</maxCatCount>
    <featSize>1</featSize>
    <mode>BASIC</mode></featureParams>
  <stageNum>20</stageNum>
  <stages>
    <!-- stage 0 -->
    <_>
      <maxWeakCount>4</maxWeakCount>
      <stageThreshold>-1.1464673280715942e+00</stageThreshold>
      <weakClassifiers>
        <_>
          <internalNodes>
            0 -1 137 -2.0028613507747650e-02</internalNodes>
          <leafValues>
            9.5296752452850342e-01 -6.3790667057037354e-01</leafValues></_>
        <_>
          <internalNodes>
            0 -1 43 -2.1729566156864166e-02</internalNodes>
          <leafValues>
            8.5311466455459595e-01 -6.4842247962951660e-01</leafValues></_>
        <_>
          <internalNodes>
            0 -1 40 4.2257914319634438e-03</internalNodes>
          <leafValues>
            -4.3545138835906982e-01 9.1709846258163452e-01</leafValues></_>
        <_>
          <internalNodes>
            0 -1 65 -8.5592940449714661e-02</internalNodes>
          <leafValues>
            -8.9445173740386963e-01 5.7531327009201050e-01</leafValues></_></weakClassifiers></_>
    <!-- stage 1 -->
    <_>
      <maxWeakCount>4</maxWeakCount>
      <stageThreshold>-1.3627940416336060e+00</stageThreshold>
      <weakClassifiers>
        <_>
          <internalNodes>
            0 -1 7 2.4375777691602707e-02</internalNodes>
          <leafValues>
            -6.7987322807312012e-01 8.5552114248275757e-01</leafValues></_>
        <_>
          <internalNodes>
            0 -1 61 4.5794374309480190e-03</internalNodes>
          <leafValues>
            -5.7994091510772705e-01 8.6084288358688354e-01</leafValues></_>
        <_>
          <internalNodes>
            0 -1 37 -2.0315824076533318e-03</internalNodes>
          <leafValues>
            7.5563657283782959e-01 -5.6319415569305420e-01</leafValues></_>
        <_>
          <internalNodes>
            0 -1 32 4.6356874518096447e-03</internalNodes>
          <leafValues>
            -9.8541206121444702e-01 4.6021422743797302e-01</leafValues></_></weakClassifiers></_>
    <!-- stage 2 -->
    <_>
      <maxWeakCount>4</maxWeakCount>
      <stageThreshold>-1.0858778953552246e+00</stageThreshold>
      <weakClassifiers>
        <_>
          <internalNodes>
            0 -1 133 -2.2742439061403275e-02</internalNodes>
          <leafValues>
            8.6340469121932983e-01 -7.2213244438171387e-01</leafValues></_>
        <_>
          <internalNodes>
            0 -1 4 2.0051702857017517e-02</internalNodes>
          <leafValues>
            -5.0675535202026367e-01 8.5581219196319580e-01</leafValues></_>
        <_>
          <internalNodes>
            0 -1 45 -2.2297466173768044e-02</internalNodes>
          <leafValues>
            6.9359827041625977e-01 -6.1480820178985596e-01</leafValues></_>
        <_>
          <internalNodes>
            0 -1 20 3.5649607889354229e-03</internalNodes>
          <leafValues>
            -5.4183477163314819e-01 7.5781816244125366e-01</leafValues></_></weakClassifiers></_>
    <!-- stage 3 -->
    <_>
      <maxWeakCount>5</maxWeakCount>
      <stageThreshold>-6.9475644826889038e-01</stageThreshold>
      <weakClassifiers>
        <_>
          <internalNodes>
            0 -1 73 -1.7629228532314301e-02</internalNodes>
          <leafValues>
            8.6792451143264771e-01 -4.4680851697921753e-01</leafValues></_>
        <_>
          <internalNodes>
            0 -1 138 -1.9213346764445305e-02</internalNodes>
          <leafValues>
            6.6239750385284424e-01 -6.1427420377731323e-01</leafValues></_>
        <_>
          <internalNodes>
            0 -1 108 1.9582301320042461e-05</internalNodes>
          <leafValues>
            -7.9561501741409302e-01 4.6180662512779236e-01</leafValues></_>
        <_>
          <internalNodes>
            0 -1 94 4.8906090669333935e-03</internalNodes>
          <leafValues>
            -5.0778025388717651e-01 7.3732537031173706e-01</leafValues></_>
        <_>
          <internalNodes>
            0 -1 83 6.8673165515065193e-04</internalNodes>
          <leafValues>
            4.1229990124702454e-01 -9.4394344091415405e-01</leafValues></_></weakClassifiers></_>
    <!-- stage 4 -->
    <_>
      <maxWeakCount>6</maxWeakCount>
      <stageThreshold>-1.2056651115417480e+00</stageThreshold>
      <weakClassifiers>
        <_>
          <internalNodes>
            0 -1 23 -5.5499099195003510e-02</internalNodes>
          <leafValues>
            7.4642127752304077e-01 -5.3054660558700562e-01</leafValues></_>
        <_>
          <internalNodes>
            0 -1 126 -5.4501928389072418e-02</internalNodes>
          <leafValues>
            6.4102876186370850e-01 -5.7678413391113281e-01</leafValues></_>
        <_>
          <internalNodes>
            0 -1 27 4.4032596051692963e-03</internalNodes>
          <leafValues>
            -4.8662203550338745e-01 7.3300325870513916e-01</leafValues></_>
        <_>
          <internalNodes>
            0 -1 0 9.8027579486370087e-02</internalNodes>
          <leafValues>
            -4.3143710494041443e-01 6.2746113538742065e-01</leafValues></_>
        <_>
          <internalNodes>
            0 -1 24 9.9742691963911057e-04</internalNodes>
          <leafValues>
            -9.6752858161926270e-01 3.0437797307968140e-01</leafValues></_>
        <_>
          <internalNodes>
            0 -1 47 -3.3631632104516029e-03</internalNodes>
          <leafValues>
            5.1534682512283325e-01 -5.1855272054672241e-01</leafValues></_></weakClassifiers></_>
    <!-- stage 5 -->
    <_>
      <maxWeakCount>5</maxWeakCount>
      <stageThreshold>-6.0704600811004639e-01</stageThreshold>
      <weakClassifiers>
        <_>
          <internalNodes>
            0 -1 3 4.3833460658788681e-02</internalNodes>
          <leafValues>
            -4.7085201740264893e-01 7.6799142360687256e-01</leafValues></_>
        <_>
          <internalNodes>
            0 -1 68 2.9910005629062653e-02</internalNodes>
          <leafValues>
            -5.7340335845947266e-01 6.1612814664840698e-01</leafValues></_>
        <_>
          <internalNodes>
            0 -1 136 -3.7309408187866211e-02</internalNodes>
          <leafValues>
            6.7805230617523193e-01 -4.5964476466178894e-01</leafValues></_>
        <_>
          <internalNodes>
            0 -1 70 -4.0582837536931038e-03</internalNodes>
          <leafValues>
            5.9619110822677612e-01 -4.4977200031280518e-01</leafValues></_>
        <_>
          <internalNodes>
            0 -1 86 -1.3645071703649592e-05</internalNodes>
          <leafValues>
            -8.1786447763442993e-01 3.0066299438476562e-01</leafValues></_></weakClassifiers></_>
    <!-- stage 6 -->
    <_>
      <maxWeakCount>4</maxWeakCount>
      <stageThreshold>-3.6793932318687439e-01</stageThreshold>
      <weakClassifiers>
        <_>
          <internalNodes>
            0 -1 46 -1.4723995700478554e-03</internalNodes>
          <leafValues>
            6.1844485998153687e-01 -5.7489877939224243e-01</leafValues></_>
        <_>
          <internalNodes>
            0 -1 99 2.4789520539343357e-03</internalNodes>
          <leafValues>
            -7.4276340007781982e-01 4.4719615578651428e-01</leafValues></_>
        <_>
          <internalNodes>
            0 -1 5 3.7927210330963135e-02</internalNodes>
          <leafValues>
            -5.5917060375213623e-01 6.3793170452117920e-01</leafValues></_>
        <_>
          <internalNodes>
            0 -1 120 7.2026764973998070e-04</internalNodes>
          <leafValues>
            3.2887592911720276e-01 -8.8155245780944824e-01</leafValues></_></weakClassifiers></_>
    <!-- stage 7 -->
    <_>
      <maxWeakCount>6</maxWeakCount>
      <stageThreshold>-1.0479633808135986e+00</stageThreshold>
      <weakClassifiers>
        <_>
          <internalNodes>
            0 -1 66 -1.2185779633000493e-03</internalNodes>
          <leafValues>
            -8.7999999523162842e-01 5.1076924800872803e-01</leafValues></_>
        <_>
          <internalNodes>
            0 -1 39 2.0769457332789898e-03</internalNodes>
          <leafValues>
            -6.0660606622695923e-01 4.6337121725082397e-01</leafValues></_>
        <_>
          <internalNodes>
            0 -1 35 -8.3743736147880554e-02</internalNodes>
          <leafValues>
            5.8518600463867188e-01 -5.4862761497497559e-01</leafValues></_>
        <_>
          <internalNodes>
            0 -1 137 -2.6225246489048004e-02</internalNodes>
          <leafValues>
            4.9844163656234741e-01 -5.8908057212829590e-01</leafValues></_>
        <_>
          <internalNodes>
            0 -1 69 9.0614799410104752e-04</internalNodes>
          <leafValues>
            -3.6521244049072266e-01 6.6138511896133423e-01</leafValues></_>
        <_>
          <internalNodes>
            0 -1 30 2.0109764300286770e-03</internalNodes>
          <leafValues>
            -5.1918315887451172e-01 5.6891423463821411e-01</leafValues></_></weakClassifiers></_>
    <!-- stage 8 -->
    <_>
      <maxWeakCount>7</maxWeakCount>
      <stageThreshold>-1.0487985610961914e+00</stageThreshold>
      <weakClassifiers>
        <_>
          <internalNodes>
            0 -1 130 -8.8242411613464355e-02</internalNodes>
          <leafValues>
            6.1830574274063110e-01 -4.1012215614318848e-01</leafValues></_>
        <_>
          <internalNodes>
            0 -1 67 -5.4623764008283615e-03</internalNodes>
          <leafValues>
            4.0366032719612122e-01 -6.6612732410430908e-01</leafValues></_>
        <_>
          <internalNodes>
            0 -1 21 2.7092287782579660e-03</internalNodes>
          <leafValues>
            -3.5542434453964233e-01 6.8946009874343872e-01</leafValues></_>
        <_>
          <internalNodes>
            0 -1 93 4.8796449846122414e-05</internalNodes>
          <leafValues>
            3.0471506714820862e-01 -7.0663422346115112e-01</leafValues></_>
        <_>
          <internalNodes>
            0 -1 58 1.7468318343162537e-02</internalNodes>
          <leafValues>
            2.1118985116481781e-01 -9.6915870904922485e-01</leafValues></_>
        <_>
          <internalNodes>
            0 -1 6 2.5806326419115067e-02</internalNodes>
          <leafValues>
            -4.2922806739807129e-01 5.1476931571960449e-01</leafValues></_>
        <_>
          <internalNodes>
            0 -1 53 2.7461359277367592e-03</internalNodes>
          <leafValues>
            -7.6558268070220947e-01 2.9619845747947693e-01</leafValues></_></weakClassifiers></_>
    <!-- stage 9 -->
    <_>
      <maxWeakCount>5</maxWeakCount>
      <stageThreshold>-1.0085333585739136e+00</stageThreshold>
      <weakClassifiers>
        <_>
          <internalNodes>
            0 -1 50 2.8149187564849854e-02</internalNodes>
          <leafValues>
            5.1242238283157349e-01 -8.3333331346511841e-01</leafValues></_>
        <_>
          <internalNodes>
            0 -1 103 7.0074840914458036e-04</internalNodes>
          <leafValues>
            -6.2795782089233398e-01 4.1021636128425598e-01</leafValues></_>
        <_>
          <internalNodes>
            0 -1 11 3.0729998834431171e-03</internalNodes>
          <leafValues>
            -5.6414198875427246e-01 4.7389876842498779e-01</leafValues></_>
        <_>
          <internalNodes>
            0 -1 18 4.3240794911980629e-03</internalNodes>
          <leafValues>
            -5.3768175840377808e-01 4.4432500004768372e-01</leafValues></_>
        <_>
          <internalNodes>
            0 -1 34 3.3305138349533081e-03</internalNodes>
          <leafValues>
            -9.6078389883041382e-01 2.0882584154605865e-01</leafValues></_></weakClassifiers></_>
    <!-- stage 10 -->
    <_>
      <maxWeakCount>8</maxWeakCount>
      <stageThreshold>-1.4068553447723389e+00</stageThreshold>
      <weakClassifiers>
        <_>
          <internalNodes>
            0 -1 49 2.2808986250311136e-04</internalNodes>
          <leafValues>
            -7.0391058921813965e-01 5.2495974302291870e-01</leafValues></_>
        <_>
          <internalNodes>
            0 -1 12 -2.7511522639542818e-03</internalNodes>
          <leafValues>
            -5.5200815200805664e-01 4.9552679061889648e-01</leafValues></_>
        <_>
          <internalNodes>
            0 -1 38 -3.6607175134122372e-03</internalNodes>
          <leafValues>
            4.1392049193382263e-01 -5.6366235017776489e-01</leafValues></_>
        <_>
          <internalNodes>
            0 -1 140 -2.6402361690998077e-02</internalNodes>
          <leafValues>
            5.2413570880889893e-01 -4.7364491224288940e-01</leafValues></_>
        <_>
          <internalNodes>
            0 -1 84 8.3664205158129334e-04</internalNodes>
          <leafValues>
            -6.4919108152389526e-01 2.9044005274772644e-01</leafValues></_>
        <_>
          <internalNodes>
            0 -1 125 2.6573892682790756e-03</internalNodes>
          <leafValues>
            -2.6844000816345215e-01 7.5162756443023682e-01</leafValues></_>
        <_>
          <internalNodes>
            0 -1 109 7.8094759373925626e-05</internalNodes>
          <leafValues>
            2.8981998562812805e-01 -7.2002130746841431e-01</leafValues></_>
        <_>
          <internalNodes>
            0 -1 112 -3.2469593861605972e-05</internalNodes>
          <leafValues>
            -7.7298969030380249e-01 2.4761773645877838e-01</leafValues></_></weakClassifiers></_>
    <!-- stage 11 -->
    <_>
      <maxWeakCount>10</maxWeakCount>
      <stageThreshold>-1.0709083080291748e+00</stageThreshold>
      <weakClassifiers>
        <_>
          <internalNodes>
            0 -1 2 7.1407735347747803e-02</internalNodes>
          <leafValues>
            -4.7283703088760376e-01 5.7570260763168335e-01</leafValues></_>
        <_>
          <internalNodes>
            0 -1 64 2.1882150322198868e-02</internalNodes>
          <leafValues>
            -3.4402623772621155e-01 5.4583001136779785e-01</leafValues></_>
        <_>
          <internalNodes>
            0 -1 124 -3.2719168812036514e-03</internalNodes>
          <leafValues>
            8.3925145864486694e-01 -2.3833404481410980e-01</leafValues></_>
        <_>
          <internalNodes>
            0 -1 51 -2.4389033205807209e-03</internalNodes>
          <leafValues>
            7.8731334209442139e-01 -2.5857064127922058e-01</leafValues></_>
        <_>
          <internalNodes>
            0 -1 134 -9.1285780072212219e-03</internalNodes>
          <leafValues>
            4.1060042381286621e-01 -5.1413339376449585e-01</leafValues></_>
        <_>
          <internalNodes>
            0 -1 107 5.6033651344478130e-04</internalNodes>
          <leafValues>
            -5.4300415515899658e-01 3.2426345348358154e-01</leafValues></_>
        <_>
          <internalNodes>
            0 -1 81 3.5637379623949528e-03</internalNodes>
          <leafValues>
            2.1925348043441772e-01 -8.1505376100540161e-01</leafValues></_>
        <_>
          <internalNodes>
            0 -1 82 5.7786647230386734e-03</internalNodes>
          <leafValues>
            -3.2630646228790283e-01 6.5303874015808105e-01</leafValues></_>
        <_>
          <internalNodes>
            0 -1 115 1.5266632544808090e-04</internalNodes>
          <leafValues>
            -5.4121536016464233e-01 3.4172371029853821e-01</leafValues></_>
        <_>
          <internalNodes>
            0 -1 88 7.7637294307351112e-03</internalNodes>
          <leafValues>
            1.9805884361267090e-01 -9.0291577577590942e-01</leafValues></_></weakClassifiers></_>
    <!-- stage 12 -->
    <_>
      <maxWeakCount>7</maxWeakCount>
      <stageThreshold>-6.0179096460342407e-01</stageThreshold>
      <weakClassifiers>
        <_>
          <internalNodes>
            0 -1 116 -1.2280058581382036e-03</internalNodes>
          <leafValues>
            4.9354839324951172e-01 -5.8888888359069824e-01</leafValues></_>
        <_>
          <internalNodes>
            0 -1 100 1.1692692060023546e-03</internalNodes>
          <leafValues>
            -7.3105710744857788e-01 2.6948449015617371e-01</leafValues></_>
        <_>
          <internalNodes>
            0 -1 8 8.3455480635166168e-03</internalNodes>
          <leafValues>
            -6.3705182075500488e-01 2.9178032279014587e-01</leafValues></_>
        <_>
          <internalNodes>
            0 -1 22 -1.7440313240513206e-04</internalNodes>
          <leafValues>
            4.4863229990005493e-01 -4.5385333895683289e-01</leafValues></_>
        <_>
          <internalNodes>
            0 -1 31 2.2549893707036972e-02</internalNodes>
          <leafValues>
            1.9916534423828125e-01 -8.9512807130813599e-01</leafValues></_>
        <_>
          <internalNodes>
            0 -1 52 1.7787637189030647e-03</internalNodes>
          <leafValues>
            -4.0234017372131348e-01 4.7643315792083740e-01</leafValues></_>
        <_>
          <internalNodes>
            0 -1 105 5.9734018577728420e-05</internalNodes>
          <leafValues>
            -7.6956552267074585e-01 2.0609593391418457e-01</leafValues></_></weakClassifiers></_>
    <!-- stage 13 -->
    <_>
      <maxWeakCount>7</maxWeakCount>
      <stageThreshold>-6.1206930875778198e-01</stageThreshold>
      <weakClassifiers>
        <_>
          <internalNodes>
            0 -1 122 -2.7660000341711566e-05</internalNodes>
          <leafValues>
            -5.7225435972213745e-01 4.7687399387359619e-01</leafValues></_>
        <_>
          <internalNodes>
            0 -1 15 -9.8456228151917458e-03</internalNodes>
          <leafValues>
            4.9594122171401978e-01 -3.9720407128334045e-01</leafValues></_>
        <_>
          <internalNodes>
            0 -1 97 3.3026612072717398e-05</internalNodes>
          <leafValues>
            2.8220620751380920e-01 -7.0002102851867676e-01</leafValues></_>
        <_>
          <internalNodes>
            0 -1 127 -3.9474633522331715e-03</internalNodes>
          <leafValues>
            2.6679056882858276e-01 -6.4384466409683228e-01</leafValues></_>
        <_>
          <internalNodes>
            0 -1 26 4.9746474251151085e-03</internalNodes>
          <leafValues>
            -4.3014591932296753e-01 4.1442584991455078e-01</leafValues></_>
        <_>
          <internalNodes>
            0 -1 44 3.2853686716407537e-03</internalNodes>
          <leafValues>
            -8.1563067436218262e-01 1.6383576393127441e-01</leafValues></_>
        <_>
          <internalNodes>
            0 -1 14 -6.6399633884429932e-02</internalNodes>
          <leafValues>
            -8.3677035570144653e-01 1.7390485107898712e-01</leafValues></_></weakClassifiers></_>
    <!-- stage 14 -->
    <_>
      <maxWeakCount>9</maxWeakCount>
      <stageThreshold>-8.7306988239288330e-01</stageThreshold>
      <weakClassifiers>
        <_>
          <internalNodes>
            0 -1 78 5.0761345773935318e-03</internalNodes>
          <leafValues>
            4.0340909361839294e-01 -8.7500000000000000e-01</leafValues></_>
        <_>
          <internalNodes>
            0 -1 132 -7.9471923410892487e-02</internalNodes>
          <leafValues>
            3.2582303881645203e-01 -4.9597260355949402e-01</leafValues></_>
        <_>
          <internalNodes>
            0 -1 76 1.3310609385371208e-02</internalNodes>
          <leafValues>
            -4.4557565450668335e-01 3.9592450857162476e-01</leafValues></_>
        <_>
          <internalNodes>
            0 -1 56 -1.3989927247166634e-03</internalNodes>
          <leafValues>
            6.3637071847915649e-01 -2.5950098037719727e-01</leafValues></_>
        <_>
          <internalNodes>
            0 -1 54 -1.7220473382622004e-03</internalNodes>
          <leafValues>
            6.8352544307708740e-01 -2.7219489216804504e-01</leafValues></_>
        <_>
          <internalNodes>
            0 -1 117 -2.7567995857680216e-05</internalNodes>
          <leafValues>
            -6.4548659324645996e-01 3.0028647184371948e-01</leafValues></_>
        <_>
          <internalNodes>
            0 -1 117 2.6943120246869512e-05</internalNodes>
          <leafValues>
            2.2892218828201294e-01 -8.7451511621475220e-01</leafValues></_>
        <_>
          <internalNodes>
            0 -1 114 8.9836417464539409e-04</internalNodes>
          <leafValues>
            -5.3229415416717529e-01 3.0898067355155945e-01</leafValues></_>
        <_>
          <internalNodes>
            0 -1 74 -2.4132791440933943e-03</internalNodes>
          <leafValues>
            8.3003950119018555e-01 -2.0451526343822479e-01</leafValues></_></weakClassifiers></_>
    <!-- stage 15 -->
    <_>
      <maxWeakCount>10</maxWeakCount>
      <stageThreshold>-1.1375467777252197e+00</stageThreshold>
      <weakClassifiers>
        <_>
          <internalNodes>
            0 -1 57 1.8117524683475494e-02</internalNodes>
          <leafValues>
            3.9829301834106445e-01 -8.2474225759506226e-01</leafValues></_>
        <_>
          <internalNodes>
            0 -1 9 5.0909295678138733e-02</internalNodes>
          <leafValues>
            -3.5725259780883789e-01 4.6681994199752808e-01</leafValues></_>
        <_>
          <internalNodes>
            0 -1 104 -3.6006332375109196e-03</internalNodes>
          <leafValues>
            3.2605138421058655e-01 -6.1740076541900635e-01</leafValues></_>
        <_>
          <internalNodes>
            0 -1 128 -3.0764015391469002e-03</internalNodes>
          <leafValues>
            6.1922800540924072e-01 -2.9968869686126709e-01</leafValues></_>
        <_>
          <internalNodes>
            0 -1 71 -1.6123352106660604e-03</internalNodes>
          <leafValues>
            2.5830423831939697e-01 -6.6347044706344604e-01</leafValues></_>
        <_>
          <internalNodes>
            0 -1 63 9.9628814496099949e-04</internalNodes>
          <leafValues>
            -8.2221472263336182e-01 2.1855607628822327e-01</leafValues></_>
        <_>
          <internalNodes>
            0 -1 102 -2.3781205527484417e-04</internalNodes>
          <leafValues>
            4.4208583235740662e-01 -4.2430999875068665e-01</leafValues></_>
        <_>
          <internalNodes>
            0 -1 87 -5.2600124035961926e-05</internalNodes>
          <leafValues>
            -6.5221440792083740e-01 2.3912364244461060e-01</leafValues></_>
        <_>
          <internalNodes>
            0 -1 36 -2.1317375358194113e-03</internalNodes>
          <leafValues>
            6.3277953863143921e-01 -2.8609278798103333e-01</leafValues></_>
        <_>
          <internalNodes>
            0 -1 77 -2.6676093693822622e-04</internalNodes>
          <leafValues>
            5.2517616748809814e-01 -2.6707887649536133e-01</leafValues></_></weakClassifiers></_>
    <!-- stage 16 -->
    <_>
      <maxWeakCount>10</maxWeakCount>
      <stageThreshold>-6.7972731590270996e-01</stageThreshold>
      <weakClassifiers>
        <_>
          <internalNodes>
            0 -1 60 2.9386796522885561e-03</internalNodes>
          <leafValues>
            -4.8812663555145264e-01 4.7911548614501953e-01</leafValues></_>
        <_>
          <internalNodes>
            0 -1 106 4.2292958823964000e-04</internalNodes>
          <leafValues>
            -5.9934812784194946e-01 2.9654380679130554e-01</leafValues></_>
        <_>
          <internalNodes>
            0 -1 10 -1.0852036997675896e-02</internalNodes>
          <leafValues>
            -4.9923670291900635e-01 3.7964341044425964e-01</leafValues></_>
        <_>
          <internalNodes>
            0 -1 118 2.3927892470965162e-05</internalNodes>
          <leafValues>
            1.8875890970230103e-01 -7.3060625791549683e-01</leafValues></_>
        <_>
          <internalNodes>
            0 -1 121 -2.1119398297742009e-05</internalNodes>
          <leafValues>
            -6.3058859109878540e-01 2.6720520853996277e-01</leafValues></_>
        <_>
          <internalNodes>
            0 -1 33 -6.6580163547769189e-05</internalNodes>
          <leafValues>
            4.0013104677200317e-01 -4.2689558863639832e-01</leafValues></_>
        <_>
          <internalNodes>
            0 -1 89 3.5985707654617727e-04</internalNodes>
          <leafValues>
            -3.0779764056205750e-01 5.4659116268157959e-01</leafValues></_>
        <_>
          <internalNodes>
            0 -1 113 1.7072951886802912e-03</internalNodes>
          <leafValues>
            2.7881899476051331e-01 -7.1662038564682007e-01</leafValues></_>
        <_>
          <internalNodes>
            0 -1 28 -3.4393428359180689e-03</internalNodes>
          <leafValues>
            5.1046609878540039e-01 -3.6039498448371887e-01</leafValues></_>
        <_>
          <internalNodes>
            0 -1 95 -2.1413575450424105e-04</internalNodes>
          <leafValues>
            4.6457096934318542e-01 -3.0799120664596558e-01</leafValues></_></weakClassifiers></_>
    <!-- stage 17 -->
    <_>
      <maxWeakCount>10</maxWeakCount>
      <stageThreshold>-8.6414372920989990e-01</stageThreshold>
      <weakClassifiers>
        <_>
          <internalNodes>
            0 -1 41 -1.3720644637942314e-02</internalNodes>
          <leafValues>
            -8.3251231908798218e-01 4.0730136632919312e-01</leafValues></_>
        <_>
          <internalNodes>
            0 -1 139 -2.9154632240533829e-02</internalNodes>
          <leafValues>
            3.3392187952995300e-01 -3.7470808625221252e-01</leafValues></_>
        <_>
          <internalNodes>
            0 -1 16 3.4318123944103718e-03</internalNodes>
          <leafValues>
            -4.0222886204719543e-01 3.6658555269241333e-01</leafValues></_>
        <_>
          <internalNodes>
            0 -1 110 -1.0631675650074612e-05</internalNodes>
          <leafValues>
            -5.0853216648101807e-01 2.5791779160499573e-01</leafValues></_>
        <_>
          <internalNodes>
            0 -1 25 -2.2280588746070862e-03</internalNodes>
          <leafValues>
            3.7261164188385010e-01 -4.0044572949409485e-01</leafValues></_>
        <_>
          <internalNodes>
            0 -1 111 4.5654101995751262e-05</internalNodes>
          <leafValues>
            1.9319243729114532e-01 -7.9740375280380249e-01</leafValues></_>
        <_>
          <internalNodes>
            0 -1 85 2.1906016627326608e-04</internalNodes>
          <leafValues>
            -3.5486412048339844e-01 4.3196803331375122e-01</leafValues></_>
        <_>
          <internalNodes>
            0 -1 1 1.3171789050102234e-01</internalNodes>
          <leafValues>
            -4.4776085019111633e-01 3.2752743363380432e-01</leafValues></_>
        <_>
          <internalNodes>
            0 -1 55 -4.0653883479535580e-04</internalNodes>
          <leafValues>
            5.1785480976104736e-01 -2.8722470998764038e-01</leafValues></_>
        <_>
          <internalNodes>
            0 -1 101 6.6727241501212120e-03</internalNodes>
          <leafValues>
            2.2223673760890961e-01 -8.2169830799102783e-01</leafValues></_></weakClassifiers></_>
    <!-- stage 18 -->
    <_>
      <maxWeakCount>11</maxWeakCount>
      <stageThreshold>-9.5349448919296265e-01</stageThreshold>
      <weakClassifiers>
        <_>
          <internalNodes>
            0 -1 48 2.5520587339997292e-02</internalNodes>
          <leafValues>
            4.3200600147247314e-01 -6.5055763721466064e-01</leafValues></_>
        <_>
          <internalNodes>
            0 -1 91 1.8386397641734220e-05</internalNodes>
          <leafValues>
            2.5319406390190125e-01 -5.7272291183471680e-01</leafValues></_>
        <_>
          <internalNodes>
            0 -1 29 1.9888121634721756e-02</internalNodes>
          <leafValues>
            -6.2750935554504395e-01 2.4115842580795288e-01</leafValues></_>
        <_>
          <internalNodes>
            0 -1 75 1.9373756367713213e-03</internalNodes>
          <leafValues>
            -3.9166730642318726e-01 3.7978619337081909e-01</leafValues></_>
        <_>
          <internalNodes>
            0 -1 17 3.1403437256813049e-02</internalNodes>
          <leafValues>
            1.3897244632244110e-01 -8.4685468673706055e-01</leafValues></_>
        <_>
          <internalNodes>
            0 -1 131 9.7883512353291735e-06</internalNodes>
          <leafValues>
            2.2658841311931610e-01 -5.1483738422393799e-01</leafValues></_>
        <_>
          <internalNodes>
            0 -1 62 -1.3878366444259882e-03</internalNodes>
          <leafValues>
            3.2612794637680054e-01 -3.8654035329818726e-01</leafValues></_>
        <_>
          <internalNodes>
            0 -1 90 4.3494210694916546e-04</internalNodes>
          <leafValues>
            -2.9690340161323547e-01 4.5578199625015259e-01</leafValues></_>
        <_>
          <internalNodes>
            0 -1 91 -3.4354037779849023e-05</internalNodes>
          <leafValues>
            -7.4826604127883911e-01 2.0258148014545441e-01</leafValues></_>
        <_>
          <internalNodes>
            0 -1 42 5.0781118261511438e-06</internalNodes>
          <leafValues>
            -6.9453519582748413e-01 1.7534245550632477e-01</leafValues></_>
        <_>
          <internalNodes>
            0 -1 119 4.5810558367520571e-04</internalNodes>
          <leafValues>
            -4.4137975573539734e-01 2.6103663444519043e-01</leafValues></_></weakClassifiers></_>
    <!-- stage 19 -->
    <_>
      <maxWeakCount>12</maxWeakCount>
      <stageThreshold>-8.4858155250549316e-01</stageThreshold>
      <weakClassifiers>
        <_>
          <internalNodes>
            0 -1 135 -1.9913792610168457e-02</internalNodes>
          <leafValues>
            4.1768291592597961e-01 -5.1388889551162720e-01</leafValues></_>
        <_>
          <internalNodes>
            0 -1 13 9.6766352653503418e-02</internalNodes>
          <leafValues>
            -4.1280609369277954e-01 3.0513241887092590e-01</leafValues></_>
        <_>
          <internalNodes>
            0 -1 19 -4.7481752699241042e-04</internalNodes>
          <leafValues>
            5.6321001052856445e-01 -2.4253134429454803e-01</leafValues></_>
        <_>
          <internalNodes>
            0 -1 123 5.8423691370990127e-05</internalNodes>
          <leafValues>
            3.1524959206581116e-01 -4.3354794383049011e-01</leafValues></_>
        <_>
          <internalNodes>
            0 -1 79 -3.0502232257276773e-03</internalNodes>
          <leafValues>
            5.9706562757492065e-01 -2.5127741694450378e-01</leafValues></_>
        <_>
          <internalNodes>
            0 -1 92 2.2968284611124545e-05</internalNodes>
          <leafValues>
            2.3728471994400024e-01 -5.8205676078796387e-01</leafValues></_>
        <_>
          <internalNodes>
            0 -1 129 -1.2305991724133492e-02</internalNodes>
          <leafValues>
            -3.9209809899330139e-01 3.3852729201316833e-01</leafValues></_>
        <_>
          <internalNodes>
            0 -1 72 8.6493592243641615e-04</internalNodes>
          <leafValues>
            -4.3025776743888855e-01 3.4346526861190796e-01</leafValues></_>
        <_>
          <internalNodes>
            0 -1 80 -4.3741269037127495e-03</internalNodes>
          <leafValues>
            -6.8977540731430054e-01 1.9868880510330200e-01</leafValues></_>
        <_>
          <internalNodes>
            0 -1 96 2.7232535649091005e-04</internalNodes>
          <leafValues>
            -3.9338260889053345e-01 3.4042942523956299e-01</leafValues></_>
        <_>
          <internalNodes>
            0 -1 59 2.7831695973873138e-02</internalNodes>
          <leafValues>
            1.3317111134529114e-01 -9.7705620527267456e-01</leafValues></_>
        <_>
          <internalNodes>
            0 -1 98 -1.1324699968099594e-02</internalNodes>
          <leafValues>
            -7.7574348449707031e-01 1.4149609208106995e-01</leafValues></_></weakClassifiers></_></stages>
  <features>
    <_>
      <rects>
        <_>
          0 1 16 29 -1.</_>
        <_>
          8 1 8 29 2.</_></rects>
      <tilted>0</tilted></_>
    <_>
      <rects>
        <_>
          0 2 20 28 -1.</_>
        <_>
          10 2 10 28 2.</_></rects>
      <tilted>0</tilted></_>
    <_>
      <rects>
        <_>
          0 3 16 26 -1.</_>
        <_>
          8 3 8 26 2.</_></rects>
      <tilted>0</tilted></_>
    <_>
      <rects>
        <_>
          0 7 12 17 -1.</_>
        <_>
          6 7 6 17 2.</_></rects>
      <tilted>0</tilted></_>
    <_>
      <rects>
        <_>
          0 9 10 11 -1.</_>
        <_>
          5 9 5 11 2.</_></rects>
      <tilted>0</tilted></_>
    <_>
      <rects>
        <_>
          0 10 12 10 -1.</_>
        <_>
          6 10 6 10 2.</_></rects>
      <tilted>0</tilted></_>
    <_>
      <rects>
        <_>
          0 11 10 7 -1.</_>
        <_>
          5 11 5 7 2.</_></rects>
      <tilted>0</tilted></_>
    <_>
      <rects>
        <_>
          0 11 14 16 -1.</_>
        <_>
          7 11 7 16 2.</_></rects>
      <tilted>0</tilted></_>
    <_>
      <rects>
        <_>
          0 13 24 2 -1.</_>
        <_>
          12 13 12 2 2.</_></rects>
      <tilted>0</tilted></_>
    <_>
      <rects>
        <_>
          0 15 14 9 -1.</_>
        <_>
          7 15 7 9 2.</_></rects>
      <tilted>0</tilted></_>
    <_>
      <rects>
        <_>
          0 17 2 6 -1.</_>
        <_>
          0 19 2 2 2.</_></rects>
      <tilted>0</tilted></_>
    <_>
      <rects>
        <_>
          0 18 12 1 -1.</_>
        <_>
          6 18 6 1 2.</_></rects>
      <tilted>0</tilted></_>
    <_>
      <rects>
        <_>
          0 24 1 3 -1.</_>
        <_>
          0 25 1 1 2.</_></rects>
      <tilted>0</tilted></_>
    <_>
      <rects>
        <_>
          2 0 45 14 -1.</_>
        <_>
          2 7 45 7 2.</_></rects>
      <tilted>0</tilted></_>
    <_>
      <rects>
        <_>
          2 3 18 2 -1.</_>
        <_>
          8 3 6 2 2.</_></rects>
      <tilted>0</tilted></_>
    <_>
      <rects>
        <_>
          4 25 26 4 -1.</_>
        <_>
          4 25 13 2 2.</_>
        <_>
          17 27 13 2 2.</_></rects>
      <tilted>0</tilted></_>
    <_>
      <rects>
        <_>
          6 0 32 2 -1.</_>
        <_>
          6 1 32 1 2.</_></rects>
      <tilted>0</tilted></_>
    <_>
      <rects>
        <_>
          6 9 27 12 -1.</_>
        <_>
          6 15 27 6 2.</_></rects>
      <tilted>0</tilted></_>
    <_>
      <rects>
        <_>
          7 1 22 4 -1.</_>
        <_>
          7 1 11 2 2.</_>
        <_>
          18 3 11 2 2.</_></rects>
      <tilted>0</tilted></_>
    <_>
      <rects>
        <_>
          7 13 4 3 -1.</_>
        <_>
          9 13 2 3 2.</_></rects>
      <tilted>0</tilted></_>
    <_>
      <rects>
        <_>
          8 1 22 4 -1.</_>
        <_>
          8 1 11 2 2.</_>
        <_>
          19 3 11 2 2.</_></rects>
      <tilted>0</tilted></_>
    <_>
      <rects>
        <_>
          8 2 22 2 -1.</_>
        <_>
          8 2 11 1 2.</_>
        <_>
          19 3 11 1 2.</_></rects>
      <tilted>0</tilted></_>
    <_>
      <rects>
        <_>
          8 12 4 7 -1.</_>
        <_>
          10 12 2 7 2.</_></rects>
      <tilted>0</tilted></_>
    <_>
      <rects>
        <_>
          8 20 28 10 -1.</_>
        <_>
          8 25 28 5 2.</_></rects>
      <tilted>0</tilted></_>
    <_>
      <rects>
        <_>
          9 11 26 7 -1.</_>
        <_>
          22 11 13 7 2.</_></rects>
      <tilted>0</tilted></_>
    <_>
      <rects>
        <_>
          9 26 20 2 -1.</_>
        <_>
          9 26 10 1 2.</_>
        <_>
          19 27 10 1 2.</_></rects>
      <tilted>0</tilted></_>
    <_>
      <rects>
        <_>
          10 0 28 2 -1.</_>
        <_>
          10 1 28 1 2.</_></rects>
      <tilted>0</tilted></_>
    <_>
      <rects>
        <_>
          10 0 30 2 -1.</_>
        <_>
          10 1 30 1 2.</_></rects>
      <tilted>0</tilted></_>
    <_>
      <rects>
        <_>
          10 2 12 6 -1.</_>
        <_>
          10 2 6 3 2.</_>
        <_>
          16 5 6 3 2.</_></rects>
      <tilted>0</tilted></_>
    <_>
      <rects>
        <_>
          10 5 26 20 -1.</_>
        <_>
          23 5 13 20 2.</_></rects>
      <tilted>0</tilted></_>
    <_>
      <rects>
        <_>
          10 6 10 10 -1.</_>
        <_>
          10 6 5 5 2.</_>
        <_>
          15 11 5 5 2.</_></rects>
      <tilted>0</tilted></_>
    <_>
      <rects>
        <_>
          10 8 12 13 -1.</_>
        <_>
          16 8 6 13 2.</_></rects>
      <tilted>0</tilted></_>
    <_>
      <rects>
        <_>
          10 8 22 14 -1.</_>
        <_>
          21 8 11 14 2.</_></rects>
      <tilted>0</tilted></_>
    <_>
      <rects>
        <_>
          10 10 2 9 -1.</_>
        <_>
          11 10 1 9 2.</_></rects>
      <tilted>0</tilted></_>
    <_>
      <rects>
        <_>
          10 11 28 11 -1.</_>
        <_>
          24 11 14 11 2.</_></rects>
      <tilted>0</tilted></_>
    <_>
      <rects>
        <_>
          10 20 31 10 -1.</_>
        <_>
          10 25 31 5 2.</_></rects>
      <tilted>0</tilted></_>
    <_>
      <rects>
        <_>
          10 27 12 2 -1.</_>
        <_>
          10 27 6 1 2.</_>
        <_>
          16 28 6 1 2.</_></rects>
      <tilted>0</tilted></_>
    <_>
      <rects>
        <_>
          10 28 27 2 -1.</_>
        <_>
          10 29 27 1 2.</_></rects>
      <tilted>0</tilted></_>
    <_>
      <rects>
        <_>
          10 28 29 2 -1.</_>
        <_>
          10 29 29 1 2.</_></rects>
      <tilted>0</tilted></_>
    <_>
      <rects>
        <_>
          11 0 27 2 -1.</_>
        <_>
          11 1 27 1 2.</_></rects>
      <tilted>0</tilted></_>
    <_>
      <rects>
        <_>
          11 1 18 4 -1.</_>
        <_>
          11 1 9 2 2.</_>
        <_>
          20 3 9 2 2.</_></rects>
      <tilted>0</tilted></_>
    <_>
      <rects>
        <_>
          11 6 22 18 -1.</_>
        <_>
          11 15 22 9 2.</_></rects>
      <tilted>0</tilted></_>
    <_>
      <rects>
        <_>
          11 10 8 9 -1.</_>
        <_>
          15 10 4 9 2.</_></rects>
      <tilted>0</tilted></_>
    <_>
      <rects>
        <_>
          11 22 23 8 -1.</_>
        <_>
          11 26 23 4 2.</_></rects>
      <tilted>0</tilted></_>
    <_>
      <rects>
        <_>
          12 9 14 12 -1.</_>
        <_>
          19 9 7 12 2.</_></rects>
      <tilted>0</tilted></_>
    <_>
      <rects>
        <_>
          12 22 22 8 -1.</_>
        <_>
          12 26 22 4 2.</_></rects>
      <tilted>0</tilted></_>
    <_>
      <rects>
        <_>
          12 28 25 2 -1.</_>
        <_>
          12 29 25 1 2.</_></rects>
      <tilted>0</tilted></_>
    <_>
      <rects>
        <_>
          12 28 28 2 -1.</_>
        <_>
          12 29 28 1 2.</_></rects>
      <tilted>0</tilted></_>
    <_>
      <rects>
        <_>
          13 1 10 28 -1.</_>
        <_>
          18 1 5 28 2.</_></rects>
      <tilted>0</tilted></_>
    <_>
      <rects>
        <_>
          13 4 10 18 -1.</_>
        <_>
          13 13 10 9 2.</_></rects>
      <tilted>0</tilted></_>
    <_>
      <rects>
        <_>
          13 10 20 14 -1.</_>
        <_>
          23 10 10 14 2.</_></rects>
      <tilted>0</tilted></_>
    <_>
      <rects>
        <_>
          13 28 3 2 -1.</_>
        <_>
          13 29 3 1 2.</_></rects>
      <tilted>0</tilted></_>
    <_>
      <rects>
        <_>
          14 3 14 2 -1.</_>
        <_>
          14 3 7 1 2.</_>
        <_>
          21 4 7 1 2.</_></rects>
      <tilted>0</tilted></_>
    <_>
      <rects>
        <_>
          14 9 10 14 -1.</_>
        <_>
          19 9 5 14 2.</_></rects>
      <tilted>0</tilted></_>
    <_>
      <rects>
        <_>
          14 28 2 2 -1.</_>
        <_>
          14 29 2 1 2.</_></rects>
      <tilted>0</tilted></_>
    <_>
      <rects>
        <_>
          15 2 4 2 -1.</_>
        <_>
          15 3 4 1 2.</_></rects>
      <tilted>0</tilted></_>
    <_>
      <rects>
        <_>
          15 3 7 2 -1.</_>
        <_>
          15 4 7 1 2.</_></rects>
      <tilted>0</tilted></_>
    <_>
      <rects>
        <_>
          15 8 10 18 -1.</_>
        <_>
          15 17 10 9 2.</_></rects>
      <tilted>0</tilted></_>
    <_>
      <rects>
        <_>
          15 9 12 14 -1.</_>
        <_>
          15 16 12 7 2.</_></rects>
      <tilted>0</tilted></_>
    <_>
      <rects>
        <_>
          15 10 24 14 -1.</_>
        <_>
          27 10 12 14 2.</_></rects>
      <tilted>0</tilted></_>
    <_>
      <rects>
        <_>
          16 0 2 22 -1.</_>
        <_>
          16 11 2 11 2.</_></rects>
      <tilted>0</tilted></_>
    <_>
      <rects>
        <_>
          16 0 19 4 -1.</_>
        <_>
          16 2 19 2 2.</_></rects>
      <tilted>0</tilted></_>
    <_>
      <rects>
        <_>
          16 1 32 2 -1.</_>
        <_>
          16 1 16 1 2.</_>
        <_>
          32 2 16 1 2.</_></rects>
      <tilted>0</tilted></_>
    <_>
      <rects>
        <_>
          16 9 8 14 -1.</_>
        <_>
          20 9 4 14 2.</_></rects>
      <tilted>0</tilted></_>
    <_>
      <rects>
        <_>
          17 0 14 6 -1.</_>
        <_>
          17 3 14 3 2.</_></rects>
      <tilted>0</tilted></_>
    <_>
      <rects>
        <_>
          17 3 2 18 -1.</_>
        <_>
          17 9 2 6 2.</_></rects>
      <tilted>0</tilted></_>
    <_>
      <rects>
        <_>
          17 7 16 16 -1.</_>
        <_>
          25 7 8 16 2.</_></rects>
      <tilted>0</tilted></_>
    <_>
      <rects>
        <_>
          17 20 5 10 -1.</_>
        <_>
          17 25 5 5 2.</_></rects>
      <tilted>0</tilted></_>
    <_>
      <rects>
        <_>
          18 0 26 12 -1.</_>
        <_>
          18 6 26 6 2.</_></rects>
      <tilted>0</tilted></_>
    <_>
      <rects>
        <_>
          18 3 8 2 -1.</_>
        <_>
          18 3 4 1 2.</_>
        <_>
          22 4 4 1 2.</_></rects>
      <tilted>0</tilted></_>
    <_>
      <rects>
        <_>
          18 5 10 10 -1.</_>
        <_>
          18 5 5 5 2.</_>
        <_>
          23 10 5 5 2.</_></rects>
      <tilted>0</tilted></_>
    <_>
      <rects>
        <_>
          18 12 30 1 -1.</_>
        <_>
          33 12 15 1 2.</_></rects>
      <tilted>0</tilted></_>
    <_>
      <rects>
        <_>
          18 17 11 6 -1.</_>
        <_>
          18 20 11 3 2.</_></rects>
      <tilted>0</tilted></_>
    <_>
      <rects>
        <_>
          18 24 12 6 -1.</_>
        <_>
          18 27 12 3 2.</_></rects>
      <tilted>0</tilted></_>
    <_>
      <rects>
        <_>
          18 25 8 2 -1.</_>
        <_>
          18 25 4 1 2.</_>
        <_>
          22 26 4 1 2.</_></rects>
      <tilted>0</tilted></_>
    <_>
      <rects>
        <_>
          18 26 24 2 -1.</_>
        <_>
          18 26 12 1 2.</_>
        <_>
          30 27 12 1 2.</_></rects>
      <tilted>0</tilted></_>
    <_>
      <rects>
        <_>
          19 0 10 6 -1.</_>
        <_>
          19 3 10 3 2.</_></rects>
      <tilted>0</tilted></_>
    <_>
      <rects>
        <_>
          19 4 4 2 -1.</_>
        <_>
          19 5 4 1 2.</_></rects>
      <tilted>0</tilted></_>
    <_>
      <rects>
        <_>
          19 18 10 6 -1.</_>
        <_>
          24 18 5 6 2.</_></rects>
      <tilted>0</tilted></_>
    <_>
      <rects>
        <_>
          19 27 14 2 -1.</_>
        <_>
          19 27 7 1 2.</_>
        <_>
          26 28 7 1 2.</_></rects>
      <tilted>0</tilted></_>
    <_>
      <rects>
        <_>
          20 6 14 17 -1.</_>
        <_>
          27 6 7 17 2.</_></rects>
      <tilted>0</tilted></_>
    <_>
      <rects>
        <_>
          20 11 6 10 -1.</_>
        <_>
          20 16 6 5 2.</_></rects>
      <tilted>0</tilted></_>
    <_>
      <rects>
        <_>
          20 24 14 4 -1.</_>
        <_>
          20 24 7 2 2.</_>
        <_>
          27 26 7 2 2.</_></rects>
      <tilted>0</tilted></_>
    <_>
      <rects>
        <_>
          21 12 8 3 -1.</_>
        <_>
          25 12 4 3 2.</_></rects>
      <tilted>0</tilted></_>
    <_>
      <rects>
        <_>
          21 14 13 8 -1.</_>
        <_>
          21 18 13 4 2.</_></rects>
      <tilted>0</tilted></_>
    <_>
      <rects>
        <_>
          21 15 2 6 -1.</_>
        <_>
          22 15 1 6 2.</_></rects>
      <tilted>0</tilted></_>
    <_>
      <rects>
        <_>
          21 16 4 6 -1.</_>
        <_>
          21 19 4 3 2.</_></rects>
      <tilted>0</tilted></_>
    <_>
      <rects>
        <_>
          21 21 8 1 -1.</_>
        <_>
          25 21 4 1 2.</_></rects>
      <tilted>0</tilted></_>
    <_>
      <rects>
        <_>
          22 5 12 9 -1.</_>
        <_>
          28 5 6 9 2.</_></rects>
      <tilted>0</tilted></_>
    <_>
      <rects>
        <_>
          22 10 6 2 -1.</_>
        <_>
          22 10 3 1 2.</_>
        <_>
          25 11 3 1 2.</_></rects>
      <tilted>0</tilted></_>
    <_>
      <rects>
        <_>
          22 10 8 2 -1.</_>
        <_>
          22 10 4 1 2.</_>
        <_>
          26 11 4 1 2.</_></rects>
      <tilted>0</tilted></_>
    <_>
      <rects>
        <_>
          22 21 4 1 -1.</_>
        <_>
          24 21 2 1 2.</_></rects>
      <tilted>0</tilted></_>
    <_>
      <rects>
        <_>
          22 21 6 1 -1.</_>
        <_>
          25 21 3 1 2.</_></rects>
      <tilted>0</tilted></_>
    <_>
      <rects>
        <_>
          22 21 8 1 -1.</_>
        <_>
          26 21 4 1 2.</_></rects>
      <tilted>0</tilted></_>
    <_>
      <rects>
        <_>
          23 0 4 6 -1.</_>
        <_>
          23 3 4 3 2.</_></rects>
      <tilted>0</tilted></_>
    <_>
      <rects>
        <_>
          23 8 2 4 -1.</_>
        <_>
          23 10 2 2 2.</_></rects>
      <tilted>0</tilted></_>
    <_>
      <rects>
        <_>
          23 10 3 4 -1.</_>
        <_>
          23 12 3 2 2.</_></rects>
      <tilted>0</tilted></_>
    <_>
      <rects>
        <_>
          23 21 6 1 -1.</_>
        <_>
          26 21 3 1 2.</_></rects>
      <tilted>0</tilted></_>
    <_>
      <rects>
        <_>
          24 2 18 20 -1.</_>
        <_>
          24 2 9 10 2.</_>
        <_>
          33 12 9 10 2.</_></rects>
      <tilted>0</tilted></_>
    <_>
      <rects>
        <_>
          24 3 18 14 -1.</_>
        <_>
          24 3 9 7 2.</_>
        <_>
          33 10 9 7 2.</_></rects>
      <tilted>0</tilted></_>
    <_>
      <rects>
        <_>
          24 4 18 12 -1.</_>
        <_>
          24 4 9 6 2.</_>
        <_>
          33 10 9 6 2.</_></rects>
      <tilted>0</tilted></_>
    <_>
      <rects>
        <_>
          24 6 3 20 -1.</_>
        <_>
          24 16 3 10 2.</_></rects>
      <tilted>0</tilted></_>
    <_>
      <rects>
        <_>
          24 10 6 4 -1.</_>
        <_>
          24 10 3 2 2.</_>
        <_>
          27 12 3 2 2.</_></rects>
      <tilted>0</tilted></_>
    <_>
      <rects>
        <_>
          24 10 14 6 -1.</_>
        <_>
          31 10 7 6 2.</_></rects>
      <tilted>0</tilted></_>
    <_>
      <rects>
        <_>
          25 9 16 18 -1.</_>
        <_>
          25 9 8 9 2.</_>
        <_>
          33 18 8 9 2.</_></rects>
      <tilted>0</tilted></_>
    <_>
      <rects>
        <_>
          25 10 2 12 -1.</_>
        <_>
          25 16 2 6 2.</_></rects>
      <tilted>0</tilted></_>
    <_>
      <rects>
        <_>
          25 10 14 6 -1.</_>
        <_>
          32 10 7 6 2.</_></rects>
      <tilted>0</tilted></_>
    <_>
      <rects>
        <_>
          25 13 6 6 -1.</_>
        <_>
          25 16 6 3 2.</_></rects>
      <tilted>0</tilted></_>
    <_>
      <rects>
        <_>
          25 14 4 8 -1.</_>
        <_>
          25 18 4 4 2.</_></rects>
      <tilted>0</tilted></_>
    <_>
      <rects>
        <_>
          25 20 6 2 -1.</_>
        <_>
          28 20 3 2 2.</_></rects>
      <tilted>0</tilted></_>
    <_>
      <rects>
        <_>
          25 21 2 2 -1.</_>
        <_>
          25 22 2 1 2.</_></rects>
      <tilted>0</tilted></_>
    <_>
      <rects>
        <_>
          25 21 3 2 -1.</_>
        <_>
          25 22 3 1 2.</_></rects>
      <tilted>0</tilted></_>
    <_>
      <rects>
        <_>
          25 22 4 1 -1.</_>
        <_>
          27 22 2 1 2.</_></rects>
      <tilted>0</tilted></_>
    <_>
      <rects>
        <_>
          26 4 2 26 -1.</_>
        <_>
          26 17 2 13 2.</_></rects>
      <tilted>0</tilted></_>
    <_>
      <rects>
        <_>
          26 4 6 10 -1.</_>
        <_>
          26 4 3 5 2.</_>
        <_>
          29 9 3 5 2.</_></rects>
      <tilted>0</tilted></_>
    <_>
      <rects>
        <_>
          26 10 6 4 -1.</_>
        <_>
          29 10 3 4 2.</_></rects>
      <tilted>0</tilted></_>
    <_>
      <rects>
        <_>
          26 20 1 10 -1.</_>
        <_>
          26 25 1 5 2.</_></rects>
      <tilted>0</tilted></_>
    <_>
      <rects>
        <_>
          26 21 4 1 -1.</_>
        <_>
          28 21 2 1 2.</_></rects>
      <tilted>0</tilted></_>
    <_>
      <rects>
        <_>
          26 21 6 1 -1.</_>
        <_>
          29 21 3 1 2.</_></rects>
      <tilted>0</tilted></_>
    <_>
      <rects>
        <_>
          27 13 2 8 -1.</_>
        <_>
          27 17 2 4 2.</_></rects>
      <tilted>0</tilted></_>
    <_>
      <rects>
        <_>
          27 18 12 5 -1.</_>
        <_>
          33 18 6 5 2.</_></rects>
      <tilted>0</tilted></_>
    <_>
      <rects>
        <_>
          27 21 4 1 -1.</_>
        <_>
          29 21 2 1 2.</_></rects>
      <tilted>0</tilted></_>
    <_>
      <rects>
        <_>
          28 20 2 2 -1.</_>
        <_>
          28 21 2 1 2.</_></rects>
      <tilted>0</tilted></_>
    <_>
      <rects>
        <_>
          30 3 5 2 -1.</_>
        <_>
          30 4 5 1 2.</_></rects>
      <tilted>0</tilted></_>
    <_>
      <rects>
        <_>
          31 28 4 2 -1.</_>
        <_>
          31 29 4 1 2.</_></rects>
      <tilted>0</tilted></_>
    <_>
      <rects>
        <_>
          32 0 4 2 -1.</_>
        <_>
          32 1 4 1 2.</_></rects>
      <tilted>0</tilted></_>
    <_>
      <rects>
        <_>
          32 6 16 16 -1.</_>
        <_>
          40 6 8 16 2.</_></rects>
      <tilted>0</tilted></_>
    <_>
      <rects>
        <_>
          32 19 16 2 -1.</_>
        <_>
          40 19 8 2 2.</_></rects>
      <tilted>0</tilted></_>
    <_>
      <rects>
        <_>
          32 28 4 2 -1.</_>
        <_>
          32 29 4 1 2.</_></rects>
      <tilted>0</tilted></_>
    <_>
      <rects>
        <_>
          33 27 5 3 -1.</_>
        <_>
          33 28 5 1 2.</_></rects>
      <tilted>0</tilted></_>
    <_>
      <rects>
        <_>
          34 1 14 28 -1.</_>
        <_>
          41 1 7 28 2.</_></rects>
      <tilted>0</tilted></_>
    <_>
      <rects>
        <_>
          35 9 1 2 -1.</_>
        <_>
          35 10 1 1 2.</_></rects>
      <tilted>0</tilted></_>
    <_>
      <rects>
        <_>
          36 3 12 27 -1.</_>
        <_>
          42 3 6 27 2.</_></rects>
      <tilted>0</tilted></_>
    <_>
      <rects>
        <_>
          36 7 12 14 -1.</_>
        <_>
          42 7 6 14 2.</_></rects>
      <tilted>0</tilted></_>
    <_>
      <rects>
        <_>
          36 10 12 3 -1.</_>
        <_>
          42 10 6 3 2.</_></rects>
      <tilted>0</tilted></_>
    <_>
      <rects>
        <_>
          38 8 10 16 -1.</_>
        <_>
          43 8 5 16 2.</_></rects>
      <tilted>0</tilted></_>
    <_>
      <rects>
        <_>
          38 9 10 11 -1.</_>
        <_>
          43 9 5 11 2.</_></rects>
      <tilted>0</tilted></_>
    <_>
      <rects>
        <_>
          38 10 10 10 -1.</_>
        <_>
          43 10 5 10 2.</_></rects>
      <tilted>0</tilted></_>
    <_>
      <rects>
        <_>
          38 11 10 11 -1.</_>
        <_>
          43 11 5 11 2.</_></rects>
      <tilted>0</tilted></_>
    <_>
      <rects>
        <_>
          38 12 10 7 -1.</_>
        <_>
          43 12 5 7 2.</_></rects>
      <tilted>0</tilted></_>
    <_>
      <rects>
        <_>
          38 13 10 8 -1.</_>
        <_>
          43 13 5 8 2.</_></rects>
      <tilted>0</tilted></_></features></cascade>
</opencv_storage>
